-0.000273424;-0.000101445;-1.00003;0.948929;-1.00013;0.999979;-1.99994;1.99991;-1.99991;6.2533e-05;-0.0327586;-0.0183031;-0.00812;
0.000193872;0.000204438;-0.999919;0.901524;-0.999869;1.00016;-1.99978;2.00022;-1.99961;0.000225076;-0.0632881;-0.0351525;-0.0156455;
0.00123232;0.000819766;-0.999707;0.857637;-0.999305;1.0005;-1.99955;2.00083;-1.99915;0.000465588;-0.0916899;-0.050615;-0.0226008;
0.00269581;0.00166092;-0.999423;0.817098;-0.998512;1.00095;-1.99926;2.00167;-1.99857;0.000765082;-0.118075;-0.0647634;-0.0290135;
0.00446064;0.00265776;-0.999093;0.779722;-0.997552;1.00148;-1.99892;2.00267;-1.9979;0.00110749;-0.142559;-0.0776741;-0.0349137;
0.0064238;0.0037525;-0.998737;0.745315;-0.996478;1.00206;-1.99855;2.00378;-1.99718;0.00147945;-0.165261;-0.0894252;-0.0403327;
0.0085009;0.00489839;-0.998372;0.71368;-0.995333;1.00266;-1.99816;2.00495;-1.99643;0.00187001;-0.1863;-0.100095;-0.0453023;
0.0106239;0.00605831;-0.998011;0.684623;-0.994152;1.00327;-1.99776;2.00615;-1.99567;0.00227035;-0.205793;-0.109759;-0.049854;
0.012739;0.00720333;-0.997665;0.657953;-0.992963;1.00387;-1.99735;2.00735;-1.99492;0.00267348;-0.223854;-0.118493;-0.0540187;
0.0148043;0.00831148;-0.99734;0.633488;-0.991788;1.00445;-1.99694;2.00853;-1.99418;0.00307395;-0.240591;-0.126367;-0.0578259;
0.0167879;0.00936651;-0.997043;0.611055;-0.990643;1.00501;-1.99654;2.00967;-1.99347;0.00346761;-0.256107;-0.133448;-0.0613038;
0.0186664;0.0103569;-0.996777;0.59049;-0.989541;1.00553;-1.99615;2.01076;-1.99279;0.00385137;-0.270498;-0.1398;-0.064479;
0.020423;0.0112748;-0.996545;0.57164;-0.988492;1.00602;-1.99577;2.01179;-1.99215;0.00422301;-0.283856;-0.145482;-0.0673762;
0.0220463;0.0121154;-0.996348;0.554363;-0.987502;1.00647;-1.9954;2.01275;-1.99155;0.00458099;-0.296264;-0.150549;-0.0700186;
0.0235295;0.0128764;-0.996187;0.538528;-0.986574;1.00688;-1.99504;2.01364;-1.99099;0.00492433;-0.3078;-0.155053;-0.0724275;
0.024869;0.0135572;-0.996061;0.524013;-0.985712;1.00725;-1.9947;2.01446;-1.99047;0.00525249;-0.318536;-0.15904;-0.0746227;
0.026064;0.0141585;-0.99597;0.510707;-0.984916;1.00758;-1.99437;2.01521;-1.98999;0.00556525;-0.328538;-0.162553;-0.0766222;
0.0271156;0.0146822;-0.995913;0.498507;-0.984186;1.00786;-1.99405;2.01588;-1.98955;0.00586267;-0.337867;-0.165633;-0.0784428;
0.0280267;0.0151309;-0.995889;0.48732;-0.983521;1.00811;-1.99375;2.01648;-1.98915;0.00614499;-0.346578;-0.168316;-0.0800997;
0.0288011;0.0155078;-0.995897;0.47706;-0.98292;1.00832;-1.99346;2.01701;-1.98879;0.0064126;-0.354723;-0.170635;-0.0816068;
0.0294435;0.0158163;-0.995935;0.467649;-0.982381;1.00849;-1.99319;2.01747;-1.98846;0.00666599;-0.362348;-0.172621;-0.0829769;
0.0299592;0.0160601;-0.996001;0.459015;-0.981901;1.00863;-1.99293;2.01787;-1.98817;0.00690572;-0.369496;-0.174302;-0.0842216;
0.0299592;0.0160601;-0.996001;0.459015;-0.981901;1.00863;-1.99293;2.01787;-1.98817;0.00690572;-0.369496;-0.174302;-0.0842216;
0.0303539;0.016243;-0.996094;0.451092;-0.981478;1.00874;-1.99268;2.01821;-1.98791;0.00713239;-0.376206;-0.175704;-0.0853516;
0.0306333;0.0163688;-0.996212;0.443821;-0.981109;1.00882;-1.99244;2.01849;-1.98768;0.00734664;-0.382514;-0.176851;-0.0863765;
0.0308034;0.0164412;-0.996354;0.437147;-0.980792;1.00887;-1.99221;2.01871;-1.98747;0.00754911;-0.388452;-0.177764;-0.0873053;
0.0308699;0.016464;-0.996518;0.43102;-0.980523;1.00889;-1.99199;2.01888;-1.98729;0.00774043;-0.39405;-0.178462;-0.088146;
0.0308387;0.0164407;-0.996703;0.425395;-0.9803;1.00889;-1.99178;2.019;-1.98714;0.00792124;-0.399336;-0.178964;-0.0889061;
0.0308387;0.0164407;-0.996703;0.425395;-0.9803;1.00889;-1.99178;2.019;-1.98714;0.00792124;-0.399336;-0.178964;-0.0889061;
0.0307154;0.0163747;-0.996907;0.42023;-0.980121;1.00887;-1.99158;2.01907;-1.98701;0.00809215;-0.404334;-0.179286;-0.0895923;
0.0305054;0.0162693;-0.997129;0.415487;-0.979982;1.00882;-1.99139;2.0191;-1.9869;0.00825375;-0.409068;-0.179443;-0.0902108;
0.030214;0.0161276;-0.997368;0.411131;-0.979881;1.00875;-1.99121;2.01909;-1.98681;0.00840662;-0.413558;-0.179449;-0.0907672;
0.0298461;0.0159524;-0.997622;0.40713;-0.979816;1.00867;-1.99104;2.01904;-1.98674;0.00855129;-0.417823;-0.179316;-0.0912667;
0.0294065;0.0157466;-0.99789;0.403455;-0.979784;1.00857;-1.99087;2.01895;-1.98669;0.00868828;-0.421881;-0.179056;-0.0917139;
0.0288997;0.0155127;-0.998172;0.400079;-0.979783;1.00845;-1.99071;2.01882;-1.98665;0.00881807;-0.425748;-0.17868;-0.0921133;
0.02833;0.0152531;-0.998466;0.396978;-0.979811;1.00832;-1.99056;2.01866;-1.98663;0.00894113;-0.429439;-0.178197;-0.0924687;
0.0277015;0.01497;-0.998771;0.394129;-0.979866;1.00818;-1.99041;2.01847;-1.98662;0.00905789;-0.432967;-0.177617;-0.0927838;
0.0270179;0.0146656;-0.999087;0.391512;-0.979946;1.00802;-1.99027;2.01825;-1.98662;0.00916875;-0.436344;-0.176947;-0.0930619;
0.0262827;0.0143418;-0.999412;0.389108;-0.98005;1.00785;-1.99013;2.018;-1.98663;0.0092741;-0.439582;-0.176195;-0.093306;
0.0254994;0.0140004;-0.999746;0.3869;-0.980175;1.00767;-1.99;2.01773;-1.98665;0.00937429;-0.442691;-0.175368;-0.093519;
0.024671;0.0136431;-1.00009;0.384872;-0.980321;1.00748;-1.98987;2.01743;-1.98668;0.00946966;-0.44568;-0.174473;-0.0937034;
0.0238006;0.0132714;-1.00044;0.383009;-0.980485;1.00728;-1.98975;2.01711;-1.98672;0.00956051;-0.448559;-0.173515;-0.0938615;
0.0228908;0.0128867;-1.0008;0.381298;-0.980667;1.00708;-1.98963;2.01677;-1.98677;0.00964714;-0.451335;-0.172499;-0.0939955;
0.0219442;0.0124904;-1.00116;0.379727;-0.980864;1.00687;-1.98951;2.01641;-1.98683;0.00972982;-0.454016;-0.171431;-0.0941074;
0.0209633;0.0120837;-1.00153;0.378284;-0.981076;1.00665;-1.9894;2.01603;-1.98689;0.00980879;-0.456609;-0.170315;-0.094199;
0.0199502;0.0116678;-1.0019;0.376959;-0.981302;1.00643;-1.98929;2.01563;-1.98696;0.00988429;-0.45912;-0.169155;-0.0942719;
0.0189071;0.0112436;-1.00228;0.375742;-0.98154;1.0062;-1.98918;2.01522;-1.98704;0.00995653;-0.461554;-0.167955;-0.0943278;
0.0178359;0.0108121;-1.00266;0.374624;-0.98179;1.00596;-1.98907;2.01479;-1.98712;0.0100257;-0.463917;-0.166719;-0.094368;
0.0167384;0.0103743;-1.00305;0.373597;-0.982051;1.00572;-1.98897;2.01435;-1.98721;0.010092;-0.466214;-0.16545;-0.0943938;
0.0156163;0.00993086;-1.00344;0.372654;-0.982322;1.00548;-1.98887;2.01389;-1.9873;0.0101556;-0.468449;-0.16415;-0.0944064;
0.0144711;0.00948258;-1.00384;0.371788;-0.982602;1.00523;-1.98877;2.01342;-1.98739;0.0102167;-0.470626;-0.162823;-0.0944069;
0.0133044;0.00903014;-1.00424;0.370993;-0.98289;1.00498;-1.98867;2.01294;-1.98749;0.0102754;-0.472749;-0.161471;-0.0943963;
0.0109116;0.00811524;-1.00504;0.369592;-0.983487;1.00447;-1.98848;2.01194;-1.98769;0.0103863;-0.476848;-0.158701;-0.0943454;
0.00968792;0.00765388;-1.00545;0.368976;-0.983796;1.00421;-1.98839;2.01142;-1.9878;0.0104387;-0.478829;-0.157287;-0.0943068;
0.00844757;0.00719058;-1.00586;0.368409;-0.984111;1.00395;-1.9883;2.01089;-1.98791;0.0104892;-0.480769;-0.155857;-0.0942605;
0.00719155;0.00672578;-1.00627;0.367888;-0.984431;1.00369;-1.98821;2.01035;-1.98802;0.0105379;-0.48267;-0.154412;-0.094207;
0.0059208;0.00625989;-1.00668;0.367409;-0.984756;1.00342;-1.98812;2.00981;-1.98813;0.0105849;-0.484534;-0.152954;-0.0941471;
0.00463621;0.00579327;-1.00709;0.366968;-0.985085;1.00315;-1.98803;2.00926;-1.98825;0.0106303;-0.486363;-0.151484;-0.0940812;
0.00333859;0.00532627;-1.0075;0.366562;-0.985418;1.00288;-1.98794;2.0087;-1.98837;0.0106742;-0.48816;-0.150003;-0.0940099;
0.00202869;0.0048592;-1.00792;0.366188;-0.985754;1.00261;-1.98785;2.00813;-1.98849;0.0107167;-0.489926;-0.148513;-0.0939337;
0.000707224;0.00439234;-1.00834;0.365843;-0.986093;1.00234;-1.98776;2.00755;-1.98861;0.0107578;-0.491663;-0.147014;-0.093853;
-0.000625152;0.00392595;-1.00876;0.365524;-0.986435;1.00207;-1.98768;2.00697;-1.98873;0.0107976;-0.493372;-0.145508;-0.0937682;
-0.00196784;0.00346027;-1.00918;0.36523;-0.98678;1.0018;-1.9876;2.00638;-1.98885;0.0108361;-0.495055;-0.143996;-0.0936798;
-0.00332026;0.00299552;-1.0096;0.364957;-0.987127;1.00152;-1.98752;2.00578;-1.98897;0.0108735;-0.496713;-0.142478;-0.093588;
-0.00468189;0.00253189;-1.01002;0.364704;-0.987476;1.00124;-1.98744;2.00518;-1.98909;0.0109097;-0.498347;-0.140956;-0.0934932;
-0.00881736;0.00114945;-1.01128;0.364046;-0.988531;1.0004;-1.9872;2.00333;-1.98945;0.011012;-0.503117;-0.136369;-0.0931935;
-0.0102113;0.000691947;-1.0117;0.363855;-0.988885;1.00012;-1.98712;2.0027;-1.98957;0.0110442;-0.504666;-0.134835;-0.0930893;
-0.0116123;0.000236317;-1.01212;0.363676;-0.98924;0.999841;-1.98704;2.00207;-1.9897;0.0110754;-0.506196;-0.1333;-0.0929834;
-0.0130201;-0.000217331;-1.01254;0.363508;-0.989595;0.999562;-1.98696;2.00143;-1.98983;0.0111058;-0.507708;-0.131764;-0.0928759;
-0.0144343;-0.000668894;-1.01296;0.363349;-0.989951;0.999283;-1.98688;2.00079;-1.98996;0.0111353;-0.509202;-0.130228;-0.092767;
-0.0158546;-0.00111828;-1.01338;0.363198;-0.990307;0.999003;-1.9868;2.00014;-1.99009;0.011164;-0.510679;-0.128692;-0.0926569;
-0.0172808;-0.00156541;-1.0138;0.363055;-0.990663;0.998723;-1.98672;1.99949;-1.99022;0.0111919;-0.51214;-0.127156;-0.0925458;
-0.0172808;-0.00156541;-1.0138;0.363055;-0.990663;0.998723;-1.98672;1.99949;-1.99022;0.0111919;-0.51214;-0.127156;-0.0925458;
-0.0187126;-0.00201021;-1.01422;0.362918;-0.991019;0.998443;-1.98664;1.99884;-1.99035;0.011219;-0.513585;-0.125621;-0.0924337;
-0.0201498;-0.00245262;-1.01464;0.362787;-0.991375;0.998163;-1.98656;1.99818;-1.99048;0.0112454;-0.515014;-0.124087;-0.0923209;
-0.0215921;-0.00289257;-1.01506;0.36266;-0.99173;0.997883;-1.98648;1.99752;-1.9906;0.0112711;-0.516428;-0.122554;-0.0922074;
-0.0230393;-0.00333001;-1.01548;0.362537;-0.992085;0.997603;-1.9864;1.99685;-1.99072;0.0112961;-0.517828;-0.121023;-0.0920934;
-0.0259479;-0.00419717;-1.01632;0.362302;-0.992794;0.997043;-1.98624;1.99551;-1.99096;0.0113441;-0.520586;-0.117967;-0.0918641;
-0.0274089;-0.00462682;-1.01674;0.362188;-0.993147;0.996763;-1.98616;1.99483;-1.99108;0.0113671;-0.521944;-0.116442;-0.091749;
-0.0288741;-0.00505379;-1.01716;0.362076;-0.9935;0.996483;-1.98608;1.99415;-1.9912;0.0113895;-0.523289;-0.11492;-0.0916337;
-0.0303434;-0.00547806;-1.01758;0.361965;-0.993852;0.996203;-1.986;1.99347;-1.99132;0.0114113;-0.524621;-0.1134;-0.0915183;
-0.0318167;-0.0058996;-1.018;0.361854;-0.994203;0.995923;-1.98592;1.99278;-1.99144;0.0114325;-0.525941;-0.111883;-0.0914029;
-0.0332938;-0.00631839;-1.01842;0.361744;-0.994553;0.995643;-1.98584;1.99209;-1.99156;0.0114531;-0.527248;-0.110369;-0.0912875;
-0.0347746;-0.00673441;-1.01884;0.361634;-0.994902;0.995363;-1.98576;1.9914;-1.99168;0.0114732;-0.528543;-0.108859;-0.0911722;
-0.036259;-0.00714765;-1.01926;0.361523;-0.99525;0.995084;-1.98568;1.9907;-1.9918;0.0114927;-0.529826;-0.107352;-0.091057;
-0.0377469;-0.00755809;-1.01968;0.361412;-0.995597;0.994805;-1.9856;1.99;-1.99192;0.0115117;-0.531098;-0.105848;-0.090942;
-0.0392382;-0.00796572;-1.0201;0.3613;-0.995942;0.994526;-1.98552;1.9893;-1.99204;0.0115302;-0.532358;-0.104348;-0.0908272;
-0.0407328;-0.00837053;-1.02052;0.361186;-0.996286;0.994247;-1.98544;1.98859;-1.99216;0.0115482;-0.533607;-0.102851;-0.0907127;
-0.0422306;-0.00877251;-1.02094;0.361071;-0.996629;0.993968;-1.98537;1.98788;-1.99228;0.0115657;-0.534844;-0.101358;-0.0905985;
-0.0437316;-0.00917166;-1.02136;0.360954;-0.99697;0.993689;-1.9853;1.98717;-1.9924;0.0115827;-0.53607;-0.099869;-0.0904847;
-0.0452357;-0.00956797;-1.02178;0.360835;-0.99731;0.99341;-1.98523;1.98645;-1.99252;0.0115992;-0.537285;-0.0983839;-0.0903713;
-0.0467427;-0.00996144;-1.0222;0.360714;-0.997648;0.993132;-1.98516;1.98573;-1.99264;0.0116153;-0.538489;-0.0969027;-0.0902583;
-0.0482527;-0.0103521;-1.02262;0.36059;-0.997985;0.992854;-1.98509;1.98501;-1.99276;0.0116309;-0.539682;-0.0954255;-0.0901457;
-0.0497655;-0.0107399;-1.02304;0.360464;-0.99832;0.992576;-1.98502;1.98429;-1.99287;0.011646;-0.540865;-0.0939524;-0.0900336;
-0.0512812;-0.0111249;-1.02346;0.360335;-0.998654;0.992298;-1.98495;1.98356;-1.99298;0.0116607;-0.542037;-0.0924834;-0.089922;
-0.0527996;-0.011507;-1.02388;0.360203;-0.998986;0.99202;-1.98488;1.98283;-1.99309;0.011675;-0.543198;-0.0910185;-0.0898109;
-0.0543207;-0.0118863;-1.0243;0.360068;-0.999317;0.991742;-1.98481;1.9821;-1.9932;0.0116889;-0.544349;-0.0895578;-0.0897003;
-0.0543207;-0.0118863;-1.0243;0.360068;-0.999317;0.991742;-1.98481;1.9821;-1.9932;0.0116889;-0.544349;-0.0895578;-0.0897003;
-0.0558445;-0.0122628;-1.02472;0.35993;-0.999646;0.991465;-1.98474;1.98137;-1.99331;0.0117023;-0.54549;-0.0881014;-0.0895902;
-0.0573709;-0.0126364;-1.02514;0.359789;-0.999973;0.991188;-1.98467;1.98063;-1.99342;0.0117153;-0.54662;-0.0866492;-0.0894807;
-0.0588998;-0.0130072;-1.02556;0.359645;-1.0003;0.990911;-1.9846;1.97989;-1.99353;0.0117279;-0.54774;-0.0852013;-0.0893718;
-0.0604312;-0.0133752;-1.02597;0.359497;-1.00062;0.990634;-1.98453;1.97915;-1.99364;0.0117401;-0.54885;-0.0837577;-0.0892635;
-0.0619651;-0.0137404;-1.02638;0.359346;-1.00094;0.990357;-1.98446;1.97841;-1.99375;0.0117519;-0.54995;-0.0823184;-0.0891558;
-0.0635014;-0.0141028;-1.02679;0.359191;-1.00126;0.99008;-1.98439;1.97766;-1.99386;0.0117634;-0.55104;-0.0808835;-0.0890487;
-0.0635014;-0.0141028;-1.02679;0.359191;-1.00126;0.99008;-1.98439;1.97766;-1.99386;0.0117634;-0.55104;-0.0808835;-0.0890487;
-0.0650401;-0.0144624;-1.0272;0.359033;-1.00158;0.989804;-1.98432;1.97691;-1.99397;0.0117745;-0.55212;-0.0794529;-0.0889422;
-0.0665812;-0.0148192;-1.02761;0.358871;-1.0019;0.989528;-1.98425;1.97616;-1.99408;0.0117852;-0.55319;-0.0780267;-0.0888363;
-0.0681246;-0.0151733;-1.02802;0.358705;-1.00222;0.989252;-1.98418;1.97541;-1.99418;0.0117955;-0.55425;-0.0766049;-0.0887311;
-0.0696703;-0.0155246;-1.02843;0.358535;-1.00253;0.988976;-1.98411;1.97465;-1.99428;0.0118055;-0.5553;-0.0751875;-0.0886265;
-0.0712182;-0.0158732;-1.02884;0.358361;-1.00284;0.9887;-1.98404;1.97389;-1.99438;0.0118151;-0.55634;-0.0737745;-0.0885226;
-0.0727684;-0.016219;-1.02925;0.358183;-1.00315;0.988424;-1.98397;1.97313;-1.99448;0.0118244;-0.55737;-0.0723659;-0.0884194;
-0.0743208;-0.0165621;-1.02966;0.358001;-1.00346;0.988148;-1.9839;1.97237;-1.99458;0.0118333;-0.55839;-0.0709617;-0.0883168;
-0.0758753;-0.0169025;-1.03007;0.357815;-1.00377;0.987873;-1.98383;1.97161;-1.99468;0.0118419;-0.5594;-0.0695619;-0.0882149;
-0.077432;-0.0172402;-1.03048;0.357625;-1.00407;0.987598;-1.98376;1.97084;-1.99478;0.0118502;-0.560401;-0.0681665;-0.0881137;
-0.0789908;-0.0175752;-1.03089;0.357431;-1.00437;0.987323;-1.98369;1.97007;-1.99488;0.0118581;-0.561392;-0.0667755;-0.0880132;
-0.0805517;-0.0179075;-1.0313;0.357233;-1.00467;0.987048;-1.98362;1.9693;-1.99498;0.0118657;-0.562373;-0.0653889;-0.0879134;
-0.0821147;-0.0182371;-1.03171;0.357031;-1.00497;0.986773;-1.98355;1.96853;-1.99508;0.011873;-0.563344;-0.0640067;-0.0878143;
-0.0836797;-0.018564;-1.03212;0.356825;-1.00527;0.986498;-1.98348;1.96776;-1.99517;0.01188;-0.564306;-0.0626289;-0.0877159;
-0.0852467;-0.0188883;-1.03253;0.356614;-1.00556;0.986223;-1.98341;1.96698;-1.99526;0.0118867;-0.565258;-0.0612556;-0.0876182;
-0.0868157;-0.0192099;-1.03294;0.356399;-1.00585;0.985948;-1.98334;1.9662;-1.99535;0.0118931;-0.5662;-0.0598866;-0.0875212;
-0.0883867;-0.0195289;-1.03335;0.35618;-1.00614;0.985674;-1.98327;1.96542;-1.99544;0.0118992;-0.567133;-0.058522;-0.0874249;
-0.0899597;-0.0198453;-1.03376;0.355957;-1.00643;0.9854;-1.9832;1.96464;-1.99553;0.011905;-0.568056;-0.0571618;-0.0873293;
-0.0915346;-0.0201591;-1.03417;0.355729;-1.00672;0.985126;-1.98313;1.96386;-1.99562;0.0119105;-0.568969;-0.055806;-0.0872344;
-0.0931114;-0.0204703;-1.03458;0.355497;-1.007;0.984852;-1.98306;1.96308;-1.99571;0.0119157;-0.569873;-0.0544545;-0.0871402;
-0.0946901;-0.0207789;-1.03499;0.355261;-1.00728;0.984578;-1.98299;1.96229;-1.9958;0.0119207;-0.570767;-0.0531073;-0.0870467;
-0.0962707;-0.0210849;-1.03539;0.355021;-1.00756;0.984304;-1.98292;1.9615;-1.99589;0.0119254;-0.571652;-0.0517645;-0.0869539;
-0.0978532;-0.0213884;-1.03579;0.354776;-1.00784;0.98403;-1.98285;1.96071;-1.99597;0.0119298;-0.572527;-0.050426;-0.0868618;
-0.0994375;-0.0216893;-1.03619;0.354527;-1.00812;0.983756;-1.98278;1.95992;-1.99605;0.011934;-0.573393;-0.0490918;-0.0867704;
-0.101024;-0.0219877;-1.03659;0.354274;-1.00839;0.983482;-1.98271;1.95913;-1.99613;0.0119379;-0.574249;-0.0477619;-0.0866797;
-0.104202;-0.022577;-1.03739;0.353754;-1.00893;0.982934;-1.98257;1.95755;-1.99629;0.0119449;-0.575932;-0.045115;-0.0865004;
-0.105793;-0.0228679;-1.03779;0.353488;-1.0092;0.98266;-1.9825;1.95675;-1.99637;0.011948;-0.576759;-0.0437979;-0.0864118;
-0.107386;-0.0231563;-1.03819;0.353217;-1.00946;0.982386;-1.98243;1.95595;-1.99645;0.0119509;-0.577577;-0.0424851;-0.086324;
-0.108981;-0.0234422;-1.03859;0.352942;-1.00972;0.982113;-1.98236;1.95515;-1.99653;0.0119536;-0.578385;-0.0411765;-0.0862369;
-0.110578;-0.0237257;-1.03899;0.352662;-1.00998;0.98184;-1.98229;1.95435;-1.99661;0.011956;-0.579184;-0.0398721;-0.0861505;
-0.112176;-0.0240067;-1.03939;0.352378;-1.01024;0.981567;-1.98222;1.95355;-1.99668;0.0119582;-0.579973;-0.0385719;-0.0860648;
-0.112176;-0.0240067;-1.03939;0.352378;-1.01024;0.981567;-1.98222;1.95355;-1.99668;0.0119582;-0.579973;-0.0385719;-0.0860648;
-0.113776;-0.0242853;-1.03979;0.35209;-1.0105;0.981294;-1.98215;1.95275;-1.99675;0.0119602;-0.580753;-0.0372758;-0.0859798;
-0.115378;-0.0245615;-1.04019;0.351797;-1.01075;0.981021;-1.98208;1.95195;-1.99682;0.0119619;-0.581524;-0.0359839;-0.0858955;
-0.116981;-0.0248353;-1.04059;0.3515;-1.011;0.980748;-1.98201;1.95114;-1.99689;0.0119634;-0.582285;-0.0346961;-0.0858119;
-0.118586;-0.0251067;-1.04099;0.351199;-1.01125;0.980475;-1.98194;1.95033;-1.99696;0.0119647;-0.583037;-0.0334125;-0.085729;
-0.120193;-0.0253757;-1.04139;0.350893;-1.0115;0.980202;-1.98187;1.94952;-1.99703;0.0119658;-0.583779;-0.032133;-0.0856468;
-0.121801;-0.0256423;-1.04179;0.350583;-1.01175;0.979929;-1.98179;1.94871;-1.9971;0.0119667;-0.584512;-0.0308576;-0.0855653;
-0.123411;-0.0259065;-1.04219;0.350269;-1.01199;0.979656;-1.98171;1.9479;-1.99717;0.0119674;-0.585235;-0.0295862;-0.0854845;
-0.125022;-0.0261684;-1.04259;0.34995;-1.01223;0.979383;-1.98163;1.94709;-1.99724;0.0119679;-0.585949;-0.0283189;-0.0854044;
-0.126635;-0.0264279;-1.04299;0.349627;-1.01247;0.97911;-1.98155;1.94628;-1.9973;0.0119682;-0.586654;-0.0270556;-0.085325;
-0.12825;-0.0266851;-1.04339;0.3493;-1.01271;0.978837;-1.98147;1.94547;-1.99736;0.0119683;-0.587349;-0.0257964;-0.0852462;
-0.129866;-0.02694;-1.04379;0.348969;-1.01294;0.978564;-1.98139;1.94466;-1.99742;0.0119682;-0.588035;-0.0245412;-0.0851681;
-0.131484;-0.0271926;-1.04419;0.348633;-1.01317;0.978291;-1.98131;1.94384;-1.99748;0.0119679;-0.588711;-0.02329;-0.0850907;
-0.133103;-0.0274429;-1.04459;0.348293;-1.0134;0.978018;-1.98123;1.94302;-1.99754;0.0119674;-0.589378;-0.0220427;-0.085014;
-0.134724;-0.0276909;-1.04499;0.347949;-1.01363;0.977745;-1.98115;1.9422;-1.9976;0.0119668;-0.590036;-0.0207994;-0.084938;
-0.136346;-0.0279367;-1.04538;0.3476;-1.01386;0.977472;-1.98107;1.94138;-1.99766;0.011966;-0.590684;-0.01956;-0.0848627;
-0.13797;-0.0281802;-1.04577;0.347247;-1.01408;0.977199;-1.98099;1.94056;-1.99772;0.011965;-0.591323;-0.0183246;-0.0847881;
-0.139595;-0.0284215;-1.04616;0.34689;-1.0143;0.976926;-1.98091;1.93974;-1.99778;0.0119638;-0.591952;-0.017093;-0.0847141;
-0.141221;-0.0286605;-1.04655;0.346529;-1.01452;0.976653;-1.98083;1.93892;-1.99783;0.0119625;-0.592572;-0.0158653;-0.0846408;
-0.142849;-0.0288973;-1.04694;0.346163;-1.01474;0.97638;-1.98075;1.9381;-1.99788;0.011961;-0.593183;-0.0146415;-0.0845682;
-0.144478;-0.0291319;-1.04733;0.345793;-1.01495;0.976107;-1.98067;1.93728;-1.99793;0.0119594;-0.593784;-0.0134215;-0.0844963;
-0.146109;-0.0293643;-1.04772;0.345419;-1.01516;0.975834;-1.98059;1.93646;-1.99798;0.0119576;-0.594376;-0.0122054;-0.084425;
-0.147741;-0.0295945;-1.04811;0.345041;-1.01537;0.975561;-1.98051;1.93564;-1.99803;0.0119556;-0.594959;-0.0109931;-0.0843544;
-0.149374;-0.0298225;-1.0485;0.344659;-1.01558;0.975287;-1.98043;1.93482;-1.99808;0.0119535;-0.595532;-0.00978456;-0.0842845;
-0.151009;-0.0300484;-1.04889;0.344272;-1.01578;0.975013;-1.98035;1.934;-1.99813;0.0119513;-0.596096;-0.0085798;-0.0842152;
-0.152645;-0.0302721;-1.04928;0.343881;-1.01598;0.974739;-1.98027;1.93318;-1.99818;0.0119489;-0.596651;-0.00737878;-0.0841466;
-0.154282;-0.0304937;-1.04967;0.343486;-1.01618;0.974465;-1.98019;1.93235;-1.99822;0.0119464;-0.597197;-0.00618147;-0.0840787;
-0.155921;-0.0307131;-1.05006;0.343087;-1.01638;0.974191;-1.98011;1.93152;-1.99826;0.0119437;-0.597733;-0.00498789;-0.0840114;
-0.157561;-0.0309304;-1.05045;0.342684;-1.01658;0.973917;-1.98003;1.93069;-1.9983;0.0119409;-0.59826;-0.00379802;-0.0839448;
-0.159202;-0.0311456;-1.05084;0.342277;-1.01677;0.973643;-1.97995;1.92986;-1.99834;0.011938;-0.598778;-0.00261185;-0.0838788;
-0.160845;-0.0313587;-1.05123;0.341865;-1.01696;0.973369;-1.97987;1.92903;-1.99838;0.011935;-0.599287;-0.00142935;-0.0838135;
-0.162489;-0.0315697;-1.05162;0.341449;-1.01715;0.973095;-1.97979;1.9282;-1.99842;0.0119318;-0.599786;-0.000250476;-0.0837488;
-0.164134;-0.0317787;-1.05201;0.341029;-1.01734;0.972821;-1.97971;1.92737;-1.99846;0.0119285;-0.600276;0.000924777;-0.0836848;
-0.16578;-0.0319856;-1.0524;0.340605;-1.01752;0.972547;-1.97963;1.92654;-1.9985;0.0119251;-0.600757;0.00209643;-0.0836214;
-0.167428;-0.0321904;-1.05279;0.340177;-1.0177;0.972273;-1.97955;1.92571;-1.99853;0.0119216;-0.601229;0.00326451;-0.0835587;
-0.169077;-0.0323932;-1.05318;0.339745;-1.01788;0.971999;-1.97947;1.92488;-1.99856;0.011918;-0.601691;0.00442902;-0.0834966;
-0.170727;-0.032594;-1.05357;0.339309;-1.01806;0.971724;-1.97939;1.92405;-1.99859;0.0119143;-0.602144;0.00558996;-0.0834351;
-0.172378;-0.0327927;-1.05396;0.338869;-1.01824;0.971449;-1.97931;1.92322;-1.99862;0.0119105;-0.602588;0.00674736;-0.0833743;
-0.17403;-0.0329894;-1.05435;0.338425;-1.01841;0.971174;-1.97923;1.92239;-1.99865;0.0119066;-0.603023;0.00790124;-0.0833141;
-0.175683;-0.0331841;-1.05474;0.337977;-1.01858;0.970899;-1.97915;1.92156;-1.99868;0.0119026;-0.603449;0.00905162;-0.0832546;
-0.177337;-0.0333768;-1.05513;0.337525;-1.01875;0.970624;-1.97907;1.92073;-1.99871;0.0118985;-0.603865;0.0101985;-0.0831957;
-0.178993;-0.0335675;-1.05552;0.337069;-1.01892;0.970349;-1.97899;1.9199;-1.99874;0.0118943;-0.604272;0.011342;-0.0831374;
-0.18065;-0.0337563;-1.0559;0.336609;-1.01908;0.970074;-1.97891;1.91907;-1.99876;0.01189;-0.60467;0.012482;-0.0830797;
-0.182308;-0.0339431;-1.05628;0.336145;-1.01924;0.969799;-1.97883;1.91824;-1.99878;0.0118856;-0.605059;0.0136186;-0.0830227;
-0.183967;-0.034128;-1.05666;0.335677;-1.0194;0.969524;-1.97875;1.91741;-1.9988;0.0118811;-0.605439;0.0147518;-0.0829663;
-0.185627;-0.0343109;-1.05704;0.335205;-1.01956;0.969248;-1.97867;1.91658;-1.99882;0.0118765;-0.60581;0.0158816;-0.0829105;
-0.187288;-0.0344919;-1.05742;0.334729;-1.01971;0.968972;-1.97859;1.91575;-1.99884;0.0118719;-0.606172;0.017008;-0.0828553;
-0.18895;-0.034671;-1.0578;0.334249;-1.01986;0.968696;-1.97851;1.91492;-1.99886;0.0118672;-0.606525;0.0181311;-0.0828007;
-0.190613;-0.0348482;-1.05818;0.333765;-1.02001;0.96842;-1.97843;1.91409;-1.99888;0.0118624;-0.606868;0.0192509;-0.0827468;
-0.192277;-0.0350235;-1.05856;0.333277;-1.02016;0.968144;-1.97835;1.91326;-1.9989;0.0118575;-0.607202;0.0203673;-0.0826935;
-0.193942;-0.0351969;-1.05894;0.332785;-1.02031;0.967868;-1.97827;1.91243;-1.99892;0.0118526;-0.607527;0.0214805;-0.0826408;
-0.195608;-0.0353684;-1.05932;0.332289;-1.02045;0.967592;-1.97819;1.9116;-1.99893;0.0118476;-0.607843;0.0225904;-0.0825887;
-0.197275;-0.035538;-1.0597;0.331789;-1.02059;0.967315;-1.97811;1.91077;-1.99894;0.0118425;-0.60815;0.0236971;-0.0825372;
-0.198943;-0.0357057;-1.06008;0.331286;-1.02073;0.967038;-1.97803;1.90994;-1.99895;0.0118374;-0.608448;0.0248005;-0.0824863;
-0.200612;-0.0358716;-1.06046;0.330779;-1.02087;0.966761;-1.97795;1.90911;-1.99896;0.0118322;-0.608737;0.0259007;-0.082436;
-0.202282;-0.0360356;-1.06084;0.330268;-1.021;0.966484;-1.97787;1.90828;-1.99897;0.011827;-0.609017;0.0269977;-0.0823863;
-0.203953;-0.0361978;-1.06122;0.329753;-1.02113;0.966207;-1.97779;1.90745;-1.99898;0.0118217;-0.609288;0.0280915;-0.0823372;
-0.205625;-0.0363582;-1.0616;0.329234;-1.02126;0.96593;-1.97771;1.90662;-1.99899;0.0118164;-0.60955;0.0291822;-0.0822886;
-0.207297;-0.0365168;-1.06198;0.328711;-1.02139;0.965652;-1.97763;1.90579;-1.999;0.011811;-0.609803;0.0302697;-0.0822406;
-0.20897;-0.0366736;-1.06236;0.328185;-1.02151;0.965374;-1.97755;1.90496;-1.999;0.0118056;-0.610047;0.0313541;-0.0821932;
-0.210644;-0.0368286;-1.06274;0.327655;-1.02163;0.965096;-1.97747;1.90413;-1.999;0.0118001;-0.610282;0.0324354;-0.0821464;
-0.212319;-0.0369818;-1.06312;0.327121;-1.02175;0.964818;-1.97739;1.9033;-1.999;0.0117946;-0.610508;0.0335136;-0.0821002;
-0.213995;-0.0371332;-1.0635;0.326583;-1.02187;0.96454;-1.97731;1.90247;-1.999;0.0117891;-0.610725;0.0345887;-0.0820546;
-0.215672;-0.0372828;-1.06388;0.326042;-1.02199;0.964262;-1.97723;1.90164;-1.999;0.0117835;-0.610933;0.0356608;-0.0820095;
-0.217349;-0.0374307;-1.06426;0.325497;-1.0221;0.963983;-1.97715;1.90082;-1.999;0.0117779;-0.611132;0.0367298;-0.081965;
-0.219027;-0.0375768;-1.06464;0.324948;-1.02221;0.963704;-1.97707;1.9;-1.999;0.0117723;-0.611322;0.0377958;-0.0819211;
-0.220706;-0.0377212;-1.06502;0.324396;-1.02232;0.963425;-1.97699;1.89918;-1.999;0.0117667;-0.611503;0.0388589;-0.0818777;
-0.222386;-0.0378638;-1.0654;0.32384;-1.02243;0.963146;-1.97691;1.89836;-1.99899;0.011761;-0.611676;0.039919;-0.0818349;
-0.224066;-0.0380047;-1.06578;0.32328;-1.02253;0.962867;-1.97683;1.89754;-1.99898;0.0117553;-0.61184;0.0409761;-0.0817927;
-0.225747;-0.0381439;-1.06616;0.322717;-1.02263;0.962587;-1.97675;1.89672;-1.99897;0.0117496;-0.611995;0.0420303;-0.081751;
-0.227429;-0.0382814;-1.06654;0.32215;-1.02273;0.962307;-1.97667;1.8959;-1.99896;0.0117439;-0.612141;0.0430816;-0.0817099;
-0.229112;-0.0384172;-1.06692;0.321579;-1.02283;0.962027;-1.97659;1.89508;-1.99895;0.0117382;-0.612278;0.0441299;-0.0816694;
-0.230795;-0.0385513;-1.0673;0.321005;-1.02292;0.961747;-1.97651;1.89426;-1.99894;0.0117324;-0.612406;0.0451754;-0.0816294;
-0.232479;-0.0386837;-1.06768;0.320427;-1.02301;0.961467;-1.97643;1.89344;-1.99893;0.0117266;-0.612526;0.046218;-0.08159;
-0.234164;-0.0388144;-1.06806;0.319846;-1.0231;0.961186;-1.97635;1.89262;-1.99892;0.0117208;-0.612637;0.0472578;-0.0815511;
-0.235849;-0.0389435;-1.06843;0.319261;-1.02319;0.960905;-1.97627;1.8918;-1.99891;0.011715;-0.612739;0.0482947;-0.0815128;
-0.237535;-0.0390709;-1.0688;0.318673;-1.02328;0.960624;-1.97619;1.89098;-1.99889;0.0117092;-0.612832;0.0493288;-0.081475;
-0.239221;-0.0391967;-1.06917;0.318081;-1.02336;0.960343;-1.97611;1.89016;-1.99887;0.0117034;-0.612916;0.0503601;-0.0814377;
-0.240908;-0.0393208;-1.06954;0.317486;-1.02344;0.960061;-1.97603;1.88935;-1.99885;0.0116976;-0.612992;0.0513886;-0.081401;
-0.242596;-0.0394433;-1.06991;0.316887;-1.02352;0.959779;-1.97595;1.88854;-1.99883;0.0116918;-0.613059;0.0524144;-0.0813648;
-0.244284;-0.0395642;-1.07028;0.316285;-1.0236;0.959497;-1.97587;1.88773;-1.99881;0.011686;-0.613117;0.0534374;-0.0813292;
-0.245973;-0.0396834;-1.07065;0.315679;-1.02367;0.959215;-1.97579;1.88692;-1.99879;0.0116802;-0.613166;0.0544577;-0.0812941;
-0.247662;-0.039801;-1.07102;0.31507;-1.02374;0.958933;-1.97571;1.88611;-1.99877;0.0116745;-0.613207;0.0554753;-0.0812595;
-0.249352;-0.039917;-1.07139;0.314457;-1.02381;0.95865;-1.97563;1.8853;-1.99875;0.0116688;-0.613239;0.0564902;-0.0812255;
-0.251042;-0.0400314;-1.07176;0.313841;-1.02388;0.958367;-1.97555;1.88449;-1.99872;0.0116631;-0.613262;0.0575024;-0.081192;
-0.252733;-0.0401443;-1.07213;0.313221;-1.02394;0.958084;-1.97547;1.88368;-1.99869;0.0116574;-0.613277;0.058512;-0.081159;
-0.254424;-0.0402556;-1.0725;0.312598;-1.024;0.957801;-1.97539;1.88287;-1.99866;0.0116517;-0.613283;0.0595189;-0.0811265;
-0.256116;-0.0403653;-1.07287;0.311972;-1.02406;0.957517;-1.97531;1.88206;-1.99863;0.011646;-0.61328;0.0605232;-0.0810945;
-0.257808;-0.0404734;-1.07324;0.311342;-1.02412;0.957233;-1.97523;1.88126;-1.9986;0.0116404;-0.613269;0.0615249;-0.0810631;
-0.259501;-0.04058;-1.07361;0.310709;-1.02418;0.956949;-1.97515;1.88046;-1.99857;0.0116348;-0.613249;0.062524;-0.0810322;
-0.261194;-0.040685;-1.07398;0.310073;-1.02423;0.956665;-1.97507;1.87966;-1.99854;0.0116292;-0.613221;0.0635205;-0.0810018;
-0.262887;-0.0407885;-1.07435;0.309433;-1.02428;0.95638;-1.97499;1.87886;-1.99851;0.0116236;-0.613184;0.0645145;-0.0809719;
-0.264581;-0.0408905;-1.07472;0.30879;-1.02433;0.956095;-1.97491;1.87806;-1.99848;0.0116181;-0.613139;0.0655059;-0.0809425;
-0.266275;-0.0409909;-1.07509;0.308144;-1.02438;0.95581;-1.97483;1.87726;-1.99844;0.0116126;-0.613085;0.0664948;-0.0809136;
-0.26797;-0.0410898;-1.07546;0.307494;-1.02442;0.955525;-1.97475;1.87646;-1.9984;0.0116071;-0.613023;0.0674812;-0.0808852;
-0.269665;-0.0411872;-1.07583;0.306841;-1.02446;0.955239;-1.97467;1.87566;-1.99836;0.0116017;-0.612952;0.0684651;-0.0808573;
-0.27136;-0.0412831;-1.0762;0.306185;-1.0245;0.954953;-1.97459;1.87487;-1.99832;0.0115963;-0.612873;0.0694466;-0.0808299;
-0.273056;-0.0413775;-1.07657;0.305526;-1.02454;0.954667;-1.97451;1.87408;-1.99828;0.0115909;-0.612785;0.0704256;-0.080803;
-0.274752;-0.0414704;-1.07694;0.304863;-1.02458;0.954381;-1.97443;1.87329;-1.99824;0.0115856;-0.612689;0.0714022;-0.0807766;
-0.276448;-0.0415618;-1.07731;0.304197;-1.02461;0.954094;-1.97435;1.8725;-1.9982;0.0115803;-0.612584;0.0723764;-0.0807507;
-0.278145;-0.0416517;-1.07768;0.303528;-1.02464;0.953807;-1.97427;1.87171;-1.99816;0.0115751;-0.612471;0.0733482;-0.0807252;
-0.279842;-0.0417402;-1.07805;0.302856;-1.02467;0.95352;-1.97419;1.87092;-1.99812;0.0115699;-0.612349;0.0743176;-0.0807002;
-0.281539;-0.0418272;-1.07842;0.302181;-1.0247;0.953233;-1.97411;1.87013;-1.99807;0.0115648;-0.612219;0.0752846;-0.0806757;
-0.283236;-0.0419127;-1.07879;0.301503;-1.02473;0.952945;-1.97403;1.86935;-1.99802;0.0115597;-0.61208;0.0762493;-0.0806517;
-0.284934;-0.0419968;-1.07916;0.300821;-1.02475;0.952657;-1.97395;1.86857;-1.99797;0.0115547;-0.611933;0.0772116;-0.0806282;
-0.286632;-0.0420794;-1.07953;0.300136;-1.02477;0.952369;-1.97387;1.86779;-1.99792;0.0115497;-0.611778;0.0781716;-0.0806052;
-0.28833;-0.0421606;-1.0799;0.299448;-1.02479;0.95208;-1.97379;1.86701;-1.99787;0.0115448;-0.611614;0.0791293;-0.0805826;
-0.290028;-0.0422404;-1.08027;0.298757;-1.02481;0.951791;-1.97371;1.86623;-1.99782;0.01154;-0.611442;0.0800847;-0.0805605;
-0.291726;-0.0423187;-1.08064;0.298063;-1.02482;0.951502;-1.97363;1.86545;-1.99777;0.0115352;-0.611262;0.0810378;-0.0805389;
-0.293424;-0.0423956;-1.08101;0.297366;-1.02483;0.951213;-1.97355;1.86467;-1.99772;0.0115305;-0.611073;0.0819887;-0.0805177;
-0.296822;-0.0425452;-1.08175;0.295963;-1.02485;0.950633;-1.97339;1.86313;-1.99761;0.0115213;-0.610671;0.0838838;-0.0804768;
-0.298521;-0.0426179;-1.08212;0.295257;-1.02486;0.950343;-1.9733;1.86236;-1.99755;0.0115168;-0.610458;0.084828;-0.080457;
-0.30022;-0.0426892;-1.08249;0.294548;-1.02486;0.950053;-1.97321;1.86159;-1.99749;0.0115124;-0.610237;0.08577;-0.0804377;
-0.301919;-0.0427591;-1.08286;0.293836;-1.02486;0.949762;-1.97312;1.86082;-1.99743;0.011508;-0.610007;0.0867098;-0.0804188;
-0.303618;-0.0428276;-1.08323;0.293121;-1.02486;0.949471;-1.97303;1.86005;-1.99737;0.0115037;-0.609769;0.0876475;-0.0804004;
-0.305317;-0.0428948;-1.08359;0.292403;-1.02486;0.94918;-1.97294;1.85929;-1.99731;0.0114995;-0.609523;0.088583;-0.0803824;
-0.307016;-0.0429606;-1.08395;0.291682;-1.02486;0.948888;-1.97285;1.85853;-1.99725;0.0114954;-0.609269;0.0895164;-0.0803649;
-0.308715;-0.043025;-1.08431;0.290958;-1.02485;0.948596;-1.97276;1.85777;-1.99719;0.0114913;-0.609007;0.0904477;-0.0803478;
-0.310414;-0.0430881;-1.08467;0.290232;-1.02484;0.948304;-1.97267;1.85701;-1.99713;0.0114873;-0.608736;0.0913769;-0.0803311;
-0.312113;-0.0431498;-1.08503;0.289503;-1.02483;0.948011;-1.97258;1.85625;-1.99707;0.0114834;-0.608457;0.092304;-0.0803149;
-0.313812;-0.0432102;-1.08539;0.288771;-1.02482;0.947718;-1.97249;1.8555;-1.997;0.0114796;-0.60817;0.0932291;-0.0802991;
-0.315511;-0.0432692;-1.08575;0.288036;-1.02481;0.947425;-1.9724;1.85475;-1.99693;0.0114759;-0.607875;0.0941521;-0.0802838;
-0.31721;-0.0433269;-1.08611;0.287298;-1.02479;0.947132;-1.97231;1.854;-1.99686;0.0114723;-0.607572;0.0950731;-0.0802689;
-0.318909;-0.0433833;-1.08647;0.286557;-1.02477;0.946838;-1.97222;1.85325;-1.99679;0.0114687;-0.607261;0.095992;-0.0802544;
-0.320608;-0.0434383;-1.08683;0.285814;-1.02475;0.946544;-1.97213;1.8525;-1.99672;0.0114652;-0.606942;0.0969089;-0.0802404;
-0.322307;-0.043492;-1.08719;0.285068;-1.02473;0.94625;-1.97204;1.85175;-1.99665;0.0114618;-0.606615;0.0978238;-0.0802268;
-0.324006;-0.0435444;-1.08755;0.284319;-1.02471;0.945955;-1.97195;1.85101;-1.99658;0.0114585;-0.60628;0.0987367;-0.0802136;
-0.325704;-0.0435955;-1.08791;0.283567;-1.02468;0.94566;-1.97186;1.85027;-1.99651;0.0114553;-0.605937;0.0996477;-0.0802008;
-0.327402;-0.0436453;-1.08827;0.282812;-1.02465;0.945365;-1.97177;1.84953;-1.99644;0.0114522;-0.605586;0.100557;-0.0801885;
-0.3291;-0.0436938;-1.08863;0.282055;-1.02462;0.94507;-1.97168;1.84879;-1.99637;0.0114492;-0.605227;0.101464;-0.0801766;
-0.330798;-0.043741;-1.08899;0.281295;-1.02459;0.944774;-1.97159;1.84805;-1.99629;0.0114463;-0.604861;0.102369;-0.0801651;
-0.332496;-0.0437869;-1.08935;0.280532;-1.02456;0.944478;-1.9715;1.84732;-1.99621;0.0114435;-0.604487;0.103272;-0.080154;
-0.334193;-0.0438315;-1.08971;0.279767;-1.02452;0.944182;-1.97141;1.84659;-1.99613;0.0114408;-0.604105;0.104173;-0.0801433;
-0.33589;-0.0438748;-1.09007;0.278999;-1.02448;0.943885;-1.97132;1.84586;-1.99605;0.0114382;-0.603715;0.105073;-0.080133;
-0.337587;-0.0439169;-1.09043;0.278228;-1.02444;0.943588;-1.97123;1.84513;-1.99597;0.0114357;-0.603317;0.105971;-0.0801231;
-0.339284;-0.0439577;-1.09079;0.277455;-1.0244;0.943291;-1.97114;1.8444;-1.99589;0.0114333;-0.602911;0.106867;-0.0801136;
-0.34098;-0.0439972;-1.09115;0.276679;-1.02436;0.942993;-1.97105;1.84368;-1.99581;0.011431;-0.602497;0.107761;-0.0801045;
-0.342676;-0.0440355;-1.09151;0.275901;-1.02431;0.942695;-1.97096;1.84296;-1.99573;0.0114288;-0.602076;0.108653;-0.0800958;
-0.344372;-0.0440725;-1.09187;0.27512;-1.02426;0.942397;-1.97087;1.84224;-1.99565;0.0114268;-0.601647;0.109543;-0.0800875;
-0.346068;-0.0441083;-1.09223;0.274336;-1.02421;0.942098;-1.97078;1.84152;-1.99557;0.0114249;-0.60121;0.110432;-0.0800796;
-0.347763;-0.0441428;-1.09259;0.27355;-1.02416;0.941799;-1.97069;1.8408;-1.99548;0.0114231;-0.600766;0.111319;-0.0800721;
-0.349458;-0.0441761;-1.09295;0.272761;-1.02411;0.9415;-1.9706;1.84009;-1.99539;0.0114214;-0.600314;0.112204;-0.080065;
-0.351152;-0.0442082;-1.09331;0.27197;-1.02406;0.941201;-1.97051;1.83938;-1.9953;0.0114198;-0.599854;0.113087;-0.0800583;
-0.352846;-0.044239;-1.09367;0.271176;-1.024;0.940901;-1.97042;1.83867;-1.99521;0.0114183;-0.599386;0.113969;-0.080052;
-0.35454;-0.0442686;-1.09403;0.27038;-1.02394;0.940601;-1.97033;1.83796;-1.99512;0.0114169;-0.598911;0.114849;-0.0800461;
-0.356233;-0.044297;-1.09439;0.269581;-1.02388;0.940301;-1.97024;1.83726;-1.99503;0.0114157;-0.598428;0.115727;-0.0800405;
-0.357926;-0.0443242;-1.09475;0.26878;-1.02382;0.94;-1.97015;1.83656;-1.99494;0.0114146;-0.597938;0.116603;-0.0800353;
-0.359618;-0.0443502;-1.09511;0.267977;-1.02376;0.939699;-1.97006;1.83586;-1.99485;0.0114136;-0.59744;0.117478;-0.0800305;
-0.36131;-0.044375;-1.09547;0.267171;-1.02369;0.939398;-1.96997;1.83516;-1.99476;0.0114127;-0.596934;0.118351;-0.0800261;
-0.363001;-0.0443986;-1.09583;0.266363;-1.02362;0.939096;-1.96988;1.83446;-1.99467;0.011412;-0.596421;0.119222;-0.080022;
-0.364692;-0.044421;-1.09619;0.265552;-1.02355;0.938794;-1.96979;1.83377;-1.99457;0.0114114;-0.5959;0.120092;-0.0800183;
-0.366382;-0.0444422;-1.09655;0.264739;-1.02348;0.938492;-1.9697;1.83308;-1.99447;0.0114109;-0.595372;0.12096;-0.080015;
-0.368072;-0.0444622;-1.09691;0.263924;-1.02341;0.938189;-1.96961;1.83239;-1.99437;0.0114106;-0.594836;0.121827;-0.080012;
-0.369761;-0.044481;-1.09727;0.263106;-1.02334;0.937886;-1.96952;1.8317;-1.99427;0.0114104;-0.594293;0.122692;-0.0800094;
-0.37145;-0.0444986;-1.09763;0.262286;-1.02326;0.937583;-1.96943;1.83102;-1.99417;0.0114103;-0.593743;0.123555;-0.0800072;
-0.373138;-0.044515;-1.09799;0.261463;-1.02318;0.937279;-1.96934;1.83034;-1.99407;0.0114104;-0.593185;0.124417;-0.0800053;
-0.374826;-0.0445303;-1.09835;0.260638;-1.0231;0.936975;-1.96925;1.82966;-1.99397;0.0114106;-0.59262;0.125277;-0.0800038;
-0.376513;-0.0445444;-1.09871;0.259811;-1.02302;0.936671;-1.96916;1.82898;-1.99387;0.0114109;-0.592047;0.126136;-0.0800026;
-0.378199;-0.0445573;-1.09907;0.258982;-1.02294;0.936367;-1.96907;1.82831;-1.99377;0.0114114;-0.591467;0.126993;-0.0800018;
-0.379885;-0.0445691;-1.09943;0.25815;-1.02286;0.936062;-1.96898;1.82764;-1.99367;0.011412;-0.59088;0.127849;-0.0800013;
-0.38157;-0.0445797;-1.09979;0.257316;-1.02277;0.935757;-1.96889;1.82697;-1.99357;0.0114127;-0.590285;0.128703;-0.0800012;
-0.383254;-0.0445891;-1.10015;0.25648;-1.02268;0.935452;-1.9688;1.8263;-1.99346;0.0114136;-0.589683;0.129556;-0.0800014;
-0.384938;-0.0445974;-1.10051;0.255642;-1.02259;0.935146;-1.96871;1.82564;-1.99335;0.0114146;-0.589074;0.130407;-0.080002;
-0.386621;-0.0446046;-1.10087;0.254802;-1.0225;0.93484;-1.96862;1.82498;-1.99324;0.0114158;-0.588458;0.131257;-0.0800029;
-0.388303;-0.0446106;-1.10123;0.253959;-1.02241;0.934534;-1.96853;1.82432;-1.99313;0.0114171;-0.587834;0.132105;-0.0800042;
-0.389984;-0.0446155;-1.10159;0.253114;-1.02232;0.934227;-1.96844;1.82366;-1.99302;0.0114186;-0.587203;0.132952;-0.0800058;
-0.391665;-0.0446192;-1.10195;0.252267;-1.02222;0.93392;-1.96835;1.823;-1.99291;0.0114202;-0.586565;0.133797;-0.0800077;
-0.393345;-0.0446218;-1.10231;0.251418;-1.02212;0.933613;-1.96826;1.82235;-1.9928;0.011422;-0.58592;0.134641;-0.08001;
-0.395024;-0.0446233;-1.10267;0.250567;-1.02202;0.933305;-1.96817;1.8217;-1.99269;0.0114239;-0.585268;0.135483;-0.0800126;
-0.396702;-0.0446237;-1.10303;0.249714;-1.02192;0.932997;-1.96808;1.82105;-1.99258;0.011426;-0.584609;0.136324;-0.0800155;
-0.39838;-0.0446229;-1.10339;0.248859;-1.02182;0.932689;-1.96799;1.8204;-1.99247;0.0114282;-0.583942;0.137164;-0.0800187;
-0.400057;-0.044621;-1.10375;0.248001;-1.02172;0.93238;-1.9679;1.81976;-1.99236;0.0114306;-0.583268;0.138002;-0.0800223;
-0.401733;-0.044618;-1.1041;0.247141;-1.02161;0.932071;-1.96781;1.81912;-1.99225;0.0114331;-0.582587;0.138839;-0.0800262;
-0.403408;-0.0446139;-1.10445;0.246279;-1.0215;0.931762;-1.96772;1.81848;-1.99213;0.0114358;-0.581899;0.139675;-0.0800304;
-0.405082;-0.0446087;-1.1048;0.245415;-1.02139;0.931453;-1.96763;1.81784;-1.99201;0.0114386;-0.581204;0.140509;-0.0800349;
-0.406755;-0.0446024;-1.10515;0.244549;-1.02128;0.931143;-1.96754;1.81721;-1.99189;0.0114416;-0.580502;0.141342;-0.0800397;
-0.408427;-0.044595;-1.1055;0.243681;-1.02117;0.930833;-1.96745;1.81658;-1.99177;0.0114448;-0.579793;0.142174;-0.0800448;
-0.410098;-0.0445865;-1.10585;0.242811;-1.02106;0.930523;-1.96736;1.81595;-1.99165;0.0114481;-0.579077;0.143004;-0.0800502;
-0.411768;-0.0445769;-1.1062;0.241939;-1.02095;0.930212;-1.96727;1.81532;-1.99153;0.0114516;-0.578354;0.143833;-0.0800559;
-0.413437;-0.0445662;-1.10655;0.241065;-1.02083;0.929901;-1.96718;1.8147;-1.99141;0.0114552;-0.577624;0.144661;-0.0800619;
-0.415105;-0.0445544;-1.1069;0.24019;-1.02071;0.92959;-1.96708;1.81408;-1.99129;0.011459;-0.576888;0.145488;-0.0800682;
-0.418438;-0.0445275;-1.1076;0.238434;-1.02047;0.928966;-1.96688;1.81284;-1.99105;0.0114671;-0.575395;0.147137;-0.0800817;
-0.420103;-0.0445124;-1.10795;0.237553;-1.02035;0.928654;-1.96678;1.81223;-1.99093;0.0114714;-0.574638;0.14796;-0.0800889;
-0.421767;-0.0444963;-1.1083;0.23667;-1.02023;0.928341;-1.96668;1.81162;-1.99081;0.0114759;-0.573874;0.148782;-0.0800964;
-0.42343;-0.0444791;-1.10865;0.235785;-1.02011;0.928028;-1.96658;1.81101;-1.99068;0.0114805;-0.573103;0.149602;-0.0801042;
-0.425092;-0.0444608;-1.109;0.234898;-1.01998;0.927715;-1.96648;1.81041;-1.99055;0.0114853;-0.572326;0.150421;-0.0801123;
-0.426753;-0.0444415;-1.10935;0.234009;-1.01985;0.927401;-1.96638;1.80981;-1.99042;0.0114903;-0.571542;0.151239;-0.0801207;
-0.428413;-0.0444211;-1.1097;0.233119;-1.01972;0.927087;-1.96628;1.80921;-1.99029;0.0114954;-0.570751;0.152056;-0.0801294;
-0.430072;-0.0443996;-1.11005;0.232227;-1.01959;0.926773;-1.96618;1.80861;-1.99016;0.0115007;-0.569954;0.152872;-0.0801384;
-0.43173;-0.0443771;-1.1104;0.231333;-1.01946;0.926459;-1.96608;1.80802;-1.99003;0.0115062;-0.56915;0.153686;-0.0801477;
-0.433386;-0.0443535;-1.11075;0.230437;-1.01933;0.926144;-1.96598;1.80743;-1.9899;0.0115118;-0.568339;0.154499;-0.0801572;
-0.435041;-0.0443289;-1.1111;0.229539;-1.0192;0.925829;-1.96588;1.80684;-1.98977;0.0115176;-0.567522;0.155311;-0.080167;
-0.436695;-0.0443032;-1.11145;0.22864;-1.01907;0.925514;-1.96578;1.80625;-1.98964;0.0115236;-0.566698;0.156122;-0.0801771;
-0.438348;-0.0442765;-1.1118;0.227739;-1.01893;0.925198;-1.96568;1.80567;-1.98951;0.0115298;-0.565867;0.156932;-0.0801875;
-0.441649;-0.0442199;-1.1125;0.225932;-1.01865;0.924566;-1.96548;1.80451;-1.98925;0.0115426;-0.564186;0.158549;-0.080209;
-0.443298;-0.04419;-1.11285;0.225026;-1.01851;0.924249;-1.96538;1.80393;-1.98912;0.0115493;-0.563336;0.159356;-0.0802202;
-0.444946;-0.0441591;-1.1132;0.224118;-1.01837;0.923932;-1.96528;1.80336;-1.98898;0.0115562;-0.562479;0.160162;-0.0802316;
-0.446592;-0.0441272;-1.11355;0.223208;-1.01823;0.923615;-1.96518;1.80279;-1.98884;0.0115633;-0.561616;0.160966;-0.0802433;
-0.448237;-0.0440942;-1.1139;0.222297;-1.01809;0.923297;-1.96508;1.80222;-1.9887;0.0115705;-0.560746;0.161769;-0.0802553;
-0.449881;-0.0440602;-1.11425;0.221384;-1.01795;0.922979;-1.96498;1.80165;-1.98856;0.0115779;-0.55987;0.162571;-0.0802675;
-0.451523;-0.0440252;-1.1146;0.220469;-1.0178;0.922661;-1.96488;1.80109;-1.98842;0.0115855;-0.558988;0.163372;-0.08028;
-0.453164;-0.0439891;-1.11495;0.219553;-1.01765;0.922343;-1.96478;1.80053;-1.98828;0.0115933;-0.558099;0.164172;-0.0802927;
-0.454804;-0.043952;-1.1153;0.218635;-1.0175;0.922024;-1.96468;1.79997;-1.98814;0.0116013;-0.557204;0.164971;-0.0803057;
-0.456442;-0.0439139;-1.11565;0.217716;-1.01735;0.921705;-1.96458;1.79942;-1.988;0.0116095;-0.556303;0.165769;-0.0803189;
-0.458079;-0.0438748;-1.116;0.216795;-1.0172;0.921386;-1.96448;1.79887;-1.98786;0.0116179;-0.555395;0.166566;-0.0803324;
-0.459714;-0.0438347;-1.11635;0.215873;-1.01705;0.921066;-1.96438;1.79832;-1.98772;0.0116264;-0.554481;0.167362;-0.0803461;
-0.461348;-0.0437936;-1.1167;0.214949;-1.0169;0.920746;-1.96428;1.79777;-1.98758;0.0116351;-0.553561;0.168157;-0.0803601;
-0.46298;-0.0437514;-1.11705;0.214024;-1.01675;0.920426;-1.96418;1.79723;-1.98744;0.011644;-0.552634;0.168951;-0.0803743;
-0.464611;-0.0437082;-1.1174;0.213097;-1.0166;0.920105;-1.96408;1.79669;-1.9873;0.0116531;-0.551701;0.169744;-0.0803887;
-0.46624;-0.043664;-1.11775;0.212168;-1.01644;0.919784;-1.96398;1.79615;-1.98716;0.0116624;-0.550762;0.170536;-0.0804034;
-0.467868;-0.0436188;-1.1181;0.211238;-1.01628;0.919463;-1.96388;1.79561;-1.98701;0.0116719;-0.549817;0.171327;-0.0804183;
-0.469494;-0.0435726;-1.11845;0.210307;-1.01612;0.919142;-1.96378;1.79508;-1.98686;0.0116816;-0.548866;0.172117;-0.0804334;
-0.471119;-0.0435254;-1.1188;0.209374;-1.01596;0.91882;-1.96368;1.79455;-1.98671;0.0116915;-0.547909;0.172907;-0.0804488;
-0.472742;-0.0434772;-1.11915;0.20844;-1.0158;0.918498;-1.96358;1.79402;-1.98656;0.0117016;-0.546945;0.173696;-0.0804644;
-0.474363;-0.043428;-1.1195;0.207504;-1.01564;0.918176;-1.96348;1.79349;-1.98641;0.0117119;-0.545975;0.174484;-0.0804802;
-0.475983;-0.0433778;-1.11985;0.206567;-1.01548;0.917853;-1.96338;1.79297;-1.98626;0.0117224;-0.544999;0.175271;-0.0804963;
-0.477601;-0.0433266;-1.1202;0.205628;-1.01532;0.91753;-1.96328;1.79245;-1.98611;0.0117331;-0.544017;0.176057;-0.0805126;
-0.479218;-0.0432745;-1.12055;0.204688;-1.01516;0.917207;-1.96318;1.79193;-1.98596;0.011744;-0.543029;0.176842;-0.0805291;
-0.480833;-0.0432214;-1.1209;0.203746;-1.015;0.916884;-1.96308;1.79142;-1.98581;0.0117551;-0.542035;0.177626;-0.0805458;
-0.482446;-0.0431673;-1.12125;0.202803;-1.01483;0.91656;-1.96298;1.79091;-1.98566;0.0117664;-0.541035;0.178409;-0.0805627;
-0.484057;-0.0431122;-1.1216;0.201859;-1.01466;0.916236;-1.96288;1.7904;-1.98551;0.0117779;-0.540029;0.179191;-0.0805799;
-0.485667;-0.0430561;-1.12195;0.200913;-1.01449;0.915912;-1.96278;1.78989;-1.98536;0.0117896;-0.539018;0.179973;-0.0805973;
-0.487275;-0.042999;-1.1223;0.199966;-1.01432;0.915587;-1.96268;1.78939;-1.98521;0.0118015;-0.538001;0.180754;-0.0806149;
-0.488881;-0.0429409;-1.12265;0.199018;-1.01415;0.915262;-1.96258;1.78889;-1.98506;0.0118136;-0.536978;0.181534;-0.0806327;
-0.490486;-0.0428819;-1.123;0.198068;-1.01398;0.914937;-1.96248;1.78839;-1.9849;0.0118259;-0.535949;0.182313;-0.0806507;
-0.492089;-0.0428219;-1.12335;0.197117;-1.01381;0.914612;-1.96238;1.78789;-1.98474;0.0118384;-0.534914;0.183091;-0.0806689;
-0.49369;-0.0427609;-1.1237;0.196165;-1.01364;0.914286;-1.96228;1.7874;-1.98458;0.0118511;-0.533873;0.183868;-0.0806873;
-0.495289;-0.0426989;-1.12405;0.195212;-1.01347;0.91396;-1.96218;1.78691;-1.98442;0.011864;-0.532827;0.184645;-0.0807059;
-0.496886;-0.042636;-1.1244;0.194257;-1.0133;0.913634;-1.96208;1.78642;-1.98426;0.0118771;-0.531775;0.185421;-0.0807247;
-0.498481;-0.0425721;-1.12475;0.193301;-1.01313;0.913307;-1.96198;1.78593;-1.9841;0.0118904;-0.530717;0.186196;-0.0807437;
-0.500075;-0.0425072;-1.1251;0.192344;-1.01296;0.91298;-1.96188;1.78545;-1.98394;0.011904;-0.529653;0.18697;-0.0807629;
-0.501667;-0.0424414;-1.12545;0.191386;-1.01278;0.912653;-1.96178;1.78497;-1.98378;0.0119178;-0.528584;0.187743;-0.0807823;
-0.503257;-0.0423746;-1.1258;0.190426;-1.0126;0.912326;-1.96168;1.78449;-1.98362;0.0119318;-0.527509;0.188516;-0.0808019;
-0.504845;-0.0423069;-1.12615;0.189465;-1.01242;0.911998;-1.96158;1.78402;-1.98346;0.011946;-0.526428;0.189288;-0.0808217;
-0.506431;-0.0422382;-1.1265;0.188503;-1.01224;0.91167;-1.96148;1.78355;-1.9833;0.0119604;-0.525342;0.190059;-0.0808416;
-0.508015;-0.0421685;-1.12685;0.18754;-1.01206;0.911342;-1.96138;1.78308;-1.98314;0.011975;-0.52425;0.190829;-0.0808617;
-0.509597;-0.0420979;-1.1272;0.186576;-1.01188;0.911013;-1.96128;1.78261;-1.98298;0.0119898;-0.523153;0.191599;-0.080882;
-0.511177;-0.0420263;-1.12755;0.185611;-1.0117;0.910684;-1.96118;1.78215;-1.98282;0.0120048;-0.52205;0.192368;-0.0809025;
-0.512755;-0.0419538;-1.1279;0.184644;-1.01152;0.910355;-1.96108;1.78169;-1.98266;0.0120201;-0.520942;0.193136;-0.0809232;
-0.514331;-0.0418803;-1.12825;0.183676;-1.01134;0.910026;-1.96098;1.78123;-1.9825;0.0120356;-0.519828;0.193904;-0.080944;
-0.515905;-0.0418059;-1.1286;0.182707;-1.01116;0.909696;-1.96087;1.78077;-1.98233;0.0120513;-0.518709;0.194671;-0.080965;
-0.517477;-0.0417305;-1.12895;0.181737;-1.01098;0.909366;-1.96076;1.78032;-1.98216;0.0120672;-0.517584;0.195437;-0.0809862;
-0.519047;-0.0416542;-1.1293;0.180766;-1.0108;0.909036;-1.96065;1.77987;-1.98199;0.0120833;-0.516454;0.196203;-0.0810076;
-0.520615;-0.0415769;-1.12965;0.179794;-1.01062;0.908706;-1.96054;1.77942;-1.98182;0.0120997;-0.515318;0.196968;-0.0810291;
-0.522181;-0.0414987;-1.13;0.178821;-1.01044;0.908375;-1.96043;1.77897;-1.98165;0.0121163;-0.514177;0.197732;-0.0810508;
-0.523744;-0.0414195;-1.13035;0.177847;-1.01026;0.908044;-1.96032;1.77853;-1.98148;0.0121331;-0.513031;0.198495;-0.0810727;
-0.525305;-0.0413394;-1.1307;0.176872;-1.01008;0.907713;-1.96021;1.77809;-1.98131;0.0121501;-0.511879;0.199258;-0.0810947;
-0.526864;-0.0412584;-1.13105;0.175896;-1.0099;0.907382;-1.9601;1.77765;-1.98114;0.0121673;-0.510722;0.20002;-0.0811169;
-0.528421;-0.0411764;-1.1314;0.174918;-1.00971;0.90705;-1.95999;1.77721;-1.98097;0.0121848;-0.50956;0.200781;-0.0811392;
-0.529976;-0.0410935;-1.13175;0.17394;-1.00952;0.906718;-1.95988;1.77678;-1.9808;0.0122025;-0.508392;0.201542;-0.0811617;
-0.531528;-0.0410097;-1.1321;0.172961;-1.00933;0.906386;-1.95977;1.77635;-1.98063;0.0122204;-0.507219;0.202302;-0.0811844;
-0.533078;-0.0409249;-1.13245;0.171981;-1.00914;0.906054;-1.95966;1.77592;-1.98046;0.0122385;-0.506041;0.203062;-0.0812072;
-0.534626;-0.0408392;-1.1328;0.170999;-1.00895;0.905721;-1.95955;1.77549;-1.98029;0.0122569;-0.504858;0.203821;-0.0812302;
-0.536172;-0.0407526;-1.13315;0.170017;-1.00876;0.905388;-1.95944;1.77507;-1.98012;0.0122755;-0.50367;0.204579;-0.0812533;
-0.537715;-0.040665;-1.1335;0.169034;-1.00857;0.905055;-1.95933;1.77465;-1.97995;0.0122943;-0.502476;0.205337;-0.0812766;
-0.539256;-0.0405765;-1.13385;0.16805;-1.00838;0.904722;-1.95922;1.77423;-1.97978;0.0123134;-0.501277;0.206094;-0.0813;
-0.540795;-0.0404871;-1.1342;0.167065;-1.00819;0.904388;-1.95911;1.77381;-1.97961;0.0123327;-0.500073;0.20685;-0.0813235;
-0.542331;-0.0403967;-1.13455;0.166079;-1.008;0.904054;-1.959;1.7734;-1.97943;0.0123522;-0.498864;0.207606;-0.0813472;
-0.543865;-0.0403054;-1.1349;0.165092;-1.00781;0.90372;-1.95889;1.77299;-1.97925;0.0123719;-0.49765;0.208361;-0.081371;
-0.545397;-0.0402132;-1.13525;0.164104;-1.00762;0.903386;-1.95878;1.77258;-1.97907;0.0123919;-0.496431;0.209116;-0.081395;
-0.546926;-0.0401201;-1.1356;0.163115;-1.00743;0.903051;-1.95867;1.77218;-1.97889;0.0124121;-0.495207;0.20987;-0.0814191;
-0.548453;-0.0400261;-1.13595;0.162125;-1.00724;0.902716;-1.95856;1.77178;-1.97871;0.0124325;-0.493978;0.210624;-0.0814433;
-0.549978;-0.0399311;-1.1363;0.161134;-1.00705;0.902381;-1.95845;1.77138;-1.97853;0.0124532;-0.492744;0.211377;-0.0814677;
-0.5515;-0.0398352;-1.13665;0.160142;-1.00686;0.902046;-1.95834;1.77098;-1.97835;0.0124741;-0.491505;0.212129;-0.0814922;
-0.55302;-0.0397384;-1.137;0.15915;-1.00667;0.90171;-1.95823;1.77059;-1.97817;0.0124952;-0.490261;0.212881;-0.0815168;
-0.554537;-0.0396407;-1.13735;0.158157;-1.00648;0.901374;-1.95812;1.7702;-1.97799;0.0125166;-0.489012;0.213632;-0.0815415;
-0.556052;-0.0395421;-1.1377;0.157163;-1.00629;0.901038;-1.95801;1.76981;-1.97781;0.0125382;-0.487759;0.214383;-0.0815664;
-0.557564;-0.0394425;-1.13805;0.156168;-1.0061;0.900702;-1.9579;1.76942;-1.97763;0.01256;-0.486501;0.215133;-0.0815914;
-0.559074;-0.039342;-1.1384;0.155172;-1.00591;0.900365;-1.95779;1.76903;-1.97745;0.0125821;-0.485238;0.215883;-0.0816165;
-0.560581;-0.0392406;-1.13875;0.154175;-1.00572;0.900028;-1.95768;1.76865;-1.97727;0.0126044;-0.48397;0.216632;-0.0816417;
-0.562086;-0.0391383;-1.1391;0.153178;-1.00553;0.899691;-1.95757;1.76827;-1.97709;0.012627;-0.482697;0.217381;-0.081667;
-0.563588;-0.0390351;-1.13945;0.15218;-1.00534;0.899354;-1.95746;1.76789;-1.97691;0.0126498;-0.48142;0.218129;-0.0816925;
-0.565088;-0.038931;-1.1398;0.151181;-1.00515;0.899016;-1.95735;1.76751;-1.97673;0.0126728;-0.480138;0.218877;-0.0817181;
-0.566585;-0.038826;-1.14015;0.150181;-1.00496;0.898678;-1.95724;1.76714;-1.97655;0.0126961;-0.478851;0.219624;-0.0817438;
-0.568079;-0.0387201;-1.1405;0.149181;-1.00477;0.89834;-1.95713;1.76677;-1.97637;0.0127196;-0.477559;0.220371;-0.0817696;
-0.569571;-0.0386133;-1.14085;0.14818;-1.00458;0.898002;-1.95702;1.7664;-1.97619;0.0127434;-0.476263;0.221117;-0.0817955;
-0.57106;-0.0385056;-1.1412;0.147178;-1.00439;0.897664;-1.95691;1.76603;-1.976;0.0127674;-0.474962;0.221863;-0.0818215;
-0.572546;-0.038397;-1.14155;0.146175;-1.0042;0.897325;-1.9568;1.76567;-1.97581;0.0127916;-0.473657;0.222608;-0.0818476;
-0.57403;-0.0382875;-1.1419;0.145172;-1.00401;0.896986;-1.95669;1.76531;-1.97562;0.0128161;-0.472347;0.223353;-0.0818738;
-0.575511;-0.0381771;-1.14224;0.144168;-1.00382;0.896647;-1.95658;1.76495;-1.97543;0.0128408;-0.471032;0.224097;-0.0819001;
-0.576989;-0.0380658;-1.14258;0.143163;-1.00363;0.896308;-1.95647;1.76459;-1.97524;0.0128658;-0.469713;0.224841;-0.0819265;
-0.578465;-0.0379536;-1.14292;0.142157;-1.00344;0.895968;-1.95636;1.76424;-1.97505;0.012891;-0.468389;0.225584;-0.081953;
-0.579938;-0.0378405;-1.14326;0.141151;-1.00325;0.895628;-1.95625;1.76389;-1.97486;0.0129165;-0.467061;0.226327;-0.0819796;
-0.581408;-0.0377265;-1.1436;0.140144;-1.00306;0.895288;-1.95614;1.76354;-1.97467;0.0129422;-0.465728;0.227069;-0.0820063;
-0.582875;-0.0376116;-1.14394;0.139136;-1.00287;0.894948;-1.95603;1.76319;-1.97448;0.0129681;-0.464391;0.227811;-0.082033;
-0.58434;-0.0374958;-1.14428;0.138128;-1.00268;0.894608;-1.95592;1.76285;-1.97429;0.0129943;-0.463049;0.228553;-0.0820598;
-0.587261;-0.0372615;-1.14496;0.136109;-1.0023;0.893926;-1.9557;1.76217;-1.97391;0.0130474;-0.460353;0.230035;-0.0821137;
-0.588717;-0.037143;-1.1453;0.135099;-1.00211;0.893585;-1.95559;1.76183;-1.97372;0.0130743;-0.458998;0.230775;-0.0821408;
-0.59017;-0.0370236;-1.14564;0.134088;-1.00192;0.893244;-1.95548;1.76149;-1.97353;0.0131015;-0.457639;0.231515;-0.082168;
-0.591621;-0.0369033;-1.14598;0.133077;-1.00173;0.892902;-1.95537;1.76116;-1.97334;0.0131289;-0.456276;0.232254;-0.0821952;
-0.593069;-0.0367821;-1.14632;0.132065;-1.00154;0.89256;-1.95526;1.76083;-1.97315;0.0131566;-0.454908;0.232993;-0.0822225;
-0.594514;-0.03666;-1.14666;0.131052;-1.00135;0.892218;-1.95515;1.7605;-1.97296;0.0131845;-0.453536;0.233732;-0.0822499;
-0.595956;-0.036537;-1.147;0.130039;-1.00116;0.891876;-1.95504;1.76017;-1.97277;0.0132127;-0.45216;0.23447;-0.0822774;
-0.597395;-0.0364132;-1.14734;0.129025;-1.00097;0.891534;-1.95493;1.75985;-1.97258;0.0132411;-0.450779;0.235208;-0.0823049;
-0.598831;-0.0362885;-1.14768;0.128011;-1.00078;0.891191;-1.95482;1.75953;-1.97239;0.0132698;-0.449394;0.235945;-0.0823325;
-0.600264;-0.0361629;-1.14802;0.126996;-1.00059;0.890848;-1.95471;1.75921;-1.9722;0.0132987;-0.448005;0.236682;-0.0823602;
-0.601694;-0.0360364;-1.14836;0.125981;-1.0004;0.890505;-1.9546;1.75889;-1.972;0.0133279;-0.446612;0.237419;-0.0823879;
-0.603121;-0.035909;-1.1487;0.124965;-1.00021;0.890162;-1.95449;1.75857;-1.9718;0.0133573;-0.445215;0.238155;-0.0824157;
-0.604545;-0.0357807;-1.14904;0.123949;-1.00002;0.889819;-1.95438;1.75826;-1.9716;0.013387;-0.443814;0.238891;-0.0824435;
-0.605966;-0.0356516;-1.14938;0.122932;-0.999828;0.889475;-1.95426;1.75795;-1.9714;0.0134169;-0.442409;0.239627;-0.0824714;
-0.607384;-0.0355216;-1.14972;0.121914;-0.999637;0.889131;-1.95414;1.75764;-1.9712;0.0134471;-0.440999;0.240362;-0.0824994;
-0.608799;-0.0353907;-1.15006;0.120896;-0.999446;0.888787;-1.95402;1.75733;-1.971;0.0134775;-0.439585;0.241097;-0.0825274;
-0.610211;-0.0352589;-1.1504;0.119877;-0.999255;0.888443;-1.9539;1.75703;-1.9708;0.0135082;-0.438167;0.241831;-0.0825555;
-0.61162;-0.0351262;-1.15074;0.118858;-0.999065;0.888099;-1.95378;1.75673;-1.9706;0.0135391;-0.436745;0.242565;-0.0825836;
-0.613026;-0.0349927;-1.15108;0.117839;-0.998875;0.887755;-1.95366;1.75643;-1.9704;0.0135703;-0.435319;0.243299;-0.0826118;
-0.614429;-0.0348583;-1.15142;0.116819;-0.998685;0.88741;-1.95354;1.75613;-1.9702;0.0136017;-0.433889;0.244032;-0.08264;
-0.615829;-0.034723;-1.15176;0.115799;-0.998496;0.887065;-1.95342;1.75583;-1.97;0.0136334;-0.432456;0.244765;-0.0826683;
-0.617226;-0.0345868;-1.1521;0.114778;-0.998307;0.88672;-1.9533;1.75554;-1.9698;0.0136653;-0.431019;0.245498;-0.0826966;
-0.618619;-0.0344498;-1.15244;0.113757;-0.998118;0.886375;-1.95318;1.75525;-1.9696;0.0136975;-0.429578;0.24623;-0.082725;
-0.620009;-0.0343119;-1.15278;0.112735;-0.99793;0.88603;-1.95306;1.75496;-1.9694;0.01373;-0.428133;0.246962;-0.0827534;
-0.621396;-0.0341731;-1.15312;0.111713;-0.997742;0.885684;-1.95294;1.75467;-1.9692;0.0137627;-0.426684;0.247694;-0.0827818;
-0.62278;-0.0340334;-1.15346;0.11069;-0.997555;0.885338;-1.95282;1.75438;-1.969;0.0137957;-0.425231;0.248425;-0.0828103;
-0.624161;-0.0338929;-1.1538;0.109667;-0.997368;0.884992;-1.9527;1.7541;-1.9688;0.0138289;-0.423774;0.249156;-0.0828388;
-0.625539;-0.0337515;-1.15414;0.108643;-0.997181;0.884646;-1.95258;1.75382;-1.9686;0.0138624;-0.422314;0.249887;-0.0828673;
-0.626913;-0.0336092;-1.15448;0.107619;-0.996995;0.8843;-1.95246;1.75354;-1.9684;0.0138961;-0.42085;0.250617;-0.0828959;
-0.628284;-0.0334661;-1.15482;0.106595;-0.996809;0.883954;-1.95234;1.75326;-1.9682;0.0139301;-0.419382;0.251347;-0.0829245;
-0.629652;-0.0333221;-1.15516;0.10557;-0.996624;0.883607;-1.95222;1.75298;-1.968;0.0139644;-0.41791;0.252077;-0.0829531;
-0.631017;-0.0331772;-1.1555;0.104545;-0.996439;0.88326;-1.9521;1.75271;-1.9678;0.0139989;-0.416435;0.252806;-0.0829818;
-0.633736;-0.0328849;-1.15618;0.102494;-0.996072;0.882566;-1.95186;1.75217;-1.9674;0.0140687;-0.413473;0.254264;-0.0830392;
-0.635091;-0.0327374;-1.15652;0.101468;-0.995889;0.882219;-1.95174;1.7519;-1.96719;0.014104;-0.411987;0.254993;-0.0830679;
-0.636442;-0.0325891;-1.15686;0.100441;-0.995707;0.881872;-1.95162;1.75163;-1.96698;0.0141396;-0.410497;0.255721;-0.0830967;
-0.63779;-0.0324399;-1.1572;0.0994141;-0.995525;0.881524;-1.9515;1.75137;-1.96677;0.0141754;-0.409003;0.256449;-0.0831255;
-0.639135;-0.0322898;-1.15754;0.0983868;-0.995344;0.881176;-1.95138;1.75111;-1.96656;0.0142115;-0.407506;0.257177;-0.0831543;
-0.640476;-0.0321389;-1.15788;0.0973592;-0.995164;0.880828;-1.95126;1.75085;-1.96635;0.0142479;-0.406005;0.257904;-0.0831831;
-0.643149;-0.0318345;-1.15856;0.0953029;-0.994805;0.880132;-1.95102;1.75033;-1.96593;0.0143214;-0.402993;0.259358;-0.0832407;
-0.64448;-0.031681;-1.1589;0.0942742;-0.994627;0.879784;-1.9509;1.75007;-1.96572;0.0143586;-0.401482;0.260085;-0.0832695;
-0.645808;-0.0315267;-1.15924;0.0932452;-0.994449;0.879435;-1.95078;1.74982;-1.96551;0.014396;-0.399967;0.260811;-0.0832984;
-0.647132;-0.0313715;-1.15958;0.0922159;-0.994272;0.879086;-1.95066;1.74957;-1.9653;0.0144337;-0.398449;0.261537;-0.0833273;
-0.648453;-0.0312154;-1.15992;0.0911863;-0.994096;0.878737;-1.95054;1.74932;-1.96509;0.0144717;-0.396927;0.262263;-0.0833562;
-0.64977;-0.0310585;-1.16026;0.0901564;-0.99392;0.878388;-1.95042;1.74907;-1.96488;0.0145099;-0.395402;0.262988;-0.0833851;
-0.651084;-0.0309007;-1.1606;0.0891262;-0.993745;0.878039;-1.9503;1.74882;-1.96467;0.0145484;-0.393874;0.263713;-0.083414;
-0.652395;-0.0307421;-1.16094;0.0880957;-0.993571;0.87769;-1.95018;1.74857;-1.96446;0.0145872;-0.392342;0.264438;-0.0834429;
-0.653702;-0.0305826;-1.16128;0.0870649;-0.993398;0.87734;-1.95006;1.74833;-1.96425;0.0146262;-0.390807;0.265163;-0.0834718;
-0.655006;-0.0304223;-1.16162;0.0860338;-0.993225;0.87699;-1.94994;1.74809;-1.96404;0.0146655;-0.389269;0.265887;-0.0835007;
-0.656306;-0.0302611;-1.16196;0.0850025;-0.993053;0.87664;-1.94982;1.74785;-1.96383;0.0147051;-0.387727;0.266611;-0.0835296;
-0.657603;-0.0300991;-1.1623;0.0839709;-0.992882;0.87629;-1.9497;1.74761;-1.96362;0.0147449;-0.386182;0.267335;-0.0835585;
-0.658896;-0.0299362;-1.16264;0.082939;-0.992712;0.87594;-1.94958;1.74737;-1.96341;0.014785;-0.384634;0.268059;-0.0835873;
-0.660185;-0.0297725;-1.16298;0.0819069;-0.992543;0.87559;-1.94946;1.74713;-1.9632;0.0148254;-0.383083;0.268782;-0.0836161;
-0.661471;-0.0296079;-1.16332;0.0808745;-0.992374;0.87524;-1.94934;1.7469;-1.96299;0.014866;-0.381528;0.269505;-0.0836449;
-0.662753;-0.0294425;-1.16366;0.0798419;-0.992206;0.874889;-1.94922;1.74667;-1.96278;0.0149069;-0.37997;0.270228;-0.0836737;
-0.664032;-0.0292762;-1.164;0.0788091;-0.992039;0.874538;-1.9491;1.74644;-1.96257;0.0149481;-0.378409;0.270951;-0.0837025;
-0.665307;-0.0291091;-1.16434;0.077776;-0.991873;0.874187;-1.94898;1.74621;-1.96236;0.0149895;-0.376845;0.271673;-0.0837313;
-0.667846;-0.0287724;-1.16502;0.0757092;-0.991544;0.873485;-1.94874;1.74575;-1.96194;0.0150732;-0.373708;0.273117;-0.0837888;
-0.66911;-0.0286028;-1.16536;0.0746755;-0.991381;0.873134;-1.94862;1.74553;-1.96173;0.0151155;-0.372134;0.273839;-0.0838175;
-0.670371;-0.0284323;-1.1657;0.0736416;-0.991219;0.872783;-1.9485;1.74531;-1.96152;0.015158;-0.370557;0.274561;-0.0838462;
-0.671628;-0.028261;-1.16604;0.0726075;-0.991058;0.872432;-1.94838;1.74509;-1.96131;0.0152008;-0.368977;0.275282;-0.0838749;
-0.672881;-0.0280888;-1.16638;0.0715732;-0.990898;0.87208;-1.94826;1.74487;-1.9611;0.0152439;-0.367394;0.276003;-0.0839035;
-0.674131;-0.0279158;-1.16672;0.0705387;-0.990739;0.871728;-1.94814;1.74465;-1.96089;0.0152873;-0.365808;0.276724;-0.0839321;
-0.675377;-0.027742;-1.16706;0.069504;-0.990581;0.871376;-1.94802;1.74443;-1.96067;0.0153309;-0.364219;0.277445;-0.0839607;
-0.676619;-0.0275673;-1.1674;0.0684691;-0.990424;0.871024;-1.9479;1.74421;-1.96045;0.0153748;-0.362627;0.278165;-0.0839893;
-0.677857;-0.0273918;-1.16774;0.067434;-0.990268;0.870672;-1.94778;1.744;-1.96023;0.015419;-0.361032;0.278885;-0.0840178;
-0.679092;-0.0272155;-1.16808;0.0663987;-0.990113;0.87032;-1.94766;1.74379;-1.96001;0.0154635;-0.359434;0.279605;-0.0840463;
-0.680323;-0.0270383;-1.16842;0.0653632;-0.989959;0.869968;-1.94754;1.74358;-1.95979;0.0155082;-0.357833;0.280325;-0.0840748;
-2.00672;0.00758038;-0.00791732;0.00424404;-0.00270845;1.01053;-1.01086;0.999789;-0.993484;1.9934;-1.99859;2.00276;-1.9985;
-2.01285;0.0143165;-0.0150378;0.00772185;-0.00479966;1.02033;-1.02095;0.999899;-0.987212;1.98706;-1.9973;2.00503;-1.99735;
-2.01846;0.0202914;-0.021445;0.0105125;-0.00633261;1.02947;-1.03035;1.00031;-0.981174;1.98098;-1.99613;2.00687;-1.99651;
-2.02359;0.0255829;-0.0272157;0.0126891;-0.00736202;1.03801;-1.03912;1.001;-0.975358;1.97513;-1.99506;2.00831;-1.99594;
-2.02829;0.0302636;-0.0324205;0.0143192;-0.00793865;1.046;-1.04733;1.00194;-0.969753;1.96951;-1.99409;2.0094;-1.99561;
-2.03261;0.0344005;-0.0371237;0.0154647;-0.00810906;1.0535;-1.05504;1.00312;-0.964346;1.96409;-1.9932;2.01017;-1.9955;
-2.03658;0.0380549;-0.0413837;0.0161817;-0.00791565;1.06056;-1.0623;1.00451;-0.959125;1.95887;-1.99238;2.01066;-1.99558;
-2.04025;0.0412824;-0.045253;0.0165211;-0.00739691;1.06723;-1.06916;1.0061;-0.954078;1.95383;-1.99163;2.0109;-1.99582;
-2.04364;0.0441331;-0.0487785;0.0165282;-0.00658734;1.07355;-1.07566;1.00787;-0.949194;1.94896;-1.99094;2.01093;-1.99621;
-2.04679;0.0466521;-0.0520022;0.0162439;-0.00551813;1.07955;-1.08184;1.00981;-0.944462;1.94424;-1.9903;2.01076;-1.99673;
-2.04972;0.0488801;-0.0549619;0.0157048;-0.00421732;1.08528;-1.08774;1.0119;-0.939871;1.93967;-1.98971;2.01042;-1.99736;
-2.05245;0.050853;-0.0576908;0.0149432;-0.00270978;1.09076;-1.09339;1.01413;-0.935413;1.93523;-1.98916;2.00993;-1.99809;
-2.055;0.052603;-0.0602186;0.0139879;-0.00101786;1.09601;-1.09882;1.01649;-0.931079;1.93092;-1.98865;2.00931;-1.9989;
-2.055;0.052603;-0.0602186;0.0139879;-0.00101786;1.09601;-1.09882;1.01649;-0.931079;1.93092;-1.98865;2.00931;-1.9989;
-2.0574;0.0541586;-0.0625717;0.0128646;0.000838493;1.10107;-1.10405;1.01897;-0.926861;1.92672;-1.98817;2.00858;-1.99979;
-2.05966;0.0555449;-0.064773;0.0115957;0.00284176;1.10595;-1.1091;1.02156;-0.922752;1.92263;-1.98772;2.00775;-2.00074;
-2.06179;0.0567843;-0.0668431;0.0102011;0.00497616;1.11067;-1.114;1.02425;-0.918745;1.91864;-1.9873;2.00684;-2.00175;
-2.06381;0.0578963;-0.0688;0.00869832;0.00722776;1.11525;-1.11876;1.02703;-0.914834;1.91475;-1.9869;2.00586;-2.00281;
-2.06573;0.0588982;-0.0706596;0.00710271;0.00958422;1.11971;-1.1234;1.0299;-0.911014;1.91095;-1.98653;2.00482;-2.00391;
-2.06756;0.059805;-0.0724356;0.00542768;0.0120346;1.12406;-1.12793;1.03285;-0.90728;1.90724;-1.98618;2.00372;-2.00504;
-2.06931;0.0606301;-0.0741405;0.00368521;0.0145692;1.12831;-1.13236;1.03587;-0.903627;1.90361;-1.98585;2.00258;-2.00621;
-2.07098;0.0613852;-0.075785;0.00188572;0.0171793;1.13247;-1.1367;1.03896;-0.900052;1.90005;-1.98553;2.0014;-2.0074;
-2.07259;0.0620805;-0.0773785;3.83171e-05;0.0198572;1.13656;-1.14097;1.04212;-0.896551;1.89657;-1.98523;2.00019;-2.00862;
-2.07413;0.0627248;-0.0789292;-0.00184917;0.0225961;1.14058;-1.14517;1.04534;-0.893121;1.89316;-1.98494;1.99895;-2.00986;
-2.07562;0.0633261;-0.0804445;-0.00376963;0.0253899;1.14453;-1.14931;1.04862;-0.889758;1.88981;-1.98467;1.99769;-2.01111;
-2.07706;0.0638911;-0.0819306;-0.00571711;0.0282332;1.14843;-1.15339;1.05195;-0.88646;1.88653;-1.98441;1.99641;-2.01238;
-2.07845;0.0644258;-0.0833932;-0.0076862;0.0311212;1.15228;-1.15743;1.05533;-0.883225;1.88331;-1.98416;1.99512;-2.01366;
-2.0798;0.0649351;-0.0848368;-0.00967254;0.0340497;1.15609;-1.16142;1.05876;-0.88005;1.88015;-1.98392;1.99382;-2.01495;
-2.08111;0.0654234;-0.0862656;-0.0116721;0.0370148;1.15986;-1.16538;1.06224;-0.876933;1.87705;-1.98369;1.99251;-2.01625;
-2.08239;0.0658946;-0.0876833;-0.0136815;0.0400132;1.16359;-1.1693;1.06576;-0.873873;1.874;-1.98347;1.9912;-2.01756;
-2.08363;0.066352;-0.089093;-0.0156978;0.0430418;1.16729;-1.17319;1.06932;-0.870868;1.87101;-1.98326;1.98989;-2.01887;
-2.08484;0.0667984;-0.0904973;-0.0177186;0.0460979;1.17096;-1.17705;1.07292;-0.867916;1.86807;-1.98306;1.98857;-2.02019;
-2.08602;0.0672366;-0.091899;-0.0197413;0.0491788;1.1746;-1.18089;1.07656;-0.865016;1.86518;-1.98287;1.98725;-2.02151;
-2.08718;0.0676686;-0.0933;-0.021764;0.0522823;1.17822;-1.18471;1.08024;-0.862166;1.86234;-1.98269;1.98594;-2.02283;
-2.08831;0.068096;-0.0947018;-0.0237854;0.0554067;1.18182;-1.18851;1.08396;-0.859365;1.85955;-1.98252;1.98463;-2.02415;
-2.08942;0.0685204;-0.096106;-0.0258041;0.05855;1.1854;-1.1923;1.08771;-0.856612;1.85681;-1.98236;1.98332;-2.02547;
-2.0905;0.0689431;-0.097514;-0.0278189;0.0617105;1.18897;-1.19607;1.0915;-0.853907;1.85412;-1.98221;1.98202;-2.0268;
-2.09156;0.0693653;-0.0989269;-0.0298287;0.0648866;1.19252;-1.19983;1.09532;-0.851248;1.85147;-1.98206;1.98072;-2.02813;
-2.0926;0.0697881;-0.100346;-0.0318326;0.0680769;1.19606;-1.20358;1.09917;-0.848634;1.84887;-1.98192;1.97943;-2.02946;
-2.09362;0.070212;-0.101771;-0.03383;0.0712803;1.19959;-1.20732;1.10305;-0.846064;1.84631;-1.98179;1.97815;-2.03079;
-2.09463;0.0706377;-0.103204;-0.0358205;0.0744956;1.20311;-1.21105;1.10696;-0.843538;1.8438;-1.98167;1.97688;-2.03211;
-2.09562;0.0710655;-0.104644;-0.0378038;0.0777218;1.20662;-1.21477;1.1109;-0.841055;1.84133;-1.98156;1.97561;-2.03343;
-2.09659;0.0714961;-0.106092;-0.0397792;0.0809578;1.21012;-1.21849;1.11487;-0.838614;1.8389;-1.98145;1.97435;-2.03475;
-2.09754;0.0719297;-0.107549;-0.0417465;0.0842027;1.21362;-1.2222;1.11887;-0.836215;1.83652;-1.98135;1.9731;-2.03607;
-2.09848;0.0723667;-0.109015;-0.0437055;0.0874555;1.21711;-1.22591;1.12289;-0.833856;1.83418;-1.98126;1.97186;-2.03739;
-2.0994;0.0728071;-0.11049;-0.045656;0.0907155;1.2206;-1.22961;1.12694;-0.831538;1.83188;-1.98118;1.97063;-2.03871;
-2.10031;0.0732512;-0.111975;-0.0475979;0.0939819;1.22408;-1.23331;1.13102;-0.829259;1.82962;-1.9811;1.96941;-2.04003;
-2.10121;0.0736991;-0.113469;-0.0495312;0.0972539;1.22756;-1.23701;1.13512;-0.82702;1.8274;-1.98103;1.9682;-2.04134;
-2.10209;0.0741506;-0.114972;-0.051456;0.100531;1.23104;-1.24071;1.13925;-0.824819;1.82522;-1.98097;1.967;-2.04265;
-2.10209;0.0741506;-0.114972;-0.051456;0.100531;1.23104;-1.24071;1.13925;-0.824819;1.82522;-1.98097;1.967;-2.04265;
-2.10296;0.0746057;-0.116485;-0.0533722;0.103813;1.23451;-1.24441;1.1434;-0.822656;1.82308;-1.98092;1.9658;-2.04396;
-2.10382;0.0750648;-0.118008;-0.0552796;0.107098;1.23798;-1.24811;1.14757;-0.820531;1.82098;-1.98087;1.96461;-2.04527;
-2.10467;0.0755278;-0.119541;-0.0571783;0.110386;1.24145;-1.25181;1.15177;-0.818443;1.81892;-1.98083;1.96343;-2.04658;
-2.1055;0.0759946;-0.121083;-0.0590684;0.113677;1.24492;-1.25551;1.15599;-0.816392;1.8169;-1.9808;1.96226;-2.04788;
-2.10632;0.0764651;-0.122635;-0.06095;0.116969;1.2484;-1.25921;1.16023;-0.814377;1.81492;-1.98078;1.9611;-2.04918;
-2.10713;0.0769392;-0.124197;-0.0628232;0.120263;1.25188;-1.26292;1.16449;-0.812398;1.81298;-1.98076;1.95995;-2.05048;
-2.10793;0.0774166;-0.125768;-0.0646884;0.123558;1.25536;-1.26663;1.16877;-0.810455;1.81107;-1.98075;1.95881;-2.05178;
-2.10872;0.0778972;-0.127349;-0.0665456;0.126853;1.25884;-1.27034;1.17307;-0.808547;1.8092;-1.98075;1.95768;-2.05307;
-2.1095;0.0783808;-0.128939;-0.0683949;0.130148;1.26232;-1.27406;1.17739;-0.806674;1.80737;-1.98076;1.95656;-2.05436;
-2.11027;0.0788673;-0.130538;-0.0702366;0.133443;1.26581;-1.27778;1.18173;-0.804835;1.80558;-1.98077;1.95545;-2.05565;
-2.11103;0.0793565;-0.132146;-0.0720708;0.136737;1.2693;-1.28151;1.18609;-0.80303;1.80382;-1.98079;1.95435;-2.05694;
-2.11178;0.0798482;-0.133763;-0.0738978;0.14003;1.2728;-1.28524;1.19047;-0.801259;1.8021;-1.98082;1.95326;-2.05823;
-2.11325;0.0808387;-0.137022;-0.0775304;0.14661;1.27981;-1.29273;1.19929;-0.797817;1.79877;-1.98091;1.95111;-2.0608;
-2.11397;0.0813369;-0.138664;-0.0793366;0.149896;1.28332;-1.29648;1.20373;-0.796146;1.79716;-1.98096;1.95005;-2.06208;
-2.11468;0.081837;-0.140314;-0.0811362;0.153179;1.28684;-1.30024;1.20819;-0.794507;1.79558;-1.98102;1.949;-2.06336;
-2.11538;0.0823387;-0.141972;-0.0829295;0.156459;1.29037;-1.30401;1.21266;-0.792901;1.79404;-1.98109;1.94796;-2.06464;
-2.11608;0.0828417;-0.143638;-0.0847167;0.159735;1.2939;-1.30779;1.21715;-0.791327;1.79253;-1.98117;1.94692;-2.06592;
-2.11677;0.0833462;-0.145312;-0.0864977;0.163007;1.29744;-1.31158;1.22166;-0.789785;1.79106;-1.98126;1.94589;-2.0672;
-2.11745;0.0838519;-0.146994;-0.0882728;0.166274;1.30099;-1.31537;1.22619;-0.788274;1.78962;-1.98135;1.94487;-2.06848;
-2.11812;0.0843586;-0.148683;-0.0900421;0.169536;1.30455;-1.31917;1.23073;-0.786794;1.78822;-1.98145;1.94386;-2.06975;
-2.11878;0.0848661;-0.15038;-0.091806;0.172793;1.30811;-1.32298;1.23529;-0.785346;1.78685;-1.98156;1.94286;-2.07102;
-2.11944;0.0853743;-0.152084;-0.0935645;0.176044;1.31168;-1.3268;1.23986;-0.783928;1.78552;-1.98168;1.94187;-2.07229;
-2.12009;0.0858829;-0.153795;-0.0953179;0.179289;1.31526;-1.33063;1.24445;-0.782541;1.78422;-1.98181;1.94089;-2.07356;
-2.12073;0.0863918;-0.155513;-0.0970664;0.182528;1.31885;-1.33447;1.24906;-0.781185;1.78296;-1.98194;1.93992;-2.07483;
-2.12137;0.0869007;-0.157237;-0.0988101;0.185761;1.32245;-1.33833;1.25368;-0.779859;1.78173;-1.98208;1.93896;-2.0761;
-2.122;0.0874093;-0.158967;-0.100549;0.188987;1.32606;-1.3422;1.25832;-0.778563;1.78054;-1.98223;1.93801;-2.07737;
-2.12262;0.0879175;-0.160704;-0.102284;0.192205;1.32968;-1.34608;1.26297;-0.777297;1.77938;-1.98239;1.93707;-2.07864;
-2.12324;0.0884251;-0.162447;-0.104015;0.195416;1.33331;-1.34997;1.26764;-0.776061;1.77825;-1.98256;1.93613;-2.07991;
-2.12385;0.0889322;-0.164196;-0.105742;0.198619;1.33695;-1.35387;1.27232;-0.774854;1.77716;-1.98274;1.9352;-2.08118;
-2.12445;0.0894387;-0.165951;-0.107465;0.201814;1.34061;-1.35779;1.27701;-0.773677;1.7761;-1.98293;1.93428;-2.08245;
-2.12505;0.0899442;-0.167711;-0.109184;0.205;1.34428;-1.36172;1.28172;-0.772529;1.77508;-1.98312;1.93337;-2.08372;
-2.12564;0.0904485;-0.169477;-0.1109;0.208177;1.34796;-1.36566;1.28644;-0.77141;1.77409;-1.98332;1.93247;-2.08499;
-2.12622;0.0909515;-0.171248;-0.112612;0.211345;1.35165;-1.36962;1.29117;-0.77032;1.77313;-1.98353;1.93158;-2.08626;
-2.1268;0.091453;-0.173024;-0.114321;0.214504;1.35535;-1.37359;1.29592;-0.769259;1.77221;-1.98375;1.9307;-2.08753;
-2.12737;0.0919528;-0.174805;-0.116027;0.217653;1.35907;-1.37757;1.30068;-0.768227;1.77132;-1.98398;1.92983;-2.0888;
-2.12794;0.0924508;-0.17659;-0.117731;0.220792;1.3628;-1.38157;1.30545;-0.767224;1.77046;-1.98422;1.92897;-2.09007;
-2.1285;0.0929467;-0.17838;-0.119432;0.223921;1.36654;-1.38558;1.31024;-0.76625;1.76964;-1.98447;1.92811;-2.09134;
-2.12906;0.0934407;-0.180174;-0.12113;0.227039;1.3703;-1.38961;1.31504;-0.765304;1.76885;-1.98472;1.92726;-2.09261;
-2.12961;0.0939324;-0.181973;-0.122826;0.230146;1.37407;-1.39365;1.31985;-0.764386;1.76809;-1.98498;1.92642;-2.09388;
-2.13016;0.0944218;-0.183776;-0.12452;0.233242;1.37786;-1.39771;1.32467;-0.763497;1.76737;-1.98525;1.92559;-2.09515;
-2.1307;0.0949086;-0.185583;-0.126212;0.236327;1.38166;-1.40179;1.32951;-0.762636;1.76668;-1.98553;1.92477;-2.09642;
-2.1307;0.0949086;-0.185583;-0.126212;0.236327;1.38166;-1.40179;1.32951;-0.762636;1.76668;-1.98553;1.92477;-2.09642;
-2.13124;0.0953926;-0.187393;-0.127902;0.2394;1.38548;-1.40588;1.33436;-0.761803;1.76602;-1.98582;1.92396;-2.09769;
-2.13177;0.0958736;-0.189207;-0.129591;0.242461;1.38931;-1.40999;1.33922;-0.760998;1.7654;-1.98612;1.92316;-2.09897;
-2.1323;0.0963516;-0.191024;-0.131278;0.24551;1.39316;-1.41412;1.34409;-0.760221;1.76481;-1.98643;1.92237;-2.10025;
-2.13282;0.0968263;-0.192844;-0.132964;0.248547;1.39702;-1.41826;1.34897;-0.759473;1.76425;-1.98675;1.92159;-2.10153;
-2.13334;0.0972978;-0.194667;-0.134649;0.251571;1.4009;-1.42242;1.35386;-0.758752;1.76372;-1.98708;1.92082;-2.10281;
-2.13385;0.0977657;-0.196493;-0.136333;0.254582;1.40479;-1.4266;1.35877;-0.758059;1.76323;-1.98741;1.92005;-2.10409;
-2.13436;0.0982302;-0.198322;-0.138016;0.25758;1.4087;-1.4308;1.36369;-0.757394;1.76277;-1.98775;1.91929;-2.10538;
-2.13486;0.0986911;-0.200154;-0.139698;0.260564;1.41263;-1.43502;1.36862;-0.756757;1.76234;-1.9881;1.91854;-2.10667;
-2.13536;0.0991482;-0.201988;-0.141379;0.263534;1.41658;-1.43925;1.37356;-0.756148;1.76195;-1.98846;1.9178;-2.10796;
-2.13585;0.0996014;-0.203824;-0.14306;0.26649;1.42054;-1.4435;1.37851;-0.755567;1.76159;-1.98883;1.91707;-2.10925;
-2.13634;0.100051;-0.205663;-0.14474;0.269432;1.42452;-1.44777;1.38347;-0.755014;1.76126;-1.98921;1.91635;-2.11055;
-2.13683;0.100496;-0.207504;-0.14642;0.272359;1.42852;-1.45206;1.38844;-0.754488;1.76097;-1.9896;1.91564;-2.11185;
-2.13731;0.100937;-0.209346;-0.1481;0.275271;1.43254;-1.45637;1.39342;-0.75399;1.76071;-1.99;1.91494;-2.11315;
-2.13779;0.101373;-0.21119;-0.14978;0.278168;1.43657;-1.4607;1.39841;-0.75352;1.76048;-1.99041;1.91425;-2.11445;
-2.13826;0.101804;-0.213035;-0.15146;0.28105;1.44062;-1.46505;1.40341;-0.753078;1.76029;-1.99083;1.91357;-2.11576;
-2.13873;0.102231;-0.214882;-0.15314;0.283917;1.44469;-1.46942;1.40842;-0.752664;1.76013;-1.99126;1.9129;-2.11707;
-2.1392;0.102653;-0.21673;-0.154821;0.286768;1.44878;-1.47382;1.41344;-0.752278;1.76001;-1.9917;1.91223;-2.11839;
-2.13966;0.10307;-0.218579;-0.156502;0.289603;1.45289;-1.47824;1.41847;-0.751919;1.75992;-1.99215;1.91157;-2.11971;
-2.14012;0.103482;-0.220429;-0.158184;0.292421;1.45702;-1.48268;1.42351;-0.751588;1.75986;-1.9926;1.91092;-2.12103;
-2.14058;0.103889;-0.222279;-0.159867;0.295223;1.46117;-1.48714;1.42856;-0.751285;1.75984;-1.99306;1.91028;-2.12236;
-2.14103;0.104291;-0.22413;-0.161551;0.298008;1.46534;-1.49162;1.43362;-0.75101;1.75985;-1.99353;1.90965;-2.12369;
-2.14148;0.104687;-0.225981;-0.163236;0.300776;1.46953;-1.49613;1.43869;-0.750763;1.7599;-1.99401;1.90903;-2.12503;
-2.14193;0.105078;-0.227833;-0.164922;0.303527;1.47374;-1.50066;1.44377;-0.750544;1.75998;-1.9945;1.90842;-2.12637;
-2.14237;0.105463;-0.229685;-0.166609;0.306261;1.47797;-1.50521;1.44886;-0.750354;1.76009;-1.995;1.90782;-2.12772;
-2.14281;0.105843;-0.231537;-0.168297;0.308977;1.48222;-1.50979;1.45396;-0.750192;1.76024;-1.99551;1.90723;-2.12907;
-2.14325;0.106217;-0.233388;-0.169987;0.311675;1.48649;-1.51439;1.45907;-0.750058;1.76042;-1.99603;1.90665;-2.13043;
-2.14368;0.106585;-0.235239;-0.171679;0.314355;1.49078;-1.51901;1.46419;-0.749952;1.76064;-1.99656;1.90608;-2.13179;
-2.14411;0.106947;-0.237089;-0.173372;0.317017;1.4951;-1.52366;1.46932;-0.749875;1.76089;-1.9971;1.90552;-2.13316;
-2.14454;0.107302;-0.238938;-0.175067;0.31966;1.49944;-1.52833;1.47446;-0.749826;1.76118;-1.99765;1.90497;-2.13453;
-2.14496;0.107651;-0.240787;-0.176764;0.322285;1.5038;-1.53303;1.47961;-0.749806;1.7615;-1.99821;1.90443;-2.13591;
-2.14538;0.107994;-0.242634;-0.178463;0.324891;1.50818;-1.53775;1.48477;-0.749815;1.76186;-1.99878;1.9039;-2.1373;
-2.1458;0.10833;-0.24448;-0.180165;0.327477;1.51258;-1.5425;1.48993;-0.749852;1.76225;-1.99936;1.90338;-2.13869;
-2.14621;0.10866;-0.246325;-0.181869;0.330044;1.51701;-1.54727;1.4951;-0.749918;1.76268;-1.99995;1.90287;-2.14009;
-2.14662;0.108983;-0.248169;-0.183575;0.332591;1.52146;-1.55207;1.50028;-0.750013;1.76314;-2.00055;1.90237;-2.1415;
-2.14703;0.1093;-0.250011;-0.185284;0.335119;1.52593;-1.55689;1.50547;-0.750137;1.76364;-2.00116;1.90188;-2.14291;
-2.14744;0.10961;-0.251851;-0.186995;0.337627;1.53043;-1.56174;1.51067;-0.75029;1.76418;-2.00178;1.9014;-2.14433;
-2.14784;0.109913;-0.253689;-0.188709;0.340114;1.53495;-1.56662;1.51588;-0.750472;1.76475;-2.00241;1.90093;-2.14576;
-2.14824;0.110209;-0.255525;-0.190426;0.342581;1.53949;-1.57152;1.5211;-0.750684;1.76536;-2.00305;1.90047;-2.14719;
-2.14864;0.110498;-0.257359;-0.192145;0.345027;1.54406;-1.57645;1.52633;-0.750925;1.766;-2.0037;1.90002;-2.14863;
-2.14903;0.11078;-0.259191;-0.193867;0.347452;1.54865;-1.58141;1.53157;-0.751196;1.76668;-2.00436;1.89958;-2.15008;
-2.14942;0.111055;-0.26102;-0.195592;0.349856;1.55327;-1.5864;1.53682;-0.751496;1.7674;-2.00503;1.89916;-2.15154;
-2.14981;0.111322;-0.262846;-0.197321;0.352239;1.55791;-1.59142;1.54208;-0.751826;1.76815;-2.00571;1.89875;-2.15301;
-2.1502;0.111581;-0.264669;-0.199053;0.3546;1.56257;-1.59646;1.54734;-0.752186;1.76894;-2.0064;1.89835;-2.15449;
-2.15058;0.111833;-0.266489;-0.200788;0.35694;1.56726;-1.60153;1.55261;-0.752577;1.76977;-2.0071;1.89796;-2.15597;
-2.15096;0.112077;-0.268306;-0.202527;0.359258;1.57197;-1.60663;1.55789;-0.752998;1.77064;-2.00781;1.89758;-2.15746;
-2.15134;0.112314;-0.27012;-0.204269;0.361554;1.57671;-1.61176;1.56318;-0.753449;1.77154;-2.00853;1.89721;-2.15896;
-2.15172;0.112543;-0.27193;-0.206015;0.363827;1.58148;-1.61692;1.56848;-0.753931;1.77248;-2.00926;1.89685;-2.16047;
-2.15209;0.112764;-0.273737;-0.207765;0.366078;1.58627;-1.62211;1.57379;-0.754443;1.77346;-2.01;1.8965;-2.16199;
-2.15246;0.112977;-0.27554;-0.209518;0.368306;1.59109;-1.62733;1.57911;-0.754986;1.77448;-2.01075;1.89616;-2.16352;
-2.15283;0.113182;-0.277339;-0.211275;0.370511;1.59593;-1.63258;1.58444;-0.75556;1.77553;-2.01151;1.89584;-2.16506;
-2.1532;0.113379;-0.279134;-0.213036;0.372693;1.6008;-1.63786;1.58978;-0.756165;1.77662;-2.01228;1.89553;-2.16661;
-2.15356;0.113568;-0.280925;-0.214801;0.374852;1.6057;-1.64317;1.59513;-0.756801;1.77775;-2.01306;1.89523;-2.16817;
-2.15392;0.113749;-0.282711;-0.21657;0.376987;1.61062;-1.64851;1.60049;-0.757469;1.77892;-2.01385;1.89494;-2.16974;
-2.15428;0.113921;-0.284493;-0.218343;0.379098;1.61557;-1.65388;1.60585;-0.758168;1.78013;-2.01465;1.89466;-2.17132;
-2.15463;0.114085;-0.28627;-0.22012;0.381186;1.62055;-1.65929;1.61122;-0.758899;1.78138;-2.01546;1.8944;-2.17291;
-2.15498;0.11424;-0.288042;-0.221902;0.38325;1.62555;-1.66473;1.6166;-0.759662;1.78267;-2.01628;1.89415;-2.17452;
-2.15533;0.114387;-0.289809;-0.223688;0.385289;1.63058;-1.6702;1.62199;-0.760457;1.784;-2.01711;1.89391;-2.17614;
-2.15568;0.114525;-0.291571;-0.225479;0.387304;1.63564;-1.6757;1.62739;-0.761284;1.78537;-2.01795;1.89368;-2.17777;
-2.15603;0.114655;-0.293328;-0.227274;0.389294;1.64073;-1.68123;1.6328;-0.762143;1.78678;-2.0188;1.89346;-2.17941;
-2.15637;0.114776;-0.29508;-0.229073;0.391259;1.64584;-1.6868;1.63822;-0.763035;1.78823;-2.01966;1.89326;-2.18106;
-2.15671;0.114889;-0.296827;-0.230877;0.393199;1.65098;-1.6924;1.64365;-0.763959;1.78972;-2.02053;1.89307;-2.18273;
-2.15705;0.114993;-0.298568;-0.232686;0.395114;1.65615;-1.69803;1.64909;-0.764916;1.79125;-2.02141;1.89289;-2.18441;
-2.15739;0.115088;-0.300304;-0.234499;0.397004;1.66135;-1.7037;1.65454;-0.765906;1.79282;-2.0223;1.89273;-2.1861;
-2.15772;0.115174;-0.302033;-0.236317;0.398868;1.66658;-1.7094;1.66;-0.766929;1.79443;-2.0232;1.89258;-2.1878;
-2.15805;0.115251;-0.303756;-0.23814;0.400706;1.67184;-1.71514;1.66546;-0.767985;1.79608;-2.02412;1.89244;-2.18952;
-2.15838;0.115319;-0.305473;-0.239968;0.402519;1.67713;-1.72091;1.67093;-0.769075;1.79777;-2.02505;1.89232;-2.19125;
-2.15871;0.115378;-0.307184;-0.241801;0.404306;1.68244;-1.72671;1.67641;-0.770199;1.79951;-2.02599;1.89221;-2.19299;
-2.15903;0.115428;-0.308889;-0.243639;0.406066;1.68778;-1.73255;1.6819;-0.771356;1.80129;-2.02694;1.89211;-2.19475;
-2.15935;0.115469;-0.310587;-0.245481;0.4078;1.69315;-1.73843;1.6874;-0.772547;1.80311;-2.0279;1.89203;-2.19652;
-2.15967;0.115501;-0.312278;-0.247329;0.409507;1.69855;-1.74434;1.69291;-0.773773;1.80497;-2.02887;1.89196;-2.19831;
-2.15999;0.115524;-0.313963;-0.249182;0.411188;1.70398;-1.75029;1.69843;-0.775033;1.80688;-2.02985;1.8919;-2.20011;
-2.1603;0.115538;-0.315641;-0.25104;0.412842;1.70944;-1.75627;1.70396;-0.776327;1.80883;-2.03084;1.89186;-2.20193;
-2.16061;0.115543;-0.317312;-0.252903;0.414468;1.71493;-1.76229;1.7095;-0.777656;1.81082;-2.03184;1.89183;-2.20376;
-2.16092;0.115538;-0.318976;-0.254771;0.416067;1.72045;-1.76834;1.71505;-0.77902;1.81285;-2.03285;1.89182;-2.20561;
-2.16123;0.115524;-0.320633;-0.256644;0.417639;1.726;-1.77443;1.72061;-0.780419;1.81493;-2.03388;1.89182;-2.20747;
-2.16153;0.115501;-0.322282;-0.258522;0.419183;1.73158;-1.78056;1.72618;-0.781853;1.81705;-2.03492;1.89183;-2.20935;
-2.16183;0.115468;-0.323924;-0.260405;0.420699;1.7372;-1.78673;1.73176;-0.783322;1.81922;-2.03597;1.89186;-2.21124;
-2.16213;0.115426;-0.325558;-0.262294;0.422188;1.74285;-1.79293;1.73735;-0.784827;1.82143;-2.03703;1.8919;-2.21315;
-2.16243;0.115375;-0.327185;-0.264188;0.423648;1.74853;-1.79917;1.74295;-0.786367;1.82368;-2.0381;1.89196;-2.21508;
-2.16272;0.115314;-0.328804;-0.266087;0.42508;1.75424;-1.80545;1.74856;-0.787943;1.82598;-2.03918;1.89203;-2.21702;
-2.16301;0.115244;-0.330415;-0.267991;0.426484;1.75998;-1.81177;1.75418;-0.789555;1.82832;-2.04027;1.89212;-2.21898;
-2.1633;0.115164;-0.332018;-0.269901;0.42786;1.76575;-1.81813;1.75981;-0.791203;1.83071;-2.04137;1.89222;-2.22096;
-2.16359;0.115075;-0.333613;-0.271816;0.429207;1.77155;-1.82452;1.76545;-0.792888;1.83314;-2.04249;1.89234;-2.22295;
-2.16388;0.114976;-0.3352;-0.273736;0.430525;1.77738;-1.83095;1.7711;-0.794609;1.83562;-2.04362;1.89248;-2.22496;
-2.16416;0.114868;-0.336779;-0.275662;0.431814;1.78325;-1.83742;1.77676;-0.796367;1.83814;-2.04476;1.89263;-2.22699;
-2.16472;0.114623;-0.33991;-0.27953;0.434305;1.79508;-1.85048;1.78811;-0.799992;1.84333;-2.04707;1.89298;-2.23109;
-2.165;0.114486;-0.341463;-0.281472;0.435507;1.80104;-1.85707;1.7938;-0.80186;1.84599;-2.04824;1.89318;-2.23317;
-2.16527;0.11434;-0.343007;-0.28342;0.43668;1.80703;-1.8637;1.7995;-0.803765;1.8487;-2.04943;1.8934;-2.23527;
-2.16554;0.114184;-0.344542;-0.285373;0.437824;1.81305;-1.87037;1.80521;-0.805708;1.85146;-2.05063;1.89363;-2.23739;
-2.16581;0.114019;-0.346069;-0.287331;0.438938;1.81911;-1.87708;1.81093;-0.807688;1.85426;-2.05184;1.89388;-2.23953;
-2.16634;0.113659;-0.349095;-0.291264;0.441077;1.83132;-1.89062;1.8224;-0.811761;1.86001;-2.05429;1.89443;-2.24385;
-2.1666;0.113465;-0.350594;-0.293238;0.442102;1.83747;-1.89745;1.82815;-0.813854;1.86295;-2.05554;1.89473;-2.24604;
-2.16686;0.113262;-0.352084;-0.295218;0.443097;1.84366;-1.90432;1.83391;-0.815985;1.86594;-2.0568;1.89505;-2.24825;
-2.16712;0.113049;-0.353565;-0.297203;0.444062;1.84988;-1.91123;1.83968;-0.818154;1.86898;-2.05807;1.89538;-2.25048;
-2.16737;0.112827;-0.355037;-0.299193;0.444996;1.85613;-1.91818;1.84546;-0.820361;1.87207;-2.05935;1.89573;-2.25273;
-2.16762;0.112595;-0.3565;-0.301188;0.4459;1.86242;-1.92518;1.85125;-0.822606;1.8752;-2.06065;1.8961;-2.255;
-2.16787;0.112354;-0.357953;-0.303189;0.446774;1.86874;-1.93222;1.85705;-0.82489;1.87838;-2.06196;1.89649;-2.25729;
-2.16812;0.112103;-0.359396;-0.305195;0.447617;1.87509;-1.9393;1.86286;-0.827212;1.88161;-2.06328;1.89689;-2.2596;
-2.16837;0.111843;-0.36083;-0.307206;0.44843;1.88147;-1.94642;1.86868;-0.829573;1.88489;-2.06461;1.89731;-2.26193;
-2.16861;0.111574;-0.362254;-0.309222;0.449212;1.88789;-1.95358;1.87451;-0.831972;1.88822;-2.06595;1.89775;-2.26428;
-2.16885;0.111296;-0.363669;-0.311243;0.449964;1.89434;-1.96078;1.88035;-0.83441;1.89159;-2.06731;1.89821;-2.26665;
-2.16909;0.111008;-0.365074;-0.313269;0.450685;1.90082;-1.96803;1.8862;-0.836887;1.89501;-2.06868;1.89869;-2.26904;
-2.16933;0.110711;-0.366469;-0.3153;0.451375;1.90734;-1.97532;1.89206;-0.839403;1.89848;-2.07006;1.89918;-2.27145;
-2.16956;0.110405;-0.367854;-0.317336;0.452035;1.91389;-1.98265;1.89793;-0.841958;1.902;-2.07146;1.89969;-2.27388;
-2.16979;0.11009;-0.369229;-0.319377;0.452664;1.92047;-1.99002;1.90381;-0.844552;1.90557;-2.07287;1.90022;-2.27633;
-2.17002;0.109766;-0.370595;-0.321423;0.453262;1.92709;-1.99744;1.9097;-0.847185;1.90919;-2.07429;1.90077;-2.27881;
-2.17025;0.109433;-0.371951;-0.323474;0.453829;1.93374;-2.0049;1.9156;-0.849857;1.91286;-2.07572;1.90134;-2.28131;
-2.17048;0.109091;-0.373297;-0.325529;0.454365;1.94042;-2.0124;1.92151;-0.852568;1.91658;-2.07717;1.90193;-2.28383;
-2.1707;0.10874;-0.374633;-0.327589;0.45487;1.94714;-2.01994;1.92743;-0.855318;1.92034;-2.07863;1.90254;-2.28637;
-2.17092;0.10838;-0.375959;-0.329654;0.455344;1.95389;-2.02753;1.93336;-0.858108;1.92415;-2.0801;1.90317;-2.28893;
-2.17114;0.108011;-0.377275;-0.331723;0.455787;1.96067;-2.03516;1.9393;-0.860937;1.92801;-2.08159;1.90381;-2.29151;
-2.17136;0.107633;-0.378581;-0.333797;0.456199;1.96749;-2.04283;1.94525;-0.863805;1.93192;-2.08309;1.90447;-2.29411;
-2.17157;0.107247;-0.379877;-0.335875;0.45658;1.97434;-2.05055;1.95121;-0.866712;1.93588;-2.0846;1.90515;-2.29674;
-2.17178;0.106852;-0.381163;-0.337957;0.45693;1.98122;-2.05831;1.95718;-0.869659;1.93989;-2.08612;1.90585;-2.29939;
-2.17199;0.106449;-0.382439;-0.340043;0.457249;1.98814;-2.06611;1.96316;-0.872645;1.94395;-2.08766;1.90657;-2.30206;
-2.1722;0.106037;-0.383705;-0.342133;0.457537;1.99509;-2.07396;1.96915;-0.87567;1.94806;-2.08921;1.90731;-2.30475;
-2.17241;0.105617;-0.384961;-0.344228;0.457794;2.00207;-2.08185;1.97515;-0.878735;1.95222;-2.09077;1.90807;-2.30746;
-2.17261;0.105188;-0.386207;-0.346327;0.45802;2.00908;-2.08978;1.98116;-0.881839;1.95643;-2.09235;1.90885;-2.31019;
-2.17281;0.104751;-0.387443;-0.348429;0.458215;2.01613;-2.09776;1.98718;-0.884982;1.96069;-2.09394;1.90965;-2.31295;
-2.17301;0.104306;-0.38867;-0.350535;0.458379;2.02321;-2.10578;1.99321;-0.888165;1.965;-2.09554;1.91047;-2.31573;
-2.17321;0.103853;-0.389887;-0.352645;0.458512;2.03032;-2.11384;1.99925;-0.891387;1.96936;-2.09716;1.91131;-2.31853;
-2.17341;0.103392;-0.391094;-0.354758;0.458614;2.03747;-2.12195;2.0053;-0.894648;1.97377;-2.09879;1.91217;-2.32135;
-2.1736;0.102923;-0.392291;-0.356875;0.458685;2.04465;-2.1301;2.01136;-0.897948;1.97823;-2.10043;1.91306;-2.3242;
-2.17379;0.102446;-0.393478;-0.358996;0.458725;2.05186;-2.13829;2.01743;-0.901287;1.98274;-2.10209;1.91397;-2.32707;
-2.17398;0.101962;-0.394655;-0.36112;0.458735;2.0591;-2.14652;2.02351;-0.904665;1.9873;-2.10376;1.9149;-2.32996;
-2.17417;0.10147;-0.395822;-0.363247;0.458714;2.06638;-2.1548;2.0296;-0.908082;1.9919;-2.10545;1.91585;-2.33287;
-2.17436;0.10097;-0.396979;-0.365378;0.458662;2.07369;-2.16312;2.0357;-0.911538;1.99655;-2.10715;1.91682;-2.3358;
-2.17454;0.100463;-0.398126;-0.367512;0.45858;2.08103;-2.17148;2.04181;-0.915033;2.00125;-2.10886;1.91781;-2.33876;
-2.17472;0.0999484;-0.399264;-0.369649;0.458467;2.0884;-2.17989;2.04793;-0.918567;2.006;-2.11059;1.91882;-2.34174;
-2.1749;0.0994266;-0.400392;-0.371789;0.458324;2.09581;-2.18834;2.05406;-0.92214;2.0108;-2.11233;1.91985;-2.34474;
-2.17508;0.0988976;-0.40151;-0.373932;0.45815;2.10325;-2.19683;2.0602;-0.925751;2.01565;-2.11408;1.9209;-2.34776;
-2.17526;0.0983616;-0.402619;-0.376077;0.457946;2.11072;-2.20537;2.06635;-0.929401;2.02055;-2.11585;1.92197;-2.3508;
-2.17543;0.0978187;-0.403718;-0.378225;0.457712;2.11822;-2.21395;2.07251;-0.933089;2.0255;-2.11763;1.92306;-2.35387;
-2.1756;0.0972691;-0.404808;-0.380375;0.457448;2.12575;-2.22257;2.07868;-0.936815;2.0305;-2.11943;1.92418;-2.35696;
-2.17577;0.0967128;-0.405889;-0.382527;0.457154;2.13331;-2.23123;2.08486;-0.940579;2.03554;-2.12124;1.92532;-2.36007;
-2.17594;0.0961498;-0.40696;-0.384682;0.45683;2.14091;-2.23994;2.09105;-0.944381;2.04063;-2.12306;1.92648;-2.3632;
-2.17611;0.0955802;-0.408022;-0.386839;0.456476;2.14854;-2.24869;2.09725;-0.948221;2.04577;-2.1249;1.92766;-2.36635;
-2.17628;0.0950041;-0.409075;-0.388998;0.456092;2.1562;-2.25748;2.10346;-0.952099;2.05096;-2.12675;1.92886;-2.36953;
-2.17644;0.0944217;-0.410119;-0.391159;0.455679;2.16389;-2.26631;2.10968;-0.956014;2.0562;-2.12861;1.93008;-2.37273;
-2.1766;0.0938333;-0.411154;-0.393321;0.455236;2.17161;-2.27518;2.11591;-0.959967;2.06148;-2.13049;1.93132;-2.37595;
-2.17676;0.093239;-0.41218;-0.395485;0.454764;2.17936;-2.2841;2.12214;-0.963957;2.06681;-2.13238;1.93259;-2.37919;
-2.17692;0.0926385;-0.413197;-0.397651;0.454263;2.18714;-2.29306;2.12838;-0.967984;2.07219;-2.13429;1.93388;-2.38245;
-2.17708;0.0920321;-0.414205;-0.399818;0.453733;2.19495;-2.30206;2.13463;-0.972048;2.07762;-2.13621;1.93519;-2.38573;
-2.17724;0.0914199;-0.415204;-0.401987;0.453174;2.20279;-2.3111;2.14089;-0.976149;2.08309;-2.13814;1.93652;-2.38903;
-2.17739;0.090802;-0.416194;-0.404157;0.452587;2.21066;-2.32018;2.14716;-0.980286;2.08861;-2.14009;1.93787;-2.39235;
-2.17754;0.0901788;-0.417176;-0.406328;0.451971;2.21856;-2.3293;2.15344;-0.984459;2.09418;-2.14205;1.93924;-2.39569;
-2.17769;0.0895503;-0.41815;-0.4085;0.451326;2.22649;-2.33846;2.15973;-0.988668;2.09979;-2.14403;1.94064;-2.39906;
-2.17784;0.0889165;-0.419115;-0.410673;0.450653;2.23445;-2.34766;2.16603;-0.992913;2.10545;-2.14602;1.94206;-2.40245;
-2.17799;0.0882776;-0.420072;-0.412846;0.449952;2.24244;-2.3569;2.17233;-0.997194;2.11115;-2.14802;1.9435;-2.40586;
-2.17814;0.0876335;-0.421021;-0.41502;0.449223;2.25046;-2.36618;2.17864;-1.00151;2.1169;-2.15004;1.94496;-2.40929;
-2.17829;0.0869845;-0.421962;-0.417195;0.448466;2.25851;-2.3755;2.18496;-1.00586;2.1227;-2.15207;1.94644;-2.41274;
-2.17843;0.0863308;-0.422895;-0.41937;0.447682;2.26658;-2.38486;2.19129;-1.01025;2.12854;-2.15411;1.94794;-2.41621;
-2.17857;0.0856726;-0.42382;-0.421545;0.44687;2.27468;-2.39426;2.19763;-1.01467;2.13443;-2.15617;1.94946;-2.4197;
-2.17871;0.08501;-0.424737;-0.42372;0.446031;2.28281;-2.4037;2.20398;-1.01913;2.14036;-2.15824;1.95101;-2.42321;
-2.17885;0.0843429;-0.425647;-0.425895;0.445165;2.29097;-2.41318;2.21033;-1.02362;2.14633;-2.16033;1.95258;-2.42674;
-2.17899;0.0836714;-0.426549;-0.42807;0.444272;2.29916;-2.4227;2.21669;-1.02814;2.15235;-2.16243;1.95417;-2.43029;
-2.17913;0.0829956;-0.427443;-0.430245;0.443353;2.30737;-2.43226;2.22306;-1.0327;2.15841;-2.16454;1.95578;-2.43385;
-2.17927;0.0823156;-0.42833;-0.43242;0.442407;2.31561;-2.44185;2.22944;-1.03729;2.16452;-2.16667;1.95741;-2.43743;
-2.17941;0.0816317;-0.429209;-0.434595;0.441435;2.32388;-2.45148;2.23582;-1.04192;2.17067;-2.16881;1.95906;-2.44103;
-2.17954;0.080944;-0.430081;-0.436769;0.440437;2.33217;-2.46115;2.24221;-1.04658;2.17686;-2.17096;1.96073;-2.44465;
-2.17967;0.0802526;-0.430946;-0.438942;0.439413;2.34049;-2.47086;2.24861;-1.05127;2.18309;-2.17313;1.96242;-2.44829;
-2.1798;0.0795577;-0.431804;-0.441115;0.438363;2.34884;-2.4806;2.25502;-1.05599;2.18937;-2.17531;1.96414;-2.45195;
-2.17993;0.0788593;-0.432655;-0.443287;0.437288;2.35721;-2.49038;2.26143;-1.06075;2.19569;-2.1775;1.96588;-2.45562;
-2.18006;0.0781573;-0.433499;-0.445458;0.436188;2.36561;-2.5002;2.26785;-1.06554;2.20205;-2.17971;1.96764;-2.45931;
-2.18019;0.077452;-0.434337;-0.447628;0.435063;2.37403;-2.51005;2.27428;-1.07036;2.20845;-2.18193;1.96942;-2.46302;
-2.18032;0.0767434;-0.435168;-0.449797;0.433913;2.38248;-2.51994;2.28071;-1.07521;2.21489;-2.18416;1.97122;-2.46675;
-2.18045;0.0760317;-0.435992;-0.451965;0.432739;2.39095;-2.52986;2.28715;-1.08009;2.22137;-2.18641;1.97304;-2.47049;
-2.18057;0.075317;-0.43681;-0.454132;0.431541;2.39945;-2.53982;2.2936;-1.085;2.22789;-2.18867;1.97488;-2.47425;
-2.18069;0.0745995;-0.437622;-0.456297;0.430319;2.40797;-2.54981;2.30005;-1.08995;2.23445;-2.19094;1.97674;-2.47803;
-2.18093;0.0731566;-0.439228;-0.460622;0.427803;2.42508;-2.5699;2.31298;-1.09994;2.24769;-2.19553;1.98052;-2.48563;
-2.18105;0.0724315;-0.440022;-0.462782;0.42651;2.43367;-2.57999;2.31945;-1.10498;2.25437;-2.19784;1.98244;-2.48946;
-2.18117;0.0717041;-0.44081;-0.46494;0.425194;2.44228;-2.59012;2.32593;-1.11004;2.26109;-2.20017;1.98438;-2.4933;
-2.18129;0.0709744;-0.441592;-0.467096;0.423855;2.45092;-2.60028;2.33242;-1.11513;2.26785;-2.20251;1.98634;-2.49716;
-2.18141;0.0702426;-0.442369;-0.46925;0.422493;2.45958;-2.61047;2.33891;-1.12025;2.27464;-2.20486;1.98832;-2.50103;
-2.18153;0.0695087;-0.44314;-0.471402;0.421109;2.46826;-2.62069;2.34541;-1.1254;2.28147;-2.20723;1.99032;-2.50492;
-2.18177;0.0680352;-0.444667;-0.475699;0.418273;2.48569;-2.64124;2.35842;-1.13579;2.29524;-2.212;1.99438;-2.51274;
-2.18189;0.0672956;-0.445422;-0.477844;0.416823;2.49444;-2.65156;2.36493;-1.14103;2.30218;-2.2144;1.99644;-2.51667;
-2.182;0.0665542;-0.446172;-0.479987;0.415351;2.50321;-2.66191;2.37145;-1.14629;2.30916;-2.21682;1.99852;-2.52061;
-2.18211;0.0658112;-0.446917;-0.482127;0.413858;2.512;-2.67229;2.37797;-1.15158;2.31617;-2.21925;2.00062;-2.52457;
-2.18222;0.0650667;-0.447657;-0.484264;0.412344;2.52081;-2.6827;2.3845;-1.1569;2.32322;-2.22169;2.00273;-2.52854;
-2.18233;0.064321;-0.448393;-0.486399;0.410809;2.52964;-2.69314;2.39103;-1.16224;2.3303;-2.22414;2.00486;-2.53253;
-2.18244;0.0635741;-0.449124;-0.488531;0.409254;2.53849;-2.70361;2.39757;-1.16761;2.33742;-2.22661;2.00701;-2.53653;
-2.18255;0.0628262;-0.449851;-0.49066;0.407678;2.54736;-2.71411;2.40411;-1.173;2.34457;-2.22909;2.00918;-2.54054;
-2.18266;0.0620771;-0.450573;-0.492786;0.406082;2.55625;-2.72464;2.41066;-1.17842;2.35175;-2.23158;2.01137;-2.54456;
-2.18277;0.0613269;-0.451291;-0.494909;0.404467;2.56516;-2.73519;2.41721;-1.18387;2.35897;-2.23408;2.01358;-2.5486;
-2.18288;0.0605757;-0.452005;-0.497029;0.402832;2.57409;-2.74577;2.42377;-1.18934;2.36622;-2.23659;2.0158;-2.55265;
-2.18299;0.0598238;-0.452715;-0.499145;0.401178;2.58304;-2.75638;2.43033;-1.19483;2.3735;-2.23912;2.01804;-2.55671;
-2.1831;0.0590711;-0.453421;-0.501258;0.399505;2.592;-2.76702;2.43689;-1.20035;2.38081;-2.24166;2.0203;-2.56078;
-2.18321;0.0583176;-0.454123;-0.503368;0.397813;2.60098;-2.77768;2.44346;-1.20589;2.38815;-2.24421;2.02258;-2.56486;
-2.18332;0.0575634;-0.45482;-0.505475;0.396103;2.60998;-2.78837;2.45003;-1.21146;2.39553;-2.24677;2.02487;-2.56895;
-2.18343;0.0568088;-0.455514;-0.507578;0.394374;2.619;-2.79908;2.45661;-1.21705;2.40294;-2.24934;2.02718;-2.57305;
-2.18354;0.0560537;-0.456204;-0.509678;0.392627;2.62803;-2.80982;2.46319;-1.22266;2.41038;-2.25193;2.02951;-2.57716;
-2.18365;0.0552982;-0.45689;-0.511774;0.390862;2.63708;-2.82058;2.46977;-1.2283;2.41785;-2.25453;2.03185;-2.58128;
-2.18376;0.0545425;-0.457573;-0.513866;0.38908;2.64615;-2.83137;2.47636;-1.23396;2.42535;-2.25714;2.03421;-2.58541;
-2.18386;0.0537865;-0.458253;-0.515955;0.38728;2.65523;-2.84218;2.48295;-1.23964;2.43288;-2.25976;2.03659;-2.58955;
-2.18396;0.0530304;-0.458929;-0.51804;0.385463;2.66433;-2.85302;2.48954;-1.24534;2.44043;-2.26239;2.03898;-2.5937;
-2.18406;0.0522743;-0.459602;-0.520121;0.383629;2.67345;-2.86388;2.49613;-1.25106;2.44801;-2.26503;2.04139;-2.59786;
-2.18416;0.051518;-0.460272;-0.522198;0.381779;2.68258;-2.87476;2.50273;-1.2568;2.45562;-2.26768;2.04381;-2.60203;
-2.18426;0.0507619;-0.460939;-0.524271;0.379912;2.69173;-2.88567;2.50933;-1.26256;2.46326;-2.27034;2.04625;-2.60621;
-2.18436;0.0500059;-0.461603;-0.526341;0.378029;2.70089;-2.8966;2.51593;-1.26835;2.47093;-2.27301;2.04871;-2.6104;
-2.18446;0.0492499;-0.462264;-0.528407;0.37613;2.71007;-2.90755;2.52254;-1.27416;2.47862;-2.2757;2.05118;-2.61459;
-2.18456;0.0484942;-0.462922;-0.530469;0.374216;2.71926;-2.91852;2.52915;-1.27999;2.48634;-2.2784;2.05367;-2.61879;
-2.18466;0.0477388;-0.463577;-0.532527;0.372286;2.72846;-2.92951;2.53576;-1.28583;2.49408;-2.28111;2.05617;-2.623;
-2.18476;0.0469838;-0.46423;-0.53458;0.370341;2.73768;-2.94053;2.54237;-1.29169;2.50185;-2.28383;2.05868;-2.62722;
-2.18486;0.0462293;-0.46488;-0.536629;0.368381;2.74691;-2.95157;2.54899;-1.29757;2.50964;-2.28656;2.06121;-2.63144;
-2.18496;0.0454752;-0.465528;-0.538674;0.366406;2.75616;-2.96263;2.55561;-1.30347;2.51746;-2.2893;2.06375;-2.63567;
-2.18506;0.0447216;-0.466173;-0.540715;0.364417;2.76542;-2.97371;2.56223;-1.30939;2.5253;-2.29205;2.06631;-2.63991;
-2.18516;0.0439685;-0.466816;-0.542752;0.362413;2.77469;-2.9848;2.56885;-1.31533;2.53317;-2.29481;2.06888;-2.64415;
-2.18526;0.043216;-0.467456;-0.544785;0.360395;2.78397;-2.99591;2.57547;-1.32129;2.54106;-2.29758;2.07146;-2.6484;
-2.18536;0.0424644;-0.468094;-0.546813;0.358363;2.79327;-3.00704;2.58209;-1.32726;2.54898;-2.30036;2.07406;-2.65265;
-2.18546;0.0417134;-0.46873;-0.548837;0.356318;2.80258;-3.01819;2.58872;-1.33325;2.55692;-2.30315;2.07667;-2.65691;
-2.18556;0.0409632;-0.469364;-0.550856;0.354259;2.8119;-3.02936;2.59535;-1.33926;2.56488;-2.30595;2.07929;-2.66117;
-2.18566;0.0402138;-0.469996;-0.552871;0.352187;2.82123;-3.04055;2.60198;-1.34528;2.57286;-2.30876;2.08193;-2.66544;
-2.18576;0.0394651;-0.470626;-0.554882;0.350102;2.83057;-3.05175;2.60861;-1.35132;2.58086;-2.31158;2.08458;-2.66971;
-2.18586;0.0387172;-0.471254;-0.556888;0.348005;2.83992;-3.06297;2.61524;-1.35738;2.58889;-2.31441;2.08724;-2.67399;
-2.18596;0.0379703;-0.47188;-0.55889;0.345895;2.84928;-3.07421;2.62187;-1.36345;2.59694;-2.31725;2.08991;-2.67827;
-2.18606;0.0372245;-0.472504;-0.560887;0.343772;2.85865;-3.08546;2.6285;-1.36954;2.60501;-2.3201;2.0926;-2.68256;
-2.18616;0.0364796;-0.473127;-0.56288;0.341637;2.86803;-3.09673;2.63513;-1.37564;2.6131;-2.32295;2.0953;-2.68685;
-2.18626;0.0357356;-0.473748;-0.564869;0.339491;2.87742;-3.10801;2.64176;-1.38176;2.62121;-2.32581;2.09801;-2.69115;
-2.18636;0.0349927;-0.474367;-0.566853;0.337333;2.88682;-3.11931;2.64839;-1.38789;2.62934;-2.32868;2.10073;-2.69545;
-2.18646;0.0342509;-0.474984;-0.568833;0.335163;2.89623;-3.13062;2.65503;-1.39404;2.63749;-2.33156;2.10346;-2.69975;
-2.18656;0.0335103;-0.4756;-0.570808;0.332982;2.90565;-3.14195;2.66167;-1.4002;2.64566;-2.33445;2.1062;-2.70405;
-2.18666;0.0327709;-0.476215;-0.572778;0.33079;2.91508;-3.15329;2.66831;-1.40638;2.65384;-2.33735;2.10896;-2.70836;
-2.18676;0.0320326;-0.476828;-0.574744;0.328587;2.92452;-3.16464;2.67495;-1.41257;2.66204;-2.34026;2.11173;-2.71267;
-2.18685;0.0312954;-0.477439;-0.576705;0.326373;2.93397;-3.17601;2.68159;-1.41877;2.67026;-2.34318;2.11451;-2.71698;
-2.18694;0.0305594;-0.478049;-0.578662;0.324149;2.94343;-3.18739;2.68823;-1.42499;2.6785;-2.3461;2.1173;-2.72129;
-2.18703;0.0298246;-0.478658;-0.580614;0.321914;2.95289;-3.19878;2.69487;-1.43122;2.68676;-2.34903;2.1201;-2.72561;
-2.18712;0.0290912;-0.479265;-0.582562;0.319669;2.96236;-3.21019;2.70151;-1.43746;2.69503;-2.35197;2.12291;-2.72993;
-2.18721;0.0283591;-0.479871;-0.584505;0.317414;2.97184;-3.22161;2.70815;-1.44371;2.70332;-2.35492;2.12573;-2.73425;
-2.1873;0.0276283;-0.480476;-0.586444;0.315149;2.98133;-3.23304;2.71479;-1.44998;2.71162;-2.35788;2.12856;-2.73857;
-2.18739;0.0268989;-0.48108;-0.588378;0.312875;2.99083;-3.24448;2.72143;-1.45626;2.71994;-2.36084;2.1314;-2.74289;
-2.18748;0.0261708;-0.481683;-0.590307;0.310591;3.00033;-3.25593;2.72807;-1.46255;2.72828;-2.36381;2.13425;-2.74721;
-2.18757;0.025444;-0.482285;-0.592232;0.308298;3.00984;-3.26739;2.73471;-1.46885;2.73663;-2.36679;2.1371;-2.75153;
-2.18766;0.0247189;-0.482886;-0.594152;0.305996;3.01936;-3.27886;2.74134;-1.47516;2.745;-2.36978;2.13996;-2.75585;
-2.18775;0.0239954;-0.483486;-0.596067;0.303685;3.02888;-3.29034;2.74797;-1.48148;2.75338;-2.37277;2.14283;-2.76017;
-2.18784;0.0232733;-0.484085;-0.597978;0.301365;3.03841;-3.30183;2.7546;-1.48781;2.76177;-2.37577;2.14571;-2.76449;
-2.18793;0.0225527;-0.484683;-0.599884;0.299036;3.04794;-3.31333;2.76123;-1.49416;2.77018;-2.37878;2.1486;-2.76881;
-2.18802;0.0218336;-0.48528;-0.601786;0.296699;3.05748;-3.32484;2.76786;-1.50052;2.7786;-2.3818;2.1515;-2.77313;
-2.18811;0.021116;-0.485877;-0.603683;0.294353;3.06703;-3.33636;2.77449;-1.50689;2.78704;-2.38482;2.1544;-2.77745;
-2.1882;0.0204001;-0.486473;-0.605575;0.291999;3.07658;-3.34789;2.78112;-1.51327;2.79549;-2.38785;2.15731;-2.78177;
-2.18838;0.0189731;-0.487663;-0.609346;0.287267;3.0957;-3.37097;2.79438;-1.52604;2.81242;-2.39393;2.16316;-2.79041;
