4.99987;-8;11;-14;17.9999;-1;3.99998;-8.00008;11;-14;17;-1.00001;3.99999;
4.99974;-8;11;-14;17.9998;-1;3.99996;-8.00016;11;-14;17;-1.00002;3.99998;
4.99961;-8;11;-14;17.9997;-1;3.99994;-8.00024;11;-14;17;-1.00003;3.99997;
4.99948;-8;11;-14;17.9996;-1;3.99992;-8.00032;11;-14;17;-1.00004;3.99996;
4.99935;-8;11;-14;17.9995;-1;3.9999;-8.0004;11;-14;17;-1.00005;3.99995;
4.99922;-8;11;-14;17.9994;-1;3.99988;-8.00048;11;-14;17;-1.00006;3.99994;
4.99909;-8;11;-14;17.9993;-1;3.99986;-8.00056;11;-14;17;-1.00007;3.99993;
4.99896;-8;11;-14;17.9992;-1;3.99984;-8.00064;11;-14;17;-1.00008;3.99992;
4.99883;-8;11;-14;17.9991;-1;3.99982;-8.00072;11;-14;17;-1.00009;3.99991;
4.9987;-8;11;-14;17.999;-1;3.9998;-8.0008;11;-14;17;-1.0001;3.9999;
4.99857;-8;11;-14;17.9989;-1;3.99978;-8.00088;11;-14;17;-1.00011;3.99989;
4.99844;-8;11;-14;17.9988;-1;3.99976;-8.00096;11;-14;17;-1.00012;3.99988;
4.99831;-8;11;-14;17.9987;-1;3.99974;-8.00104;11;-14;17;-1.00013;3.99987;
4.99818;-8;11;-14;17.9986;-1;3.99972;-8.00112;11;-14;17;-1.00014;3.99986;
4.99805;-8;11;-14;17.9985;-1;3.9997;-8.0012;11;-14;17;-1.00015;3.99985;
4.99792;-8;11;-14;17.9984;-1;3.99968;-8.00128;11;-14;17;-1.00016;3.99984;
4.99779;-8;11;-14;17.9983;-1;3.99966;-8.00136;11;-14;17;-1.00017;3.99983;
4.99766;-8;11;-14;17.9982;-1;3.99964;-8.00144;11;-14;17;-1.00018;3.99982;
4.99753;-8;11;-14;17.9981;-1;3.99962;-8.00152;11;-14;17;-1.00019;3.99981;
4.9974;-8;11;-14;17.998;-1;3.9996;-8.0016;11;-14;17;-1.0002;3.9998;
4.99727;-8;11;-14;17.9979;-1;3.99958;-8.00168;11;-14;17;-1.00021;3.99979;
4.99714;-8;11;-14;17.9978;-1;3.99956;-8.00176;11;-14;17;-1.00022;3.99978;
4.99701;-8;11;-14;17.9977;-1;3.99954;-8.00184;11;-14;17;-1.00023;3.99977;
4.99688;-8;11;-14;17.9976;-1;3.99952;-8.00192;11;-14;17;-1.00024;3.99976;
4.99675;-8;11;-14;17.9975;-1;3.9995;-8.002;11;-14;17;-1.00025;3.99975;
4.99662;-8;11;-14;17.9974;-1;3.99948;-8.00208;11;-14;17;-1.00026;3.99974;
4.99649;-8;11;-14;17.9973;-1;3.99946;-8.00216;11;-14;17;-1.00027;3.99973;
4.99636;-8;11;-14;17.9972;-1;3.99944;-8.00224;11;-14;17;-1.00028;3.99972;
4.99623;-8;11;-14;17.9971;-1;3.99942;-8.00232;11;-14;17;-1.00029;3.99971;
4.9961;-8;11;-14;17.997;-1;3.9994;-8.0024;11;-14;17;-1.0003;3.9997;
4.99597;-8;11;-14;17.9969;-1;3.99938;-8.00248;11;-14;17;-1.00031;3.99969;
4.99584;-8;11;-14;17.9968;-1;3.99936;-8.00256;11;-14;17;-1.00032;3.99968;
4.99571;-8;11;-14;17.9967;-1;3.99934;-8.00264;11;-14;17;-1.00033;3.99967;
4.99558;-8;11;-14;17.9966;-1;3.99932;-8.00272;11;-14;17;-1.00034;3.99966;
4.99545;-8;11;-14;17.9965;-1;3.9993;-8.0028;11;-14;17;-1.00035;3.99965;
4.99532;-8;11;-14;17.9964;-1;3.99928;-8.00288;11;-14;17;-1.00036;3.99964;
4.99519;-8;11;-14;17.9963;-1;3.99926;-8.00296;11;-14;17;-1.00037;3.99963;
4.99506;-8;11;-14;17.9962;-1;3.99924;-8.00304;11;-14;17;-1.00038;3.99962;
4.99493;-8;11;-14;17.9961;-1;3.99922;-8.00312;11;-14;17;-1.00039;3.99961;
4.9948;-8;11;-14;17.996;-1;3.9992;-8.0032;11;-14;17;-1.0004;3.9996;
4.99467;-8;11;-14;17.9959;-1;3.99918;-8.00328;11;-14;17;-1.00041;3.99959;
4.99454;-8;11;-14;17.9958;-1;3.99916;-8.00336;11;-14;17;-1.00042;3.99958;
4.99441;-8;11;-14;17.9957;-1;3.99914;-8.00344;11;-14;17;-1.00043;3.99957;
4.99428;-8;11;-14;17.9956;-1;3.99912;-8.00352;11;-14;17;-1.00044;3.99956;
4.99415;-8;11;-14;17.9955;-1;3.9991;-8.0036;11;-14;17;-1.00045;3.99955;
4.99402;-8;11;-14;17.9954;-1;3.99908;-8.00368;11;-14;17;-1.00046;3.99954;
4.99389;-8;11;-14;17.9953;-1;3.99906;-8.00376;11;-14;17;-1.00047;3.99953;
4.99376;-8;11;-14;17.9952;-1;3.99904;-8.00384;11;-14;17;-1.00048;3.99952;
4.99363;-8;11;-14;17.9951;-1;3.99902;-8.00392;11;-14;17;-1.00049;3.99951;
4.9935;-8;11;-14;17.995;-1;3.999;-8.004;11;-14;17;-1.0005;3.9995;
4.99337;-8;11;-14;17.9949;-1;3.99898;-8.00408;11;-14;17;-1.00051;3.99949;
4.99324;-8;11;-14;17.9948;-1;3.99896;-8.00416;11;-14;17;-1.00052;3.99948;
4.99311;-8;11;-14;17.9947;-1;3.99894;-8.00424;11;-14;17;-1.00053;3.99947;
4.99298;-8;11;-14;17.9946;-1;3.99892;-8.00432;11;-14;17;-1.00054;3.99946;
4.99285;-8;11;-14;17.9945;-1;3.9989;-8.0044;11;-14;17;-1.00055;3.99945;
4.99272;-8;11;-14;17.9944;-1;3.99888;-8.00448;11;-14;17;-1.00056;3.99944;
4.99259;-8;11;-14;17.9943;-1;3.99886;-8.00456;11;-14;17;-1.00057;3.99943;
4.99246;-8;11;-14;17.9942;-1;3.99884;-8.00464;11;-14;17;-1.00058;3.99942;
4.99233;-8;11;-14;17.9941;-1;3.99882;-8.00472;11;-14;17;-1.00059;3.99941;
4.9922;-8;11;-14;17.994;-1;3.9988;-8.0048;11;-14;17;-1.0006;3.9994;
4.99207;-8;11;-14;17.9939;-1;3.99878;-8.00488;11;-14;17;-1.00061;3.99939;
4.99194;-8;11;-14;17.9938;-1;3.99876;-8.00496;11;-14;17;-1.00062;3.99938;
4.99181;-8;11;-14;17.9937;-1;3.99874;-8.00504;11;-14;17;-1.00063;3.99937;
4.99168;-8;11;-14;17.9936;-1;3.99872;-8.00512;11;-14;17;-1.00064;3.99936;
4.99155;-8;11;-14;17.9935;-1;3.9987;-8.0052;11;-14;17;-1.00065;3.99935;
4.99142;-8;11;-14;17.9934;-1;3.99868;-8.00528;11;-14;17;-1.00066;3.99934;
4.99129;-8;11;-14;17.9933;-1;3.99866;-8.00536;11;-14;17;-1.00067;3.99933;
4.99116;-8;11;-14;17.9932;-1;3.99864;-8.00544;11;-14;17;-1.00068;3.99932;
4.99103;-8;11;-14;17.9931;-1;3.99862;-8.00552;11;-14;17;-1.00069;3.99931;
4.9909;-8;11;-14;17.993;-1;3.9986;-8.0056;11;-14;17;-1.0007;3.9993;
4.99077;-8;11;-14;17.9929;-1;3.99858;-8.00568;11;-14;17;-1.00071;3.99929;
4.99064;-8;11;-14;17.9928;-1;3.99856;-8.00576;11;-14;17;-1.00072;3.99928;
4.99051;-8;11;-14;17.9927;-1;3.99854;-8.00584;11;-14;17;-1.00073;3.99927;
4.99038;-8;11;-14;17.9926;-1;3.99852;-8.00592;11;-14;17;-1.00074;3.99926;
4.99025;-8;11;-14;17.9925;-1;3.9985;-8.006;11;-14;17;-1.00075;3.99925;
4.99012;-8;11;-14;17.9924;-1;3.99848;-8.00608;11;-14;17;-1.00076;3.99924;
4.98999;-8;11;-14;17.9923;-1;3.99846;-8.00616;11;-14;17;-1.00077;3.99923;
4.98986;-8;11;-14;17.9922;-1;3.99844;-8.00624;11;-14;17;-1.00078;3.99922;
4.98973;-8;11;-14;17.9921;-1;3.99842;-8.00632;11;-14;17;-1.00079;3.99921;
4.9896;-8;11;-14;17.992;-1;3.9984;-8.0064;11;-14;17;-1.0008;3.9992;
4.98947;-8;11;-14;17.9919;-1;3.99838;-8.00648;11;-14;17;-1.00081;3.99919;
4.98934;-8;11;-14;17.9918;-1;3.99836;-8.00656;11;-14;17;-1.00082;3.99918;
4.98921;-8;11;-14;17.9917;-1;3.99834;-8.00664;11;-14;17;-1.00083;3.99917;
4.98908;-8;11;-14;17.9916;-1;3.99832;-8.00672;11;-14;17;-1.00084;3.99916;
4.98882;-8;11;-14;17.9914;-1;3.99828;-8.00688;11;-14;17;-1.00086;3.99914;
4.98869;-8;11;-14;17.9913;-1;3.99826;-8.00696;11;-14;17;-1.00087;3.99913;
4.98856;-8;11;-14;17.9912;-1;3.99824;-8.00704;11;-14;17;-1.00088;3.99912;
4.98843;-8;11;-14;17.9911;-1;3.99822;-8.00712;11;-14;17;-1.00089;3.99911;
4.9883;-8;11;-14;17.991;-1;3.9982;-8.0072;11;-14;17;-1.0009;3.9991;
4.98817;-8;11;-14;17.9909;-1;3.99818;-8.00728;11;-14;17;-1.00091;3.99909;
4.98804;-8;11;-14;17.9908;-1;3.99816;-8.00736;11;-14;17;-1.00092;3.99908;
4.98791;-8;11;-14;17.9907;-1;3.99814;-8.00744;11;-14;17;-1.00093;3.99907;
4.98778;-8;11;-14;17.9906;-1;3.99812;-8.00752;11;-14;17;-1.00094;3.99906;
4.98765;-8;11;-14;17.9905;-1;3.9981;-8.0076;11;-14;17;-1.00095;3.99905;
4.98752;-8;11;-14;17.9904;-1;3.99808;-8.00768;11;-14;17;-1.00096;3.99904;
4.98739;-8;11;-14;17.9903;-1;3.99806;-8.00776;11;-14;17;-1.00097;3.99903;
4.98713;-8;11;-14;17.9901;-1;3.99802;-8.00792;11;-14;17;-1.00099;3.99901;
4.987;-8;11;-14;17.99;-1;3.998;-8.008;11;-14;17;-1.001;3.999;
4.98687;-8;11;-14;17.9899;-1;3.99798;-8.00808;11;-14;17;-1.00101;3.99899;
4.98674;-8;11;-14;17.9898;-1;3.99796;-8.00816;11;-14;17;-1.00102;3.99898;
4.98661;-8;11;-14;17.9897;-1;3.99794;-8.00824;11;-14;17;-1.00103;3.99897;
4.98648;-8;11;-14;17.9896;-1;3.99792;-8.00832;11;-14;17;-1.00104;3.99896;
4.98635;-8;11;-14;17.9895;-1;3.9979;-8.0084;11;-14;17;-1.00105;3.99895;
4.98622;-8;11;-14;17.9894;-1;3.99788;-8.00848;11;-14;17;-1.00106;3.99894;
4.98609;-8;11;-14;17.9893;-1;3.99786;-8.00856;11;-14;17;-1.00107;3.99893;
4.98596;-8;11;-14;17.9892;-1;3.99784;-8.00864;11;-14;17;-1.00108;3.99892;
4.98583;-8;11;-14;17.9891;-1;3.99782;-8.00872;11;-14;17;-1.00109;3.99891;
4.9857;-8;11;-14;17.989;-1;3.9978;-8.0088;11;-14;17;-1.0011;3.9989;
4.98557;-8;11;-14;17.9889;-1;3.99778;-8.00888;11;-14;17;-1.00111;3.99889;
4.98544;-8;11;-14;17.9888;-1;3.99776;-8.00896;11;-14;17;-1.00112;3.99888;
4.98531;-8;11;-14;17.9887;-1;3.99774;-8.00904;11;-14;17;-1.00113;3.99887;
4.98518;-8;11;-14;17.9886;-1;3.99772;-8.00912;11;-14;17;-1.00114;3.99886;
4.98505;-8;11;-14;17.9885;-1;3.9977;-8.0092;11;-14;17;-1.00115;3.99885;
4.98492;-8;11;-14;17.9884;-1;3.99768;-8.00928;11;-14;17;-1.00116;3.99884;
4.98479;-8;11;-14;17.9883;-1;3.99766;-8.00936;11;-14;17;-1.00117;3.99883;
4.98466;-8;11;-14;17.9882;-1;3.99764;-8.00944;11;-14;17;-1.00118;3.99882;
4.98453;-8;11;-14;17.9881;-1;3.99762;-8.00952;11;-14;17;-1.00119;3.99881;
4.9844;-8;11;-14;17.988;-1;3.9976;-8.0096;11;-14;17;-1.0012;3.9988;
4.98427;-8;11;-14;17.9879;-1;3.99758;-8.00968;11;-14;17;-1.00121;3.99879;
4.98414;-8;11;-14;17.9878;-1;3.99756;-8.00976;11;-14;17;-1.00122;3.99878;
4.98401;-8;11;-14;17.9877;-1;3.99754;-8.00984;11;-14;17;-1.00123;3.99877;
4.98388;-8;11;-14;17.9876;-1;3.99752;-8.00992;11;-14;17;-1.00124;3.99876;
4.98375;-8;11;-14;17.9875;-1;3.9975;-8.01;11;-14;17;-1.00125;3.99875;
4.98362;-8;11;-14;17.9874;-1;3.99748;-8.01008;11;-14;17;-1.00126;3.99874;
4.98349;-8;11;-14;17.9873;-1;3.99746;-8.01016;11;-14;17;-1.00127;3.99873;
4.98336;-8;11;-14;17.9872;-1;3.99744;-8.01024;11;-14;17;-1.00128;3.99872;
4.98323;-8;11;-14;17.9871;-1;3.99742;-8.01032;11;-14;17;-1.00129;3.99871;
4.9831;-8;11;-14;17.987;-1;3.9974;-8.0104;11;-14;17;-1.0013;3.9987;
4.98297;-8;11;-14;17.9869;-1;3.99738;-8.01048;11;-14;17;-1.00131;3.99869;
4.98284;-8;11;-14;17.9868;-1;3.99736;-8.01056;11;-14;17;-1.00132;3.99868;
4.98271;-8;11;-14;17.9867;-1;3.99734;-8.01064;11;-14;17;-1.00133;3.99867;
4.98258;-8;11;-14;17.9866;-1;3.99732;-8.01072;11;-14;17;-1.00134;3.99866;
4.98245;-8;11;-14;17.9865;-1;3.9973;-8.0108;11;-14;17;-1.00135;3.99865;
4.98232;-8;11;-14;17.9864;-1;3.99728;-8.01088;11;-14;17;-1.00136;3.99864;
4.98219;-8;11;-14;17.9863;-1;3.99726;-8.01096;11;-14;17;-1.00137;3.99863;
4.98206;-8;11;-14;17.9862;-1;3.99724;-8.01104;11;-14;17;-1.00138;3.99862;
4.98193;-8;11;-14;17.9861;-1;3.99722;-8.01112;11;-14;17;-1.00139;3.99861;
4.9818;-8;11;-14;17.986;-1;3.9972;-8.0112;11;-14;17;-1.0014;3.9986;
4.98167;-8;11;-14;17.9859;-1;3.99718;-8.01128;11;-14;17;-1.00141;3.99859;
4.98154;-8;11;-14;17.9858;-1;3.99716;-8.01136;11;-14;17;-1.00142;3.99858;
4.98141;-8;11;-14;17.9857;-1;3.99714;-8.01144;11;-14;17;-1.00143;3.99857;
4.98128;-8;11;-14;17.9856;-1;3.99712;-8.01152;11;-14;17;-1.00144;3.99856;
4.98115;-8;11;-14;17.9855;-1;3.9971;-8.0116;11;-14;17;-1.00145;3.99855;
4.98102;-8;11;-14;17.9854;-1;3.99708;-8.01168;11;-14;17;-1.00146;3.99854;
4.98089;-8;11;-14;17.9853;-1;3.99706;-8.01176;11;-14;17;-1.00147;3.99853;
4.98076;-8;11;-14;17.9852;-1;3.99704;-8.01184;11;-14;17;-1.00148;3.99852;
4.98063;-8;11;-14;17.9851;-1;3.99702;-8.01192;11;-14;17;-1.00149;3.99851;
4.9805;-8;11;-14;17.985;-1;3.997;-8.012;11;-14;17;-1.0015;3.9985;
4.98037;-8;11;-14;17.9849;-1;3.99698;-8.01208;11;-14;17;-1.00151;3.99849;
4.98024;-8;11;-14;17.9848;-1;3.99696;-8.01216;11;-14;17;-1.00152;3.99848;
4.98011;-8;11;-14;17.9847;-1;3.99694;-8.01224;11;-14;17;-1.00153;3.99847;
4.97998;-8;11;-14;17.9846;-1;3.99692;-8.01232;11;-14;17;-1.00154;3.99846;
4.97985;-8;11;-14;17.9845;-1;3.9969;-8.0124;11;-14;17;-1.00155;3.99845;
4.97972;-8;11;-14;17.9844;-1;3.99688;-8.01248;11;-14;17;-1.00156;3.99844;
4.97959;-8;11;-14;17.9843;-1;3.99686;-8.01256;11;-14;17;-1.00157;3.99843;
4.97946;-8;11;-14;17.9842;-1;3.99684;-8.01264;11;-14;17;-1.00158;3.99842;
4.97933;-8;11;-14;17.9841;-1;3.99682;-8.01272;11;-14;17;-1.00159;3.99841;
4.9792;-8;11;-14;17.984;-1;3.9968;-8.0128;11;-14;17;-1.0016;3.9984;
4.97907;-8;11;-14;17.9839;-1;3.99678;-8.01288;11;-14;17;-1.00161;3.99839;
4.97894;-8;11;-14;17.9838;-1;3.99676;-8.01296;11;-14;17;-1.00162;3.99838;
4.97881;-8;11;-14;17.9837;-1;3.99674;-8.01304;11;-14;17;-1.00163;3.99837;
4.97868;-8;11;-14;17.9836;-1;3.99672;-8.01312;11;-14;17;-1.00164;3.99836;
4.97855;-8;11;-14;17.9835;-1;3.9967;-8.0132;11;-14;17;-1.00165;3.99835;
4.97842;-8;11;-14;17.9834;-1;3.99668;-8.01328;11;-14;17;-1.00166;3.99834;
4.97829;-8;11;-14;17.9833;-1;3.99666;-8.01336;11;-14;17;-1.00167;3.99833;
4.97816;-8;11;-14;17.9832;-1;3.99664;-8.01344;11;-14;17;-1.00168;3.99832;
4.97803;-8;11;-14;17.9831;-1;3.99662;-8.01352;11;-14;17;-1.00169;3.99831;
4.9779;-8;11;-14;17.983;-1;3.9966;-8.0136;11;-14;17;-1.0017;3.9983;
4.97777;-8;11;-14;17.9829;-1;3.99658;-8.01368;11;-14;17;-1.00171;3.99829;
4.97764;-8;11;-14;17.9828;-1;3.99656;-8.01376;11;-14;17;-1.00172;3.99828;
4.97751;-8;11;-14;17.9827;-1;3.99654;-8.01384;11;-14;17;-1.00173;3.99827;
4.97738;-8;11;-14;17.9826;-1;3.99652;-8.01392;11;-14;17;-1.00174;3.99826;
4.97725;-8;11;-14;17.9825;-1;3.9965;-8.014;11;-14;17;-1.00175;3.99825;
4.97712;-8;11;-14;17.9824;-1;3.99648;-8.01408;11;-14;17;-1.00176;3.99824;
4.97699;-8;11;-14;17.9823;-1;3.99646;-8.01416;11;-14;17;-1.00177;3.99823;
4.97686;-8;11;-14;17.9822;-1;3.99644;-8.01424;11;-14;17;-1.00178;3.99822;
4.97673;-8;11;-14;17.9821;-1;3.99642;-8.01432;11;-14;17;-1.00179;3.99821;
4.9766;-8;11;-14;17.982;-1;3.9964;-8.0144;11;-14;17;-1.0018;3.9982;
4.97647;-8;11;-14;17.9819;-1;3.99638;-8.01448;11;-14;17;-1.00181;3.99819;
4.97634;-8;11;-14;17.9818;-1;3.99636;-8.01456;11;-14;17;-1.00182;3.99818;
4.97621;-8;11;-14;17.9817;-1;3.99634;-8.01464;11;-14;17;-1.00183;3.99817;
4.97608;-8;11;-14;17.9816;-1;3.99632;-8.01472;11;-14;17;-1.00184;3.99816;
4.97595;-8;11;-14;17.9815;-1;3.9963;-8.0148;11;-14;17;-1.00185;3.99815;
4.97582;-8;11;-14;17.9814;-1;3.99628;-8.01488;11;-14;17;-1.00186;3.99814;
4.97569;-8;11;-14;17.9813;-1;3.99626;-8.01496;11;-14;17;-1.00187;3.99813;
4.97556;-8;11;-14;17.9812;-1;3.99624;-8.01504;11;-14;17;-1.00188;3.99812;
4.97543;-8;11;-14;17.9811;-1;3.99622;-8.01512;11;-14;17;-1.00189;3.99811;
4.9753;-8;11;-14;17.981;-1;3.9962;-8.0152;11;-14;17;-1.0019;3.9981;
4.97517;-8;11;-14;17.9809;-1;3.99618;-8.01528;11;-14;17;-1.00191;3.99809;
4.97504;-8;11;-14;17.9808;-1;3.99616;-8.01536;11;-14;17;-1.00192;3.99808;
4.97491;-8;11;-14;17.9807;-1;3.99614;-8.01544;11;-14;17;-1.00193;3.99807;
4.97478;-8;11;-14;17.9806;-1;3.99612;-8.01552;11;-14;17;-1.00194;3.99806;
4.97465;-8;11;-14;17.9805;-1;3.9961;-8.0156;11;-14;17;-1.00195;3.99805;
4.97452;-8;11;-14;17.9804;-1;3.99608;-8.01568;11;-14;17;-1.00196;3.99804;
4.97439;-8;11;-14;17.9803;-1;3.99606;-8.01576;11;-14;17;-1.00197;3.99803;
4.97426;-8;11;-14;17.9802;-1;3.99604;-8.01584;11;-14;17;-1.00198;3.99802;
4.97413;-8;11;-14;17.9801;-1;3.99602;-8.01592;11;-14;17;-1.00199;3.99801;
4.974;-8;11;-14;17.98;-1;3.996;-8.016;11;-14;17;-1.002;3.998;
4.97387;-8;11;-14;17.9799;-1;3.99598;-8.01608;11;-14;17;-1.00201;3.99799;
4.97374;-8;11;-14;17.9798;-1;3.99596;-8.01616;11;-14;17;-1.00202;3.99798;
4.97361;-8;11;-14;17.9797;-1;3.99594;-8.01624;11;-14;17;-1.00203;3.99797;
4.97348;-8;11;-14;17.9796;-1;3.99592;-8.01632;11;-14;17;-1.00204;3.99796;
4.97335;-8;11;-14;17.9795;-1;3.9959;-8.0164;11;-14;17;-1.00205;3.99795;
4.97322;-8;11;-14;17.9794;-1;3.99588;-8.01648;11;-14;17;-1.00206;3.99794;
4.97309;-8;11;-14;17.9793;-1;3.99586;-8.01656;11;-14;17;-1.00207;3.99793;
4.97296;-8;11;-14;17.9792;-1;3.99584;-8.01664;11;-14;17;-1.00208;3.99792;
4.97283;-8;11;-14;17.9791;-1;3.99582;-8.01672;11;-14;17;-1.00209;3.99791;
4.9727;-8;11;-14;17.979;-1;3.9958;-8.0168;11;-14;17;-1.0021;3.9979;
4.97257;-8;11;-14;17.9789;-1;3.99578;-8.01688;11;-14;17;-1.00211;3.99789;
4.97244;-8;11;-14;17.9788;-1;3.99576;-8.01696;11;-14;17;-1.00212;3.99788;
4.97231;-8;11;-14;17.9787;-1;3.99574;-8.01704;11;-14;17;-1.00213;3.99787;
4.97218;-8;11;-14;17.9786;-1;3.99572;-8.01712;11;-14;17;-1.00214;3.99786;
4.97205;-8;11;-14;17.9785;-1;3.9957;-8.0172;11;-14;17;-1.00215;3.99785;
4.97192;-8;11;-14;17.9784;-1;3.99568;-8.01728;11;-14;17;-1.00216;3.99784;
4.97179;-8;11;-14;17.9783;-1;3.99566;-8.01736;11;-14;17;-1.00217;3.99783;
4.97166;-8;11;-14;17.9782;-1;3.99564;-8.01744;11;-14;17;-1.00218;3.99782;
4.97153;-8;11;-14;17.9781;-1;3.99562;-8.01752;11;-14;17;-1.00219;3.99781;
4.9714;-8;11;-14;17.978;-1;3.9956;-8.0176;11;-14;17;-1.0022;3.9978;
4.97127;-8;11;-14;17.9779;-1;3.99558;-8.01768;11;-14;17;-1.00221;3.99779;
4.97114;-8;11;-14;17.9778;-1;3.99556;-8.01776;11;-14;17;-1.00222;3.99778;
4.97101;-8;11;-14;17.9777;-1;3.99554;-8.01784;11;-14;17;-1.00223;3.99777;
4.97088;-8;11;-14;17.9776;-1;3.99552;-8.01792;11;-14;17;-1.00224;3.99776;
4.97075;-8;11;-14;17.9775;-1;3.9955;-8.018;11;-14;17;-1.00225;3.99775;
4.97062;-8;11;-14;17.9774;-1;3.99548;-8.01808;11;-14;17;-1.00226;3.99774;
4.97049;-8;11;-14;17.9773;-1;3.99546;-8.01816;11;-14;17;-1.00227;3.99773;
4.97036;-8;11;-14;17.9772;-1;3.99544;-8.01824;11;-14;17;-1.00228;3.99772;
4.97023;-8;11;-14;17.9771;-1;3.99542;-8.01832;11;-14;17;-1.00229;3.99771;
4.9701;-8;11;-14;17.977;-1;3.9954;-8.0184;11;-14;17;-1.0023;3.9977;
4.96997;-8;11;-14;17.9769;-1;3.99538;-8.01848;11;-14;17;-1.00231;3.99769;
4.96984;-8;11;-14;17.9768;-1;3.99536;-8.01856;11;-14;17;-1.00232;3.99768;
4.96971;-8;11;-14;17.9767;-1;3.99534;-8.01864;11;-14;17;-1.00233;3.99767;
4.96958;-8;11;-14;17.9766;-1;3.99532;-8.01872;11;-14;17;-1.00234;3.99766;
4.96945;-8;11;-14;17.9765;-1;3.9953;-8.0188;11;-14;17;-1.00235;3.99765;
4.96932;-8;11;-14;17.9764;-1;3.99528;-8.01888;11;-14;17;-1.00236;3.99764;
4.96919;-8;11;-14;17.9763;-1;3.99526;-8.01896;11;-14;17;-1.00237;3.99763;
4.96906;-8;11;-14;17.9762;-1;3.99524;-8.01904;11;-14;17;-1.00238;3.99762;
4.96893;-8;11;-14;17.9761;-1;3.99522;-8.01912;11;-14;17;-1.00239;3.99761;
4.9688;-8;11;-14;17.976;-1;3.9952;-8.0192;11;-14;17;-1.0024;3.9976;
4.96867;-8;11;-14;17.9759;-1;3.99518;-8.01928;11;-14;17;-1.00241;3.99759;
4.96854;-8;11;-14;17.9758;-1;3.99516;-8.01936;11;-14;17;-1.00242;3.99758;
4.96841;-8;11;-14;17.9757;-1;3.99514;-8.01944;11;-14;17;-1.00243;3.99757;
4.96828;-8;11;-14;17.9756;-1;3.99512;-8.01952;11;-14;17;-1.00244;3.99756;
4.96815;-8;11;-14;17.9755;-1;3.9951;-8.0196;11;-14;17;-1.00245;3.99755;
4.96802;-8;11;-14;17.9754;-1;3.99508;-8.01968;11;-14;17;-1.00246;3.99754;
4.96789;-8;11;-14;17.9753;-1;3.99506;-8.01976;11;-14;17;-1.00247;3.99753;
4.96776;-8;11;-14;17.9752;-1;3.99504;-8.01984;11;-14;17;-1.00248;3.99752;
4.96763;-8;11;-14;17.9751;-1;3.99502;-8.01992;11;-14;17;-1.00249;3.99751;
4.9675;-8;11;-14;17.975;-1;3.995;-8.02;11;-14;17;-1.0025;3.9975;
4.96737;-8;11;-14;17.9749;-1;3.99498;-8.02008;11;-14;17;-1.00251;3.99749;
4.96724;-8;11;-14;17.9748;-1;3.99496;-8.02016;11;-14;17;-1.00252;3.99748;
4.96711;-8;11;-14;17.9747;-1;3.99494;-8.02024;11;-14;17;-1.00253;3.99747;
4.96698;-8;11;-14;17.9746;-1;3.99492;-8.02032;11;-14;17;-1.00254;3.99746;
4.96685;-8;11;-14;17.9745;-1;3.9949;-8.0204;11;-14;17;-1.00255;3.99745;
4.96672;-8;11;-14;17.9744;-1;3.99488;-8.02048;11;-14;17;-1.00256;3.99744;
4.96659;-8;11;-14;17.9743;-1;3.99486;-8.02056;11;-14;17;-1.00257;3.99743;
4.96646;-8;11;-14;17.9742;-1;3.99484;-8.02064;11;-14;17;-1.00258;3.99742;
4.96633;-8;11;-14;17.9741;-1;3.99482;-8.02072;11;-14;17;-1.00259;3.99741;
4.9662;-8;11;-14;17.974;-1;3.9948;-8.0208;11;-14;17;-1.0026;3.9974;
4.96607;-8;11;-14;17.9739;-1;3.99478;-8.02088;11;-14;17;-1.00261;3.99739;
4.96594;-8;11;-14;17.9738;-1;3.99476;-8.02096;11;-14;17;-1.00262;3.99738;
4.96581;-8;11;-14;17.9737;-1;3.99474;-8.02104;11;-14;17;-1.00263;3.99737;
4.96568;-8;11;-14;17.9736;-1;3.99472;-8.02112;11;-14;17;-1.00264;3.99736;
4.96555;-8;11;-14;17.9735;-1;3.9947;-8.0212;11;-14;17;-1.00265;3.99735;
4.96542;-8;11;-14;17.9734;-1;3.99468;-8.02128;11;-14;17;-1.00266;3.99734;
4.96529;-8;11;-14;17.9733;-1;3.99466;-8.02136;11;-14;17;-1.00267;3.99733;
4.96516;-8;11;-14;17.9732;-1;3.99464;-8.02144;11;-14;17;-1.00268;3.99732;
4.96503;-8;11;-14;17.9731;-1;3.99462;-8.02152;11;-14;17;-1.00269;3.99731;
4.9649;-8;11;-14;17.973;-1;3.9946;-8.0216;11;-14;17;-1.0027;3.9973;
4.96477;-8;11;-14;17.9729;-1;3.99458;-8.02168;11;-14;17;-1.00271;3.99729;
4.96464;-8;11;-14;17.9728;-1;3.99456;-8.02176;11;-14;17;-1.00272;3.99728;
4.96451;-8;11;-14;17.9727;-1;3.99454;-8.02184;11;-14;17;-1.00273;3.99727;
4.96438;-8;11;-14;17.9726;-1;3.99452;-8.02192;11;-14;17;-1.00274;3.99726;
4.96425;-8;11;-14;17.9725;-1;3.9945;-8.022;11;-14;17;-1.00275;3.99725;
4.96412;-8;11;-14;17.9724;-1;3.99448;-8.02208;11;-14;17;-1.00276;3.99724;
4.96399;-8;11;-14;17.9723;-1;3.99446;-8.02216;11;-14;17;-1.00277;3.99723;
4.96386;-8;11;-14;17.9722;-1;3.99444;-8.02224;11;-14;17;-1.00278;3.99722;
4.96373;-8;11;-14;17.9721;-1;3.99442;-8.02232;11;-14;17;-1.00279;3.99721;
4.9636;-8;11;-14;17.972;-1;3.9944;-8.0224;11;-14;17;-1.0028;3.9972;
4.96347;-8;11;-14;17.9719;-1;3.99438;-8.02248;11;-14;17;-1.00281;3.99719;
4.96334;-8;11;-14;17.9718;-1;3.99436;-8.02256;11;-14;17;-1.00282;3.99718;
4.96321;-8;11;-14;17.9717;-1;3.99434;-8.02264;11;-14;17;-1.00283;3.99717;
4.96308;-8;11;-14;17.9716;-1;3.99432;-8.02272;11;-14;17;-1.00284;3.99716;
4.96295;-8;11;-14;17.9715;-1;3.9943;-8.0228;11;-14;17;-1.00285;3.99715;
4.96282;-8;11;-14;17.9714;-1;3.99428;-8.02288;11;-14;17;-1.00286;3.99714;
4.96269;-8;11;-14;17.9713;-1;3.99426;-8.02296;11;-14;17;-1.00287;3.99713;
4.96256;-8;11;-14;17.9712;-1;3.99424;-8.02304;11;-14;17;-1.00288;3.99712;
4.96243;-8;11;-14;17.9711;-1;3.99422;-8.02312;11;-14;17;-1.00289;3.99711;
4.9623;-8;11;-14;17.971;-1;3.9942;-8.0232;11;-14;17;-1.0029;3.9971;
4.96217;-8;11;-14;17.9709;-1;3.99418;-8.02328;11;-14;17;-1.00291;3.99709;
4.96204;-8;11;-14;17.9708;-1;3.99416;-8.02336;11;-14;17;-1.00292;3.99708;
4.96191;-8;11;-14;17.9707;-1;3.99414;-8.02344;11;-14;17;-1.00293;3.99707;
4.96178;-8;11;-14;17.9706;-1;3.99412;-8.02352;11;-14;17;-1.00294;3.99706;
4.96165;-8;11;-14;17.9705;-1;3.9941;-8.0236;11;-14;17;-1.00295;3.99705;
4.96152;-8;11;-14;17.9704;-1;3.99408;-8.02368;11;-14;17;-1.00296;3.99704;
4.96139;-8;11;-14;17.9703;-1;3.99406;-8.02376;11;-14;17;-1.00297;3.99703;
4.96126;-8;11;-14;17.9702;-1;3.99404;-8.02384;11;-14;17;-1.00298;3.99702;
4.96113;-8;11;-14;17.9701;-1;3.99402;-8.02392;11;-14;17;-1.00299;3.99701;
4.961;-8;11;-14;17.97;-1;3.994;-8.024;11;-14;17;-1.003;3.997;
4.96087;-8;11;-14;17.9699;-1;3.99398;-8.02408;11;-14;17;-1.00301;3.99699;
4.96074;-8;11;-14;17.9698;-1;3.99396;-8.02416;11;-14;17;-1.00302;3.99698;
4.96061;-8;11;-14;17.9697;-1;3.99394;-8.02424;11;-14;17;-1.00303;3.99697;
4.96048;-8;11;-14;17.9696;-1;3.99392;-8.02432;11;-14;17;-1.00304;3.99696;
4.96035;-8;11;-14;17.9695;-1;3.9939;-8.0244;11;-14;17;-1.00305;3.99695;
4.96022;-8;11;-14;17.9694;-1;3.99388;-8.02448;11;-14;17;-1.00306;3.99694;
4.96009;-8;11;-14;17.9693;-1;3.99386;-8.02456;11;-14;17;-1.00307;3.99693;
4.95996;-8;11;-14;17.9692;-1;3.99384;-8.02464;11;-14;17;-1.00308;3.99692;
4.95983;-8;11;-14;17.9691;-1;3.99382;-8.02472;11;-14;17;-1.00309;3.99691;
4.9597;-8;11;-14;17.969;-1;3.9938;-8.0248;11;-14;17;-1.0031;3.9969;
4.95957;-8;11;-14;17.9689;-1;3.99378;-8.02488;11;-14;17;-1.00311;3.99689;
4.95944;-8;11;-14;17.9688;-1;3.99376;-8.02496;11;-14;17;-1.00312;3.99688;
4.95931;-8;11;-14;17.9687;-1;3.99374;-8.02504;11;-14;17;-1.00313;3.99687;
4.95918;-8;11;-14;17.9686;-1;3.99372;-8.02512;11;-14;17;-1.00314;3.99686;
4.95905;-8;11;-14;17.9685;-1;3.9937;-8.0252;11;-14;17;-1.00315;3.99685;
4.95892;-8;11;-14;17.9684;-1;3.99368;-8.02528;11;-14;17;-1.00316;3.99684;
4.95879;-8;11;-14;17.9683;-1;3.99366;-8.02536;11;-14;17;-1.00317;3.99683;
4.95866;-8;11;-14;17.9682;-1;3.99364;-8.02544;11;-14;17;-1.00318;3.99682;
4.95853;-8;11;-14;17.9681;-1;3.99362;-8.02552;11;-14;17;-1.00319;3.99681;
4.9584;-8;11;-14;17.968;-1;3.9936;-8.0256;11;-14;17;-1.0032;3.9968;
4.95827;-8;11;-14;17.9679;-1;3.99358;-8.02568;11;-14;17;-1.00321;3.99679;
4.95814;-8;11;-14;17.9678;-1;3.99356;-8.02576;11;-14;17;-1.00322;3.99678;
4.95801;-8;11;-14;17.9677;-1;3.99354;-8.02584;11;-14;17;-1.00323;3.99677;
4.95788;-8;11;-14;17.9676;-1;3.99352;-8.02592;11;-14;17;-1.00324;3.99676;
4.95775;-8;11;-14;17.9675;-1;3.9935;-8.026;11;-14;17;-1.00325;3.99675;
4.95762;-8;11;-14;17.9674;-1;3.99348;-8.02608;11;-14;17;-1.00326;3.99674;
4.95749;-8;11;-14;17.9673;-1;3.99346;-8.02616;11;-14;17;-1.00327;3.99673;
4.95736;-8;11;-14;17.9672;-1;3.99344;-8.02624;11;-14;17;-1.00328;3.99672;
4.95723;-8;11;-14;17.9671;-1;3.99342;-8.02632;11;-14;17;-1.00329;3.99671;
4.9571;-8;11;-14;17.967;-1;3.9934;-8.0264;11;-14;17;-1.0033;3.9967;
4.95697;-8;11;-14;17.9669;-1;3.99338;-8.02648;11;-14;17;-1.00331;3.99669;
4.95684;-8;11;-14;17.9668;-1;3.99336;-8.02656;11;-14;17;-1.00332;3.99668;
4.95671;-8;11;-14;17.9667;-1;3.99334;-8.02664;11;-14;17;-1.00333;3.99667;
4.95658;-8;11;-14;17.9666;-1;3.99332;-8.02672;11;-14;17;-1.00334;3.99666;
4.95645;-8;11;-14;17.9665;-1;3.9933;-8.0268;11;-14;17;-1.00335;3.99665;
4.95632;-8;11;-14;17.9664;-1;3.99328;-8.02688;11;-14;17;-1.00336;3.99664;
4.95619;-8;11;-14;17.9663;-1;3.99326;-8.02696;11;-14;17;-1.00337;3.99663;
4.95606;-8;11;-14;17.9662;-1;3.99324;-8.02704;11;-14;17;-1.00338;3.99662;
4.95593;-8;11;-14;17.9661;-1;3.99322;-8.02712;11;-14;17;-1.00339;3.99661;
4.9558;-8;11;-14;17.966;-1;3.9932;-8.0272;11;-14;17;-1.0034;3.9966;
4.95567;-8;11;-14;17.9659;-1;3.99318;-8.02728;11;-14;17;-1.00341;3.99659;
4.95554;-8;11;-14;17.9658;-1;3.99316;-8.02736;11;-14;17;-1.00342;3.99658;
4.95541;-8;11;-14;17.9657;-1;3.99314;-8.02744;11;-14;17;-1.00343;3.99657;
4.95528;-8;11;-14;17.9656;-1;3.99312;-8.02752;11;-14;17;-1.00344;3.99656;
4.95515;-8;11;-14;17.9655;-1;3.9931;-8.0276;11;-14;17;-1.00345;3.99655;
4.95502;-8;11;-14;17.9654;-1;3.99308;-8.02768;11;-14;17;-1.00346;3.99654;
4.95489;-8;11;-14;17.9653;-1;3.99306;-8.02776;11;-14;17;-1.00347;3.99653;
4.95476;-8;11;-14;17.9652;-1;3.99304;-8.02784;11;-14;17;-1.00348;3.99652;
4.95463;-8;11;-14;17.9651;-1;3.99302;-8.02792;11;-14;17;-1.00349;3.99651;
4.9545;-8;11;-14;17.965;-1;3.993;-8.028;11;-14;17;-1.0035;3.9965;
4.95437;-8;11;-14;17.9649;-1;3.99298;-8.02808;11;-14;17;-1.00351;3.99649;
4.95424;-8;11;-14;17.9648;-1;3.99296;-8.02816;11;-14;17;-1.00352;3.99648;
4.95411;-8;11;-14;17.9647;-1;3.99294;-8.02824;11;-14;17;-1.00353;3.99647;
4.95398;-8;11;-14;17.9646;-1;3.99292;-8.02832;11;-14;17;-1.00354;3.99646;
4.95385;-8;11;-14;17.9645;-1;3.9929;-8.0284;11;-14;17;-1.00355;3.99645;
4.95372;-8;11;-14;17.9644;-1;3.99288;-8.02848;11;-14;17;-1.00356;3.99644;
4.95359;-8;11;-14;17.9643;-1;3.99286;-8.02856;11;-14;17;-1.00357;3.99643;
4.95346;-8;11;-14;17.9642;-1;3.99284;-8.02864;11;-14;17;-1.00358;3.99642;
4.95333;-8;11;-14;17.9641;-1;3.99282;-8.02872;11;-14;17;-1.00359;3.99641;
4.9532;-8;11;-14;17.964;-1;3.9928;-8.0288;11;-14;17;-1.0036;3.9964;
4.95307;-8;11;-14;17.9639;-1;3.99278;-8.02888;11;-14;17;-1.00361;3.99639;
4.95294;-8;11;-14;17.9638;-1;3.99276;-8.02896;11;-14;17;-1.00362;3.99638;
4.95281;-8;11;-14;17.9637;-1;3.99274;-8.02904;11;-14;17;-1.00363;3.99637;
4.95268;-8;11;-14;17.9636;-1;3.99272;-8.02912;11;-14;17;-1.00364;3.99636;
4.95255;-8;11;-14;17.9635;-1;3.9927;-8.0292;11;-14;17;-1.00365;3.99635;
4.95242;-8;11;-14;17.9634;-1;3.99268;-8.02928;11;-14;17;-1.00366;3.99634;
4.95229;-8;11;-14;17.9633;-1;3.99266;-8.02936;11;-14;17;-1.00367;3.99633;
4.95216;-8;11;-14;17.9632;-1;3.99264;-8.02944;11;-14;17;-1.00368;3.99632;
4.95203;-8;11;-14;17.9631;-1;3.99262;-8.02952;11;-14;17;-1.00369;3.99631;
4.9519;-8;11;-14;17.963;-1;3.9926;-8.0296;11;-14;17;-1.0037;3.9963;
4.95177;-8;11;-14;17.9629;-1;3.99258;-8.02968;11;-14;17;-1.00371;3.99629;
4.95164;-8;11;-14;17.9628;-1;3.99256;-8.02976;11;-14;17;-1.00372;3.99628;
4.95151;-8;11;-14;17.9627;-1;3.99254;-8.02984;11;-14;17;-1.00373;3.99627;
4.95138;-8;11;-14;17.9626;-1;3.99252;-8.02992;11;-14;17;-1.00374;3.99626;
4.95125;-8;11;-14;17.9625;-1;3.9925;-8.03;11;-14;17;-1.00375;3.99625;
4.95112;-8;11;-14;17.9624;-1;3.99248;-8.03008;11;-14;17;-1.00376;3.99624;
4.95099;-8;11;-14;17.9623;-1;3.99246;-8.03016;11;-14;17;-1.00377;3.99623;
4.95086;-8;11;-14;17.9622;-1;3.99244;-8.03024;11;-14;17;-1.00378;3.99622;
4.95073;-8;11;-14;17.9621;-1;3.99242;-8.03032;11;-14;17;-1.00379;3.99621;
4.9506;-8;11;-14;17.962;-1;3.9924;-8.0304;11;-14;17;-1.0038;3.9962;
4.95047;-8;11;-14;17.9619;-1;3.99238;-8.03048;11;-14;17;-1.00381;3.99619;
4.95034;-8;11;-14;17.9618;-1;3.99236;-8.03056;11;-14;17;-1.00382;3.99618;
4.95021;-8;11;-14;17.9617;-1;3.99234;-8.03064;11;-14;17;-1.00383;3.99617;
4.95008;-8;11;-14;17.9616;-1;3.99232;-8.03072;11;-14;17;-1.00384;3.99616;
4.94995;-8;11;-14;17.9615;-1;3.9923;-8.0308;11;-14;17;-1.00385;3.99615;
4.94982;-8;11;-14;17.9614;-1;3.99228;-8.03088;11;-14;17;-1.00386;3.99614;
4.94969;-8;11;-14;17.9613;-1;3.99226;-8.03096;11;-14;17;-1.00387;3.99613;
4.94956;-8;11;-14;17.9612;-1;3.99224;-8.03104;11;-14;17;-1.00388;3.99612;
4.94943;-8;11;-14;17.9611;-1;3.99222;-8.03112;11;-14;17;-1.00389;3.99611;
4.9493;-8;11;-14;17.961;-1;3.9922;-8.0312;11;-14;17;-1.0039;3.9961;
4.94917;-8;11;-14;17.9609;-1;3.99218;-8.03128;11;-14;17;-1.00391;3.99609;
4.94904;-8;11;-14;17.9608;-1;3.99216;-8.03136;11;-14;17;-1.00392;3.99608;
4.94891;-8;11;-14;17.9607;-1;3.99214;-8.03144;11;-14;17;-1.00393;3.99607;
4.94878;-8;11;-14;17.9606;-1;3.99212;-8.03152;11;-14;17;-1.00394;3.99606;
4.94865;-8;11;-14;17.9605;-1;3.9921;-8.0316;11;-14;17;-1.00395;3.99605;
4.94852;-8;11;-14;17.9604;-1;3.99208;-8.03168;11;-14;17;-1.00396;3.99604;
4.94839;-8;11;-14;17.9603;-1;3.99206;-8.03176;11;-14;17;-1.00397;3.99603;
4.94826;-8;11;-14;17.9602;-1;3.99204;-8.03184;11;-14;17;-1.00398;3.99602;
4.94813;-8;11;-14;17.9601;-1;3.99202;-8.03192;11;-14;17;-1.00399;3.99601;
4.948;-8;11;-14;17.96;-1;3.992;-8.032;11;-14;17;-1.004;3.996;
4.94787;-8;11;-14;17.9599;-1;3.99198;-8.03208;11;-14;17;-1.00401;3.99599;
4.94774;-8;11;-14;17.9598;-1;3.99196;-8.03216;11;-14;17;-1.00402;3.99598;
4.94761;-8;11;-14;17.9597;-1;3.99194;-8.03224;11;-14;17;-1.00403;3.99597;
4.94748;-8;11;-14;17.9596;-1;3.99192;-8.03232;11;-14;17;-1.00404;3.99596;
4.94735;-8;11;-14;17.9595;-1;3.9919;-8.0324;11;-14;17;-1.00405;3.99595;
4.94722;-8;11;-14;17.9594;-1;3.99188;-8.03248;11;-14;17;-1.00406;3.99594;
4.94709;-8;11;-14;17.9593;-1;3.99186;-8.03256;11;-14;17;-1.00407;3.99593;
4.94696;-8;11;-14;17.9592;-1;3.99184;-8.03264;11;-14;17;-1.00408;3.99592;
4.94683;-8;11;-14;17.9591;-1;3.99182;-8.03272;11;-14;17;-1.00409;3.99591;
4.9467;-8;11;-14;17.959;-1;3.9918;-8.0328;11;-14;17;-1.0041;3.9959;
4.94657;-8;11;-14;17.9589;-1;3.99178;-8.03288;11;-14;17;-1.00411;3.99589;
4.94644;-8;11;-14;17.9588;-1;3.99176;-8.03296;11;-14;17;-1.00412;3.99588;
4.94631;-8;11;-14;17.9587;-1;3.99174;-8.03304;11;-14;17;-1.00413;3.99587;
4.94618;-8;11;-14;17.9586;-1;3.99172;-8.03312;11;-14;17;-1.00414;3.99586;
4.94605;-8;11;-14;17.9585;-1;3.9917;-8.0332;11;-14;17;-1.00415;3.99585;
4.94592;-8;11;-14;17.9584;-1;3.99168;-8.03328;11;-14;17;-1.00416;3.99584;
4.94579;-8;11;-14;17.9583;-1;3.99166;-8.03336;11;-14;17;-1.00417;3.99583;
4.94566;-8;11;-14;17.9582;-1;3.99164;-8.03344;11;-14;17;-1.00418;3.99582;
4.94553;-8;11;-14;17.9581;-1;3.99162;-8.03352;11;-14;17;-1.00419;3.99581;
4.9454;-8;11;-14;17.958;-1;3.9916;-8.0336;11;-14;17;-1.0042;3.9958;
4.94527;-8;11;-14;17.9579;-1;3.99158;-8.03368;11;-14;17;-1.00421;3.99579;
4.94514;-8;11;-14;17.9578;-1;3.99156;-8.03376;11;-14;17;-1.00422;3.99578;
4.94501;-8;11;-14;17.9577;-1;3.99154;-8.03384;11;-14;17;-1.00423;3.99577;
4.94488;-8;11;-14;17.9576;-1;3.99152;-8.03392;11;-14;17;-1.00424;3.99576;
4.94475;-8;11;-14;17.9575;-1;3.9915;-8.034;11;-14;17;-1.00425;3.99575;
4.94462;-8;11;-14;17.9574;-1;3.99148;-8.03408;11;-14;17;-1.00426;3.99574;
4.94449;-8;11;-14;17.9573;-1;3.99146;-8.03416;11;-14;17;-1.00427;3.99573;
4.94436;-8;11;-14;17.9572;-1;3.99144;-8.03424;11;-14;17;-1.00428;3.99572;
4.94423;-8;11;-14;17.9571;-1;3.99142;-8.03432;11;-14;17;-1.00429;3.99571;
4.9441;-8;11;-14;17.957;-1;3.9914;-8.0344;11;-14;17;-1.0043;3.9957;
4.94397;-8;11;-14;17.9569;-1;3.99138;-8.03448;11;-14;17;-1.00431;3.99569;
4.94384;-8;11;-14;17.9568;-1;3.99136;-8.03456;11;-14;17;-1.00432;3.99568;
4.94371;-8;11;-14;17.9567;-1;3.99134;-8.03464;11;-14;17;-1.00433;3.99567;
4.94358;-8;11;-14;17.9566;-1;3.99132;-8.03472;11;-14;17;-1.00434;3.99566;
4.94345;-8;11;-14;17.9565;-1;3.9913;-8.0348;11;-14;17;-1.00435;3.99565;
4.94332;-8;11;-14;17.9564;-1;3.99128;-8.03488;11;-14;17;-1.00436;3.99564;
4.94319;-8;11;-14;17.9563;-1;3.99126;-8.03496;11;-14;17;-1.00437;3.99563;
4.94306;-8;11;-14;17.9562;-1;3.99124;-8.03504;11;-14;17;-1.00438;3.99562;
4.94293;-8;11;-14;17.9561;-1;3.99122;-8.03512;11;-14;17;-1.00439;3.99561;
4.9428;-8;11;-14;17.956;-1;3.9912;-8.0352;11;-14;17;-1.0044;3.9956;
4.94267;-8;11;-14;17.9559;-1;3.99118;-8.03528;11;-14;17;-1.00441;3.99559;
4.94254;-8;11;-14;17.9558;-1;3.99116;-8.03536;11;-14;17;-1.00442;3.99558;
4.94241;-8;11;-14;17.9557;-1;3.99114;-8.03544;11;-14;17;-1.00443;3.99557;
4.94228;-8;11;-14;17.9556;-1;3.99112;-8.03552;11;-14;17;-1.00444;3.99556;
4.94215;-8;11;-14;17.9555;-1;3.9911;-8.0356;11;-14;17;-1.00445;3.99555;
4.94202;-8;11;-14;17.9554;-1;3.99108;-8.03568;11;-14;17;-1.00446;3.99554;
4.94189;-8;11;-14;17.9553;-1;3.99106;-8.03576;11;-14;17;-1.00447;3.99553;
4.94176;-8;11;-14;17.9552;-1;3.99104;-8.03584;11;-14;17;-1.00448;3.99552;
4.94163;-8;11;-14;17.9551;-1;3.99102;-8.03592;11;-14;17;-1.00449;3.99551;
4.9415;-8;11;-14;17.955;-1;3.991;-8.036;11;-14;17;-1.0045;3.9955;
4.94137;-8;11;-14;17.9549;-1;3.99098;-8.03608;11;-14;17;-1.00451;3.99549;
4.94124;-8;11;-14;17.9548;-1;3.99096;-8.03616;11;-14;17;-1.00452;3.99548;
4.94111;-8;11;-14;17.9547;-1;3.99094;-8.03624;11;-14;17;-1.00453;3.99547;
4.94098;-8;11;-14;17.9546;-1;3.99092;-8.03632;11;-14;17;-1.00454;3.99546;
4.94085;-8;11;-14;17.9545;-1;3.9909;-8.0364;11;-14;17;-1.00455;3.99545;
4.94072;-8;11;-14;17.9544;-1;3.99088;-8.03648;11;-14;17;-1.00456;3.99544;
4.94059;-8;11;-14;17.9543;-1;3.99086;-8.03656;11;-14;17;-1.00457;3.99543;
4.94046;-8;11;-14;17.9542;-1;3.99084;-8.03664;11;-14;17;-1.00458;3.99542;
4.94033;-8;11;-14;17.9541;-1;3.99082;-8.03672;11;-14;17;-1.00459;3.99541;
4.9402;-8;11;-14;17.954;-1;3.9908;-8.0368;11;-14;17;-1.0046;3.9954;
4.94007;-8;11;-14;17.9539;-1;3.99078;-8.03688;11;-14;17;-1.00461;3.99539;
4.93994;-8;11;-14;17.9538;-1;3.99076;-8.03696;11;-14;17;-1.00462;3.99538;
4.93981;-8;11;-14;17.9537;-1;3.99074;-8.03704;11;-14;17;-1.00463;3.99537;
4.93968;-8;11;-14;17.9536;-1;3.99072;-8.03712;11;-14;17;-1.00464;3.99536;
4.93955;-8;11;-14;17.9535;-1;3.9907;-8.0372;11;-14;17;-1.00465;3.99535;
4.93942;-8;11;-14;17.9534;-1;3.99068;-8.03728;11;-14;17;-1.00466;3.99534;
4.93929;-8;11;-14;17.9533;-1;3.99066;-8.03736;11;-14;17;-1.00467;3.99533;
4.93916;-8;11;-14;17.9532;-1;3.99064;-8.03744;11;-14;17;-1.00468;3.99532;
4.93903;-8;11;-14;17.9531;-1;3.99062;-8.03752;11;-14;17;-1.00469;3.99531;
4.9389;-8;11;-14;17.953;-1;3.9906;-8.0376;11;-14;17;-1.0047;3.9953;
4.93877;-8;11;-14;17.9529;-1;3.99058;-8.03768;11;-14;17;-1.00471;3.99529;
4.93864;-8;11;-14;17.9528;-1;3.99056;-8.03776;11;-14;17;-1.00472;3.99528;
4.93851;-8;11;-14;17.9527;-1;3.99054;-8.03784;11;-14;17;-1.00473;3.99527;
4.93838;-8;11;-14;17.9526;-1;3.99052;-8.03792;11;-14;17;-1.00474;3.99526;
4.93825;-8;11;-14;17.9525;-1;3.9905;-8.038;11;-14;17;-1.00475;3.99525;
4.93812;-8;11;-14;17.9524;-1;3.99048;-8.03808;11;-14;17;-1.00476;3.99524;
4.93799;-8;11;-14;17.9523;-1;3.99046;-8.03816;11;-14;17;-1.00477;3.99523;
4.93786;-8;11;-14;17.9522;-1;3.99044;-8.03824;11;-14;17;-1.00478;3.99522;
4.93773;-8;11;-14;17.9521;-1;3.99042;-8.03832;11;-14;17;-1.00479;3.99521;
4.9376;-8;11;-14;17.952;-1;3.9904;-8.0384;11;-14;17;-1.0048;3.9952;
4.93747;-8;11;-14;17.9519;-1;3.99038;-8.03848;11;-14;17;-1.00481;3.99519;
4.93734;-8;11;-14;17.9518;-1;3.99036;-8.03856;11;-14;17;-1.00482;3.99518;
4.93721;-8;11;-14;17.9517;-1;3.99034;-8.03864;11;-14;17;-1.00483;3.99517;
4.93708;-8;11;-14;17.9516;-1;3.99032;-8.03872;11;-14;17;-1.00484;3.99516;
4.93695;-8;11;-14;17.9515;-1;3.9903;-8.0388;11;-14;17;-1.00485;3.99515;
4.93682;-8;11;-14;17.9514;-1;3.99028;-8.03888;11;-14;17;-1.00486;3.99514;
4.93669;-8;11;-14;17.9513;-1;3.99026;-8.03896;11;-14;17;-1.00487;3.99513;
4.93656;-8;11;-14;17.9512;-1;3.99024;-8.03904;11;-14;17;-1.00488;3.99512;
4.93643;-8;11;-14;17.9511;-1;3.99022;-8.03912;11;-14;17;-1.00489;3.99511;
4.9363;-8;11;-14;17.951;-1;3.9902;-8.0392;11;-14;17;-1.0049;3.9951;
4.93617;-8;11;-14;17.9509;-1;3.99018;-8.03928;11;-14;17;-1.00491;3.99509;
4.93604;-8;11;-14;17.9508;-1;3.99016;-8.03936;11;-14;17;-1.00492;3.99508;
4.93591;-8;11;-14;17.9507;-1;3.99014;-8.03944;11;-14;17;-1.00493;3.99507;
4.93578;-8;11;-14;17.9506;-1;3.99012;-8.03952;11;-14;17;-1.00494;3.99506;
4.93565;-8;11;-14;17.9505;-1;3.9901;-8.0396;11;-14;17;-1.00495;3.99505;
4.93552;-8;11;-14;17.9504;-1;3.99008;-8.03968;11;-14;17;-1.00496;3.99504;
4.93539;-8;11;-14;17.9503;-1;3.99006;-8.03976;11;-14;17;-1.00497;3.99503;
4.93526;-8;11;-14;17.9502;-1;3.99004;-8.03984;11;-14;17;-1.00498;3.99502;
4.93513;-8;11;-14;17.9501;-1;3.99002;-8.03992;11;-14;17;-1.00499;3.99501;
4.935;-8;11;-14;17.95;-1;3.99;-8.04;11;-14;17;-1.005;3.995;
9.18768;-14;13.2719;-1.96183;3.11533;-7.99998;8.53973;-14.6786;17;-2.894;3.14191;-6.88908;9.03817;
8.34334;-14;10.7866;-2.5053;2.71971;-7.99997;7.22087;-14.7298;17;-3.09897;2.61466;-6.64237;8.49462;
7.84925;-14;9.18237;-2.87441;2.49931;-7.99996;6.38441;-14.6722;17;-2.91241;2.18839;-6.40219;8.12483;
7.53549;-14;8.03874;-3.14856;2.36323;-7.99995;5.79271;-14.6026;17;-2.63431;1.8369;-6.18985;7.84897;
7.32698;-14;7.17675;-3.36218;2.27378;-7.99995;5.34369;-14.5408;17;-2.34263;1.54252;-6.00348;7.63268;
7.18364;-14;6.4996;-3.53458;2.21263;-7.99995;4.98621;-14.4903;17;-2.06086;1.29152;-5.83853;7.45693;
7.08269;-14;5.95059;-3.67745;2.16988;-7.99995;4.69197;-14.4503;17;-1.79552;1.07393;-5.69085;7.31033;
7.01054;-14;5.49483;-3.79816;2.13973;-7.99995;4.444;-14.4193;17;-1.54732;0.882687;-5.55713;7.18577;
6.95863;-14;5.10993;-3.90154;2.11854;-7.99995;4.23145;-14.3957;17;-1.31499;0.712744;-5.43477;7.07861;
6.92133;-14;4.78094;-3.99086;2.10388;-7.99995;4.04702;-14.3783;17;-1.09667;0.560431;-5.32173;6.98573;
6.89477;-14;4.49753;-4.06842;2.09407;-7.99995;3.88556;-14.3659;17;-0.890452;0.423015;-5.21638;6.90493;
6.87617;-14;4.25231;-4.13589;2.0879;-7.99995;3.74327;-14.3577;17;-0.694553;0.298401;-5.11742;6.83461;
6.86349;-14;4.03978;-4.19454;2.08447;-7.99995;3.61726;-14.353;17;-0.507396;0.184938;-5.02377;6.77355;
6.85518;-14;3.85573;-4.24537;2.08309;-7.99995;3.50525;-14.3512;17;-0.327611;0.0812821;-4.93455;6.72077;
6.85005;-14;3.69675;-4.28922;2.08325;-7.99995;3.40537;-14.352;17;-0.154029;-0.013693;-4.84902;6.67545;
6.84717;-14;3.56001;-4.3268;2.08454;-7.99995;3.31606;-14.355;17;0.0143363;-0.100958;-4.76658;6.63686;
6.84582;-14;3.44305;-4.35875;2.08665;-7.99995;3.23599;-14.3599;17;0.178307;-0.181369;-4.68671;6.60434;
6.84544;-14;3.34367;-4.38567;2.08934;-7.99995;3.16402;-14.3665;17;0.33856;-0.255693;-4.60899;6.57727;
6.8456;-14;3.25988;-4.4081;2.09243;-7.99995;3.09915;-14.3746;17;0.495641;-0.324622;-4.53306;6.55507;
6.84599;-14;3.18985;-4.42656;2.09578;-7.99995;3.0405;-14.3841;17;0.649984;-0.388782;-4.45863;6.53719;
6.84637;-14;3.1319;-4.44152;2.0993;-7.99995;2.98731;-14.3948;17;0.801921;-0.448739;-4.38546;6.52312;
6.84658;-14;3.08449;-4.45342;2.1029;-7.99995;2.93893;-14.4067;17;0.951702;-0.504999;-4.31337;6.51239;
6.84651;-14;3.0462;-4.46267;2.10653;-7.99995;2.89477;-14.4196;17;1.0995;-0.558015;-4.2422;6.50455;
6.84609;-14;3.01576;-4.46964;2.11016;-7.99995;2.85435;-14.4334;17;1.24543;-0.608185;-4.17183;6.4992;
6.84529;-14;2.99203;-4.47467;2.11375;-7.99995;2.81724;-14.4481;17;1.38956;-0.655858;-4.10217;6.49598;
6.8441;-14;2.97397;-4.47805;2.11728;-7.99995;2.78308;-14.4636;17;1.5319;-0.701336;-4.03316;6.49455;
6.84253;-14;2.96066;-4.48006;2.12073;-7.99995;2.75156;-14.4798;17;1.67244;-0.744878;-3.96475;6.49463;
6.8406;-14;2.95129;-4.48093;2.12409;-7.99995;2.72242;-14.4967;17;1.81113;-0.786706;-3.89691;6.49596;
6.83834;-14;2.94515;-4.48087;2.12736;-7.99995;2.69546;-14.5142;17;1.94789;-0.827006;-3.82963;6.49831;
6.83578;-14;2.94162;-4.48006;2.13052;-7.99995;2.67049;-14.5322;17;2.08264;-0.865934;-3.7629;6.50148;
6.83297;-14;2.94014;-4.47867;2.13356;-7.99995;2.64738;-14.5507;17;2.21526;-0.903618;-3.69674;6.50529;
6.82994;-14;2.94024;-4.47683;2.13648;-7.99995;2.62601;-14.5696;17;2.34564;-0.940163;-3.63116;6.50959;
6.82673;-14;2.9415;-4.47467;2.13926;-7.99995;2.60628;-14.5888;17;2.47366;-0.975654;-3.56618;6.51425;
6.82339;-14;2.94357;-4.47229;2.1419;-7.99995;2.58813;-14.6083;17;2.59919;-1.01016;-3.50183;6.51916;
6.81995;-14;2.94615;-4.46978;2.14439;-7.99995;2.5715;-14.628;17;2.72209;-1.04373;-3.43815;6.52422;
6.81645;-14;2.94898;-4.46721;2.14671;-7.99995;2.55635;-14.6479;17;2.84224;-1.0764;-3.37516;6.52934;
6.81292;-14;2.95184;-4.46465;2.14886;-7.99995;2.54266;-14.6679;17;2.95952;-1.1082;-3.3129;6.53446;
6.8094;-14;2.95454;-4.46215;2.15082;-7.99995;2.5304;-14.6879;17;3.07381;-1.13915;-3.2514;6.53952;
6.80591;-14;2.95694;-4.45976;2.15258;-7.99995;2.51956;-14.7078;17;3.185;-1.16926;-3.1907;6.54448;
6.80248;-14;2.95892;-4.45751;2.15413;-7.99995;2.51014;-14.7276;17;3.29299;-1.19855;-3.13083;6.54929;
6.79914;-14;2.96039;-4.45543;2.15546;-7.99995;2.50212;-14.7473;17;3.39769;-1.22701;-3.07181;6.55393;
6.7959;-14;2.96126;-4.45354;2.15655;-7.99995;2.49551;-14.7668;17;3.49903;-1.25464;-3.01368;6.55837;
6.79278;-14;2.96149;-4.45186;2.15739;-7.99995;2.49031;-14.786;17;3.59695;-1.28145;-2.95646;6.5626;
6.78979;-14;2.96104;-4.45039;2.15797;-7.99995;2.48651;-14.8049;17;3.69139;-1.30743;-2.90017;6.5666;
6.78695;-14;2.95989;-4.44915;2.15828;-7.99995;2.48411;-14.8234;17;3.78232;-1.33258;-2.84483;6.57037;
6.78427;-14;2.95803;-4.44813;2.15831;-7.99995;2.48311;-14.8415;17;3.86972;-1.35689;-2.79045;6.57391;
6.78175;-14;2.95546;-4.44734;2.15806;-7.99995;2.4835;-14.8592;17;3.95357;-1.38037;-2.73704;6.57721;
6.77939;-14;2.95219;-4.44677;2.15751;-7.99995;2.48527;-14.8764;17;4.03388;-1.40301;-2.68461;6.58028;
6.7772;-14;2.94823;-4.44642;2.15667;-7.99995;2.48841;-14.8931;17;4.11066;-1.42481;-2.63316;6.58312;
6.77518;-14;2.9436;-4.44628;2.15552;-7.99995;2.49291;-14.9093;17;4.18393;-1.44578;-2.5827;6.58574;
6.77333;-14;2.93833;-4.44635;2.15406;-7.99995;2.49875;-14.9249;17;4.25373;-1.46592;-2.53322;6.58815;
6.77165;-14;2.93244;-4.44662;2.1523;-7.99995;2.5059;-14.9399;17;4.32009;-1.48523;-2.48472;6.59036;
6.77014;-14;2.92596;-4.44708;2.15023;-7.99995;2.51435;-14.9544;17;4.38307;-1.50372;-2.43719;6.59237;
6.76879;-14;2.91892;-4.44771;2.14785;-7.99995;2.52407;-14.9683;17;4.44272;-1.5214;-2.39062;6.5942;
6.7676;-14;2.91135;-4.44852;2.14516;-7.99995;2.53503;-14.9815;17;4.4991;-1.53828;-2.345;6.59585;
6.76657;-14;2.90329;-4.44949;2.14216;-7.99995;2.5472;-14.9941;17;4.55228;-1.55437;-2.30031;6.59733;
6.76569;-14;2.89476;-4.45061;2.13886;-7.99995;2.56055;-15.0061;17;4.60233;-1.56969;-2.25654;6.59866;
6.76495;-14;2.88579;-4.45188;2.13526;-7.99995;2.57505;-15.0175;17;4.64932;-1.58424;-2.21368;6.59984;
6.76435;-14;2.87641;-4.45328;2.13137;-7.99995;2.59066;-15.0282;17;4.69333;-1.59805;-2.1717;6.60088;
6.76389;-14;2.86665;-4.45481;2.1272;-7.99995;2.60735;-15.0383;17;4.73444;-1.61112;-2.13059;6.6018;
6.76356;-14;2.85653;-4.45646;2.12275;-7.99995;2.62508;-15.0478;17;4.77273;-1.62348;-2.09034;6.60259;
6.76335;-14;2.84607;-4.45822;2.11803;-7.99995;2.64382;-15.0567;17;4.80828;-1.63514;-2.05092;6.60327;
6.76326;-14;2.8353;-4.46009;2.11305;-7.99995;2.66353;-15.065;17;4.84117;-1.64612;-2.01231;6.60385;
6.76329;-14;2.82424;-4.46206;2.10781;-7.99995;2.68417;-15.0727;17;4.87148;-1.65644;-1.9745;6.60433;
6.76343;-14;2.81291;-4.46412;2.10233;-7.99995;2.7057;-15.0798;17;4.89929;-1.66611;-1.93746;6.60472;
6.76367;-14;2.80133;-4.46627;2.09661;-7.99995;2.72808;-15.0863;17;4.92468;-1.67516;-1.90118;6.60503;
6.76401;-14;2.78952;-4.4685;2.09067;-7.99995;2.75128;-15.0923;17;4.94773;-1.6836;-1.86563;6.60526;
6.76445;-14;2.77749;-4.47081;2.08451;-7.99995;2.77526;-15.0977;17;4.96852;-1.69145;-1.8308;6.60541;
6.76498;-14;2.76526;-4.47319;2.07814;-7.99995;2.79999;-15.1026;17;4.98712;-1.69873;-1.79666;6.6055;
6.7656;-14;2.75284;-4.47564;2.07158;-7.99995;2.82542;-15.1069;17;5.00361;-1.70546;-1.7632;6.60552;
6.7663;-14;2.74025;-4.47816;2.06483;-7.99995;2.85153;-15.1107;17;5.01807;-1.71165;-1.7304;6.60549;
6.76708;-14;2.7275;-4.48074;2.0579;-7.99995;2.87828;-15.114;17;5.03056;-1.71732;-1.69824;6.6054;
6.76794;-14;2.7146;-4.48337;2.05081;-7.99995;2.90564;-15.1168;17;5.04115;-1.72249;-1.6667;6.60526;
6.76887;-14;2.70156;-4.48606;2.04356;-7.99995;2.93357;-15.1192;17;5.04991;-1.72717;-1.63577;6.60508;
6.76987;-14;2.68839;-4.4888;2.03616;-7.99995;2.96204;-15.1211;17;5.05691;-1.73139;-1.60543;6.60486;
6.77093;-14;2.6751;-4.49158;2.02862;-7.99995;2.99102;-15.1226;17;5.06221;-1.73515;-1.57566;6.6046;
6.77206;-14;2.6617;-4.49441;2.02096;-7.99995;3.02048;-15.1237;17;5.06587;-1.73848;-1.54645;6.6043;
6.77324;-14;2.6482;-4.49728;2.01318;-7.99995;3.05039;-15.1243;17;5.06796;-1.74139;-1.51778;6.60397;
6.77448;-14;2.63461;-4.50019;2.00529;-7.99995;3.08072;-15.1245;17;5.06853;-1.74389;-1.48963;6.60361;
6.77578;-14;2.62093;-4.50314;1.99729;-7.99995;3.11145;-15.1243;17;5.06763;-1.746;-1.46199;6.60322;
6.77713;-14;2.60718;-4.50612;1.9892;-7.99995;3.14254;-15.1238;17;5.06532;-1.74773;-1.43485;6.60281;
6.77853;-14;2.59335;-4.50914;1.98103;-7.99995;3.17398;-15.1229;17;5.06166;-1.7491;-1.40819;6.60238;
6.77997;-14;2.57946;-4.51219;1.97278;-7.99995;3.20573;-15.1217;17;5.05669;-1.75011;-1.382;6.60193;
6.78146;-14;2.56551;-4.51527;1.96446;-7.99995;3.23777;-15.1201;17;5.05046;-1.75078;-1.35626;6.60146;
6.78299;-14;2.5515;-4.51838;1.95608;-7.99995;3.27008;-15.1182;17;5.04302;-1.75113;-1.33096;6.60097;
6.78456;-14;2.53745;-4.52151;1.94765;-7.99995;3.30264;-15.116;17;5.03441;-1.75116;-1.30609;6.60047;
6.78616;-14;2.52335;-4.52467;1.93917;-7.99995;3.33542;-15.1135;17;5.02468;-1.75089;-1.28164;6.59995;
6.7878;-14;2.50921;-4.52785;1.93065;-7.99995;3.36841;-15.1107;17;5.01387;-1.75033;-1.2576;6.59942;
6.78947;-14;2.49504;-4.53105;1.9221;-7.99995;3.40158;-15.1076;17;5.00202;-1.74948;-1.23395;6.59889;
6.79117;-14;2.48084;-4.53427;1.91352;-7.99995;3.43491;-15.1043;17;4.98917;-1.74836;-1.21069;6.59835;
6.79291;-14;2.46662;-4.53751;1.90492;-7.99995;3.46839;-15.1007;17;4.97536;-1.74698;-1.1878;6.5978;
6.79467;-14;2.45237;-4.54077;1.89631;-7.99995;3.50199;-15.0969;17;4.96062;-1.74535;-1.16528;6.59724;
6.79646;-14;2.43811;-4.54405;1.88769;-7.99995;3.5357;-15.0929;17;4.94499;-1.74348;-1.14311;6.59668;
6.79827;-14;2.42384;-4.54734;1.87907;-7.99995;3.56951;-15.0886;17;4.92851;-1.74137;-1.12129;6.59612;
6.80011;-14;2.40956;-4.55065;1.87045;-7.99995;3.60339;-15.0841;17;4.9112;-1.73904;-1.0998;6.59556;
6.80197;-14;2.39527;-4.55397;1.86184;-7.99995;3.63733;-15.0794;17;4.8931;-1.73649;-1.07864;6.595;
6.80385;-14;2.38098;-4.5573;1.85324;-7.99995;3.67132;-15.0745;17;4.87423;-1.73373;-1.0578;6.59444;
6.80575;-14;2.36669;-4.56065;1.84466;-7.99995;3.70534;-15.0695;17;4.85463;-1.73077;-1.03727;6.59388;
6.80767;-14;2.3524;-4.56401;1.8361;-7.99995;3.73937;-15.0643;17;4.83432;-1.72761;-1.01704;6.59332;
6.8096;-14;2.33812;-4.56738;1.82757;-7.99995;3.77341;-15.0589;17;4.81333;-1.72426;-0.997109;6.59276;
6.81155;-14;2.32385;-4.57075;1.81907;-7.99995;3.80744;-15.0534;17;4.79168;-1.72073;-0.977466;6.59221;
6.81351;-14;2.30959;-4.57413;1.8106;-7.99995;3.84144;-15.0477;17;4.7694;-1.71703;-0.958103;6.59166;
6.81549;-14;2.29534;-4.57752;1.80217;-7.99995;3.87541;-15.0419;17;4.74652;-1.71316;-0.939014;6.59112;
6.81748;-14;2.28111;-4.58092;1.79378;-7.99995;3.90933;-15.0359;17;4.72305;-1.70913;-0.920192;6.59058;
6.81948;-14;2.2669;-4.58432;1.78544;-7.99995;3.94319;-15.0298;17;4.69902;-1.70495;-0.90163;6.59005;
6.82149;-14;2.25271;-4.58773;1.77715;-7.99995;3.97699;-15.0236;17;4.67445;-1.70062;-0.883322;6.58953;
6.82351;-14;2.23855;-4.59114;1.76891;-7.99995;4.01071;-15.0173;17;4.64936;-1.69614;-0.865262;6.58901;
6.82553;-14;2.22441;-4.59456;1.76072;-7.99995;4.04434;-15.0108;17;4.62377;-1.69152;-0.847443;6.5885;
6.82756;-14;2.2103;-4.59798;1.75259;-7.99995;4.07787;-15.0042;17;4.5977;-1.68677;-0.829861;6.588;
6.8296;-14;2.19622;-4.60141;1.74452;-7.99995;4.11129;-14.9975;17;4.57117;-1.68189;-0.812509;6.58751;
6.83164;-14;2.18218;-4.60484;1.73651;-7.99995;4.1446;-14.9908;17;4.5442;-1.67689;-0.795383;6.58703;
6.83369;-14;2.16817;-4.60827;1.72857;-7.99995;4.17778;-14.984;17;4.5168;-1.67177;-0.778477;6.58656;
6.83574;-14;2.1542;-4.6117;1.72069;-7.99995;4.21083;-14.9771;17;4.48899;-1.66653;-0.761785;6.5861;
6.83779;-14;2.14026;-4.61513;1.71288;-7.99995;4.24374;-14.9701;17;4.46079;-1.66118;-0.745303;6.58565;
6.83985;-14;2.12636;-4.61856;1.70514;-7.99995;4.2765;-14.963;17;4.43221;-1.65572;-0.729027;6.58521;
6.84191;-14;2.1125;-4.62199;1.69747;-7.99995;4.30911;-14.9559;17;4.40326;-1.65016;-0.712951;6.58478;
6.84397;-14;2.09869;-4.62542;1.68988;-7.99995;4.34156;-14.9487;17;4.37396;-1.6445;-0.697071;6.58436;
6.84603;-14;2.08492;-4.62885;1.68236;-7.99995;4.37384;-14.9415;17;4.34432;-1.63875;-0.681383;6.58395;
6.84809;-14;2.0712;-4.63228;1.67492;-7.99995;4.40594;-14.9342;17;4.31436;-1.6329;-0.665882;6.58356;
6.85015;-14;2.05752;-4.63571;1.66756;-7.99995;4.43786;-14.9269;17;4.28409;-1.62697;-0.650564;6.58318;
6.8522;-14;2.04389;-4.63914;1.66028;-7.99995;4.4696;-14.9195;17;4.25352;-1.62095;-0.635425;6.58281;
6.85425;-14;2.03031;-4.64257;1.65308;-7.99995;4.50114;-14.9121;17;4.22267;-1.61485;-0.620462;6.58245;
6.8563;-14;2.01678;-4.64599;1.64596;-7.99995;4.53249;-14.9046;17;4.19155;-1.60867;-0.60567;6.5821;
6.85835;-14;2.0033;-4.64941;1.63893;-7.99995;4.56363;-14.8971;17;4.16016;-1.60242;-0.591046;6.58177;
6.86039;-14;1.98988;-4.65283;1.63198;-7.99995;4.59456;-14.8896;17;4.12852;-1.59609;-0.576586;6.58145;
6.86243;-14;1.97651;-4.65624;1.62512;-7.99995;4.62528;-14.882;17;4.09664;-1.58969;-0.562286;6.58114;
6.86446;-14;1.9632;-4.65965;1.61834;-7.99995;4.65578;-14.8744;17;4.06453;-1.58323;-0.548143;6.58084;
6.86649;-14;1.94994;-4.66306;1.61165;-7.99995;4.68606;-14.8668;17;4.0322;-1.5767;-0.534154;6.58056;
6.86851;-14;1.93674;-4.66646;1.60505;-7.99995;4.71612;-14.8592;17;3.99966;-1.57011;-0.520315;6.58029;
6.87053;-14;1.9236;-4.66986;1.59853;-7.99995;4.74595;-14.8516;17;3.96692;-1.56346;-0.506623;6.58003;
6.87254;-14;1.91052;-4.67325;1.5921;-7.99995;4.77554;-14.844;17;3.93399;-1.55676;-0.493075;6.57978;
6.87454;-14;1.8975;-4.67664;1.58576;-7.99995;4.8049;-14.8364;17;3.90088;-1.55;-0.479668;6.57955;
6.87653;-14;1.88454;-4.68002;1.57951;-7.99995;4.83402;-14.8288;17;3.86759;-1.54319;-0.466399;6.57933;
6.87852;-14;1.87165;-4.6834;1.57335;-7.99995;4.86289;-14.8212;17;3.83414;-1.53633;-0.453265;6.57912;
6.8805;-14;1.85882;-4.68677;1.56728;-7.99995;4.89152;-14.8136;17;3.80053;-1.52942;-0.440263;6.57892;
6.88247;-14;1.84606;-4.69013;1.56129;-7.99995;4.9199;-14.806;17;3.76677;-1.52247;-0.42739;6.57874;
6.88443;-14;1.83336;-4.69349;1.55539;-7.99995;4.94803;-14.7984;17;3.73287;-1.51547;-0.414644;6.57857;
6.88638;-14;1.82073;-4.69684;1.54958;-7.99995;4.9759;-14.7908;17;3.69883;-1.50843;-0.402022;6.57841;
6.88832;-14;1.80816;-4.70018;1.54386;-7.99995;5.00351;-14.7832;17;3.66467;-1.50135;-0.389521;6.57826;
6.89025;-14;1.79566;-4.70351;1.53823;-7.99995;5.03086;-14.7756;17;3.63039;-1.49424;-0.377138;6.57812;
6.89217;-14;1.78323;-4.70684;1.53269;-7.99995;5.05795;-14.768;17;3.59599;-1.48709;-0.364871;6.578;
6.89408;-14;1.77087;-4.71016;1.52724;-7.99995;5.08478;-14.7604;17;3.56149;-1.47991;-0.352717;6.57789;
6.89598;-14;1.75858;-4.71347;1.52188;-7.99995;5.11134;-14.7528;17;3.52689;-1.47269;-0.340674;6.57779;
6.89787;-14;1.74636;-4.71677;1.51661;-7.99995;5.13763;-14.7453;17;3.4922;-1.46544;-0.32874;6.5777;
6.89975;-14;1.73421;-4.72006;1.51142;-7.99995;5.16365;-14.7378;17;3.45742;-1.45816;-0.316912;6.57762;
6.90162;-14;1.72213;-4.72334;1.50632;-7.99995;5.1894;-14.7303;17;3.42256;-1.45086;-0.305187;6.57755;
6.90348;-14;1.71013;-4.72662;1.50131;-7.99995;5.21488;-14.7228;17;3.38763;-1.44353;-0.293564;6.5775;
6.90532;-14;1.6982;-4.72989;1.49639;-7.99995;5.24009;-14.7153;17;3.35263;-1.43618;-0.28204;6.57746;
6.90715;-14;1.68635;-4.73315;1.49155;-7.99995;5.26502;-14.7079;17;3.31757;-1.42881;-0.270613;6.57743;
6.90897;-14;1.67457;-4.7364;1.4868;-7.99995;5.28968;-14.7005;17;3.28245;-1.42142;-0.25928;6.57741;
6.91078;-14;1.66287;-4.73964;1.48213;-7.99995;5.31406;-14.6931;17;3.24728;-1.41401;-0.248039;6.5774;
6.91257;-14;1.65124;-4.74287;1.47755;-7.99995;5.33816;-14.6858;17;3.21207;-1.40658;-0.236888;6.5774;
6.91435;-14;1.63969;-4.74608;1.47305;-7.99995;5.36198;-14.6785;17;3.17682;-1.39913;-0.225825;6.57741;
6.91612;-14;1.62822;-4.74928;1.46864;-7.99995;5.38552;-14.6712;17;3.14154;-1.39167;-0.214848;6.57743;
6.91787;-14;1.61683;-4.75247;1.46431;-7.99995;5.40878;-14.664;17;3.10623;-1.38419;-0.203954;6.57746;
6.91961;-14;1.60552;-4.75565;1.46006;-7.99995;5.43176;-14.6568;17;3.0709;-1.3767;-0.193142;6.5775;
6.92133;-14;1.59429;-4.75882;1.4559;-7.99995;5.45446;-14.6496;17;3.03555;-1.3692;-0.182409;6.57755;
6.92304;-14;1.58314;-4.76198;1.45182;-7.99995;5.47687;-14.6425;17;3.00019;-1.36169;-0.171753;6.57761;
6.92474;-14;1.57207;-4.76513;1.44782;-7.99995;5.499;-14.6354;17;2.96483;-1.35417;-0.161172;6.57768;
6.92642;-14;1.56108;-4.76826;1.4439;-7.99995;5.52085;-14.6284;17;2.92947;-1.34664;-0.150664;6.57776;
6.92809;-14;1.55017;-4.77138;1.44006;-7.99995;5.54242;-14.6214;17;2.89411;-1.33911;-0.140227;6.57785;
6.92974;-14;1.53935;-4.77449;1.4363;-7.99995;5.5637;-14.6144;17;2.85877;-1.33157;-0.129859;6.57795;
6.93138;-14;1.52861;-4.77758;1.43261;-7.99995;5.5847;-14.6075;17;2.82344;-1.32403;-0.119558;6.57806;
6.933;-14;1.51796;-4.78066;1.429;-7.99995;5.60542;-14.6006;17;2.78813;-1.31648;-0.109322;6.57818;
6.9346;-14;1.50739;-4.78373;1.42547;-7.99995;5.62585;-14.5938;17;2.75285;-1.30893;-0.0991485;6.57831;
6.93619;-14;1.49691;-4.78678;1.42201;-7.99995;5.646;-14.587;17;2.7176;-1.30138;-0.0890357;6.57845;
6.93776;-14;1.48651;-4.78982;1.41863;-7.99995;5.66586;-14.5803;17;2.68239;-1.29383;-0.0789816;6.57859;
6.93932;-14;1.4762;-4.79284;1.41532;-7.99995;5.68544;-14.5736;17;2.64722;-1.28628;-0.0689842;6.57874;
6.94086;-14;1.46598;-4.79585;1.41209;-7.99995;5.70474;-14.567;17;2.6121;-1.27874;-0.0590413;6.5789;
6.94238;-14;1.45586;-4.79884;1.40893;-7.99995;5.72376;-14.5604;17;2.57703;-1.2712;-0.049151;6.57907;
6.94389;-14;1.44583;-4.80181;1.40584;-7.99995;5.74249;-14.5539;17;2.54202;-1.26367;-0.0393112;6.57925;
6.94538;-14;1.43589;-4.80477;1.40282;-7.99995;5.76094;-14.5474;17;2.50707;-1.25614;-0.0295199;6.57944;
6.94685;-14;1.42604;-4.80771;1.39987;-7.99995;5.77911;-14.541;17;2.47219;-1.24862;-0.019775;6.57964;
6.9483;-14;1.41628;-4.81063;1.39699;-7.99995;5.797;-14.5346;17;2.43738;-1.24111;-0.0100746;6.57984;
6.94974;-14;1.40662;-4.81354;1.39418;-7.99995;5.81461;-14.5283;17;2.40265;-1.23361;-0.000416464;6.58005;
6.95116;-14;1.39706;-4.81643;1.39144;-7.99995;5.83194;-14.522;17;2.36801;-1.22612;0.0092014;6.58027;
6.95256;-14;1.38759;-4.8193;1.38876;-7.99995;5.84899;-14.5158;17;2.33346;-1.21864;0.018781;6.5805;
6.95394;-14;1.37822;-4.82215;1.38615;-7.99995;5.86576;-14.5097;17;2.299;-1.21117;0.0283245;6.58074;
6.9553;-14;1.36895;-4.82498;1.3836;-7.99995;5.88225;-14.5036;17;2.26464;-1.20372;0.0378339;6.58098;
6.95665;-14;1.35978;-4.82779;1.38112;-7.99995;5.89847;-14.4976;17;2.23039;-1.19628;0.0473113;6.58123;
6.95798;-14;1.35071;-4.83058;1.3787;-7.99995;5.91441;-14.4916;17;2.19625;-1.18886;0.0567588;6.58149;
6.95929;-14;1.34174;-4.83335;1.37634;-7.99995;5.93007;-14.4857;17;2.16222;-1.18146;0.0661785;6.58176;
6.96058;-14;1.33288;-4.8361;1.37404;-7.99995;5.94546;-14.4799;17;2.12831;-1.17407;0.0755724;6.58203;
6.96185;-14;1.32412;-4.83883;1.3718;-7.99995;5.96057;-14.4741;17;2.09453;-1.1667;0.0849428;6.58231;
6.9631;-14;1.31547;-4.84154;1.36962;-7.99995;5.97541;-14.4684;17;2.06088;-1.15935;0.0942917;6.5826;
6.96433;-14;1.30692;-4.84423;1.3675;-7.99995;5.98998;-14.4627;17;2.02737;-1.15202;0.103621;6.5829;
6.96554;-14;1.29848;-4.84689;1.36544;-7.99995;6.00428;-14.4571;17;1.99401;-1.14472;0.112933;6.5832;
6.96673;-14;1.29015;-4.84953;1.36344;-7.99995;6.01831;-14.4516;17;1.9608;-1.13744;0.12223;6.58351;
6.9679;-14;1.28193;-4.85215;1.36149;-7.99995;6.03207;-14.4461;17;1.92774;-1.13018;0.131514;6.58383;
6.96905;-14;1.27382;-4.85474;1.3596;-7.99995;6.04556;-14.4407;17;1.89484;-1.12295;0.140787;6.58415;
6.97018;-14;1.26583;-4.85731;1.35776;-7.99995;6.05878;-14.4353;17;1.86211;-1.11574;0.150051;6.58448;
6.97129;-14;1.25795;-4.85985;1.35598;-7.99995;6.07174;-14.43;17;1.82955;-1.10856;0.159309;6.58482;
6.97238;-14;1.25018;-4.86237;1.35425;-7.99995;6.08443;-14.4248;17;1.79717;-1.10141;0.168562;6.58516;
6.97345;-14;1.24253;-4.86486;1.35257;-7.99995;6.09686;-14.4196;17;1.76497;-1.09429;0.177813;6.58551;
6.9745;-14;1.235;-4.86733;1.35095;-7.99995;6.10903;-14.4145;17;1.73296;-1.0872;0.187064;6.58587;
6.97553;-14;1.22759;-4.86977;1.34938;-7.99995;6.12093;-14.4095;17;1.70114;-1.08014;0.196317;6.58623;
6.97654;-14;1.22029;-4.87218;1.34786;-7.99995;6.13257;-14.4045;17;1.66952;-1.07311;0.205573;6.5866;
6.97753;-14;1.21311;-4.87457;1.34638;-7.99995;6.14395;-14.3996;17;1.6381;-1.06612;0.214835;6.58697;
6.9785;-14;1.20606;-4.87693;1.34495;-7.99995;6.15508;-14.3948;17;1.60689;-1.05916;0.224106;6.58735;
6.97945;-14;1.19913;-4.87926;1.34357;-7.99995;6.16595;-14.39;17;1.5759;-1.05224;0.233387;6.58773;
6.98038;-14;1.19232;-4.88156;1.34224;-7.99995;6.17657;-14.3853;17;1.54513;-1.04535;0.24268;6.58812;
6.98129;-14;1.18563;-4.88383;1.34095;-7.99995;6.18693;-14.3807;17;1.51458;-1.0385;0.251987;6.58851;
6.98218;-14;1.17907;-4.88608;1.33971;-7.99995;6.19704;-14.3761;17;1.48426;-1.03169;0.26131;6.5889;
6.98305;-14;1.17263;-4.8883;1.33851;-7.99995;6.2069;-14.3716;17;1.45418;-1.02492;0.270652;6.5893;
6.9839;-14;1.16632;-4.89049;1.33735;-7.99995;6.21651;-14.3671;17;1.42434;-1.01819;0.280014;6.5897;
6.98473;-14;1.16014;-4.89265;1.33624;-7.99995;6.22587;-14.3627;17;1.39474;-1.0115;0.289398;6.5901;
6.98554;-14;1.15409;-4.89478;1.33517;-7.99995;6.23499;-14.3584;17;1.36539;-1.00485;0.298806;6.59051;
6.98633;-14;1.14816;-4.89688;1.33414;-7.99995;6.24386;-14.3541;17;1.33629;-0.998241;0.308239;6.59092;
6.9871;-14;1.14236;-4.89894;1.33315;-7.99995;6.25249;-14.3499;17;1.30745;-0.991676;0.3177;6.59133;
6.98785;-14;1.13669;-4.90097;1.3322;-7.99995;6.26088;-14.3458;17;1.27887;-0.985156;0.32719;6.59174;
6.98858;-14;1.13114;-4.90297;1.33129;-7.99995;6.26903;-14.3417;17;1.25056;-0.978681;0.336711;6.59215;
6.98929;-14;1.12572;-4.90494;1.33042;-7.99995;6.27694;-14.3377;17;1.22252;-0.972252;0.346264;6.59256;
6.98998;-14;1.12043;-4.90688;1.32958;-7.99995;6.28462;-14.3338;17;1.19475;-0.96587;0.355851;6.59297;
6.99065;-14;1.11526;-4.90879;1.32878;-7.99995;6.29206;-14.3299;17;1.16725;-0.959536;0.365474;6.59338;
6.9913;-14;1.11022;-4.91067;1.32802;-7.99995;6.29927;-14.3261;17;1.14003;-0.953251;0.375134;6.59379;
6.99193;-14;1.1053;-4.91252;1.32729;-7.99995;6.30625;-14.3224;17;1.11309;-0.947015;0.384832;6.59419;
6.99254;-14;1.10051;-4.91434;1.32659;-7.99995;6.313;-14.3187;17;1.08644;-0.940828;0.39457;6.59459;
6.99313;-14;1.09585;-4.91613;1.32593;-7.99995;6.31953;-14.3151;17;1.06008;-0.934692;0.404349;6.59499;
6.99371;-14;1.09131;-4.91789;1.3253;-7.99995;6.32583;-14.3115;17;1.03401;-0.928607;0.41417;6.59538;
6.99427;-14;1.08689;-4.91962;1.3247;-7.99995;6.33191;-14.308;17;1.00823;-0.922574;0.424034;6.59577;
6.99481;-14;1.0826;-4.92132;1.32414;-7.99995;6.33777;-14.3046;17;0.982739;-0.916593;0.433942;6.59615;
6.99533;-14;1.07843;-4.92299;1.32361;-7.99995;6.34342;-14.3012;17;0.957542;-0.910665;0.443895;6.59652;
6.99584;-14;1.07438;-4.92463;1.32311;-7.99995;6.34885;-14.2979;17;0.932641;-0.90479;0.453894;6.59689;
6.99633;-14;1.07044;-4.92624;1.32264;-7.99995;6.35407;-14.2946;17;0.908036;-0.898968;0.46394;6.59725;
6.9968;-14;1.06662;-4.92782;1.32219;-7.99995;6.35908;-14.2914;17;0.883727;-0.8932;0.474033;6.5976;
6.99726;-14;1.06291;-4.92937;1.32177;-7.99995;6.36388;-14.2883;17;0.859715;-0.887487;0.484174;6.59794;
6.9977;-14;1.05932;-4.93089;1.32138;-7.99995;6.36848;-14.2852;17;0.836;-0.881828;0.494364;6.59827;
6.99812;-14;1.05584;-4.93238;1.32102;-7.99995;6.37288;-14.2822;17;0.812582;-0.876225;0.504603;6.59858;
6.99853;-14;1.05247;-4.93384;1.32068;-7.99995;6.37708;-14.2792;17;0.78946;-0.870677;0.514891;6.59888;
6.99892;-14;1.0492;-4.93528;1.32037;-7.99995;6.38108;-14.2763;17;0.766633;-0.865184;0.525229;6.59917;
6.9993;-14;1.04604;-4.93669;1.32008;-7.99995;6.38489;-14.2734;17;0.744101;-0.859747;0.535617;6.59944;
6.99967;-14;1.04298;-4.93807;1.31982;-7.99995;6.3885;-14.2706;17;0.721863;-0.854365;0.546056;6.5997;
7.00002;-14;1.04002;-4.93943;1.31958;-7.99995;6.39193;-14.2679;17;0.699917;-0.849039;0.556545;6.59994;
7.00036;-14;1.03716;-4.94076;1.31936;-7.99995;6.39517;-14.2652;17;0.678261;-0.843768;0.567084;6.60016;
7.00069;-14;1.0344;-4.94207;1.31916;-7.99995;6.39823;-14.2626;17;0.656894;-0.838553;0.577673;6.60036;
7.001;-14;1.03173;-4.94335;1.31899;-7.99995;6.40111;-14.26;17;0.635813;-0.833393;0.588312;6.60055;
7.0013;-14;1.02915;-4.94461;1.31884;-7.99995;6.40381;-14.2575;17;0.615016;-0.828289;0.599001;6.60072;
7.00159;-14;1.02666;-4.94585;1.31871;-7.99995;6.40634;-14.255;17;0.594501;-0.82324;0.60974;6.60087;
7.00187;-14;1.02426;-4.94707;1.3186;-7.99995;6.4087;-14.2525;17;0.574265;-0.818246;0.620528;6.60099;
7.00214;-14;1.02195;-4.94826;1.3185;-7.99995;6.41089;-14.2501;17;0.554306;-0.813306;0.631365;6.60109;
7.0024;-14;1.01972;-4.94943;1.31842;-7.99995;6.41292;-14.2477;17;0.53462;-0.808421;0.642251;6.60117;
7.00265;-14;1.01757;-4.95058;1.31836;-7.99995;6.41479;-14.2454;17;0.515204;-0.80359;0.653185;6.60123;
7.00289;-14;1.01549;-4.95171;1.31832;-7.99995;6.4165;-14.2431;17;0.496054;-0.798813;0.664166;6.60126;
7.00312;-14;1.01349;-4.95282;1.31829;-7.99995;6.41806;-14.2409;17;0.477168;-0.794089;0.675194;6.60127;
7.00334;-14;1.01156;-4.95391;1.31828;-7.99995;6.41947;-14.2387;17;0.458541;-0.789418;0.686268;6.60125;
7.00355;-14;1.0097;-4.95499;1.31829;-7.99995;6.42073;-14.2366;17;0.44017;-0.784799;0.697388;6.6012;
7.00375;-14;1.00791;-4.95605;1.31831;-7.99995;6.42185;-14.2345;17;0.422052;-0.780232;0.708553;6.60113;
7.00394;-14;1.00619;-4.95709;1.31835;-7.99995;6.42283;-14.2324;17;0.404183;-0.775716;0.719762;6.60103;
7.00412;-14;1.00453;-4.95811;1.3184;-7.99995;6.42367;-14.2304;17;0.386559;-0.771251;0.731014;6.6009;
7.00429;-14;1.00293;-4.95912;1.31846;-7.99995;6.42438;-14.2284;17;0.369176;-0.766836;0.742309;6.60074;
7.00446;-14;1.00139;-4.96011;1.31854;-7.99995;6.42496;-14.2264;17;0.35203;-0.762471;0.753646;6.60056;
7.00462;-14;0.999912;-4.96109;1.31863;-7.99995;6.42541;-14.2245;17;0.335116;-0.758154;0.765023;6.60035;
7.00477;-14;0.998489;-4.96205;1.31873;-7.99995;6.42574;-14.2226;17;0.318431;-0.753886;0.77644;6.60011;
7.00492;-14;0.997119;-4.963;1.31884;-7.99995;6.42595;-14.2208;17;0.30197;-0.749665;0.787896;6.59984;
7.00506;-14;0.9958;-4.96394;1.31896;-7.99995;6.42604;-14.219;17;0.285729;-0.745491;0.799391;6.59954;
7.00519;-14;0.994531;-4.96486;1.31909;-7.99995;6.42602;-14.2172;17;0.269704;-0.741364;0.810923;6.59921;
7.00532;-14;0.99331;-4.96577;1.31923;-7.99995;6.42589;-14.2155;17;0.253891;-0.737282;0.822491;6.59885;
7.00544;-14;0.992135;-4.96667;1.31938;-7.99995;6.42565;-14.2138;17;0.238285;-0.733245;0.834095;6.59845;
7.00556;-14;0.991006;-4.96756;1.31954;-7.99995;6.42531;-14.2121;17;0.222883;-0.729252;0.845733;6.59802;
7.00567;-14;0.989921;-4.96843;1.31971;-7.99995;6.42487;-14.2104;17;0.207681;-0.725302;0.857405;6.59756;
7.00577;-14;0.988877;-4.96929;1.31989;-7.99995;6.42434;-14.2088;17;0.192674;-0.721394;0.869109;6.59707;
7.00587;-14;0.987873;-4.97014;1.32008;-7.99995;6.42371;-14.2072;17;0.177858;-0.717528;0.880845;6.59655;
7.00596;-14;0.986907;-4.97098;1.32027;-7.99995;6.42299;-14.2056;17;0.163228;-0.713702;0.892611;6.596;
7.00605;-14;0.985978;-4.97181;1.32047;-7.99995;6.42219;-14.2041;17;0.148781;-0.709917;0.904407;6.59542;
7.00614;-14;0.985085;-4.97263;1.32068;-7.99995;6.4213;-14.2026;17;0.134512;-0.706171;0.916232;6.5948;
7.00622;-14;0.984227;-4.97344;1.32089;-7.99995;6.42033;-14.2011;17;0.120418;-0.702463;0.928085;6.59415;
7.0063;-14;0.983402;-4.97424;1.32111;-7.99995;6.41928;-14.1996;17;0.106495;-0.698793;0.939965;6.59347;
7.00637;-14;0.982609;-4.97504;1.32134;-7.99995;6.41816;-14.1982;17;0.0927387;-0.69516;0.951871;6.59276;
7.00644;-14;0.981848;-4.97583;1.32157;-7.99995;6.41697;-14.1968;17;0.0791457;-0.691563;0.963802;6.59202;
7.0065;-14;0.981118;-4.97661;1.32181;-7.99995;6.41571;-14.1954;17;0.065712;-0.688001;0.975757;6.59124;
7.00656;-14;0.980418;-4.97738;1.32205;-7.99995;6.41438;-14.194;17;0.052434;-0.684473;0.987735;6.59043;
7.00662;-14;0.979746;-4.97814;1.32229;-7.99995;6.41299;-14.1926;17;0.0393078;-0.680979;0.999735;6.58959;
7.00667;-14;0.979102;-4.97889;1.32254;-7.99995;6.41154;-14.1913;17;0.0263297;-0.677518;1.01176;6.58872;
7.00672;-14;0.978484;-4.97964;1.32279;-7.99995;6.41003;-14.19;17;0.0134958;-0.674089;1.0238;6.58782;
7.00677;-14;0.977892;-4.98038;1.32304;-7.99995;6.40847;-14.1887;17;0.000803083;-0.670691;1.03586;6.58688;
7.00681;-14;0.977325;-4.98111;1.3233;-7.99995;6.40686;-14.1874;17;-0.0117518;-0.667324;1.04794;6.58591;
7.00685;-14;0.976783;-4.98184;1.32356;-7.99995;6.4052;-14.1861;17;-0.0241724;-0.663987;1.06004;6.58491;
7.00689;-14;0.976265;-4.98256;1.32382;-7.99995;6.40349;-14.1849;17;-0.0364618;-0.660679;1.07216;6.58388;
7.00692;-14;0.97577;-4.98327;1.32408;-7.99995;6.40174;-14.1837;17;-0.0486236;-0.657399;1.08429;6.58282;
7.00695;-14;0.975298;-4.98398;1.32435;-7.99995;6.39995;-14.1825;17;-0.060661;-0.654147;1.09644;6.58173;
7.00698;-14;0.974848;-4.98468;1.32462;-7.99995;6.39812;-14.1813;17;-0.072577;-0.650921;1.1086;6.58061;
7.00701;-14;0.974419;-4.98537;1.32489;-7.99995;6.39626;-14.1801;17;-0.0843747;-0.647722;1.12078;6.57946;
7.00703;-14;0.97401;-4.98606;1.32516;-7.99995;6.39436;-14.1789;17;-0.0960575;-0.644548;1.13297;6.57828;
7.00705;-14;0.973621;-4.98674;1.32543;-7.99995;6.39243;-14.1778;17;-0.107628;-0.641399;1.14517;6.57707;
7.00707;-14;0.973252;-4.98742;1.3257;-7.99995;6.39047;-14.1767;17;-0.119089;-0.638274;1.15739;6.57583;
7.00709;-14;0.972902;-4.98809;1.32597;-7.99995;6.38849;-14.1756;17;-0.130443;-0.635173;1.16962;6.57456;
7.0071;-14;0.972571;-4.98876;1.32624;-7.99995;6.38648;-14.1745;17;-0.141693;-0.632094;1.18186;6.57326;
7.00711;-14;0.972259;-4.98942;1.32651;-7.99995;6.38445;-14.1734;17;-0.152842;-0.629037;1.19411;6.57193;
7.00712;-14;0.971965;-4.99007;1.32678;-7.99995;6.3824;-14.1723;17;-0.163892;-0.626002;1.20637;6.57057;
7.00713;-14;0.971688;-4.99072;1.32705;-7.99995;6.38033;-14.1713;17;-0.174847;-0.622988;1.21864;6.56918;
7.00713;-14;0.971429;-4.99136;1.32732;-7.99995;6.37825;-14.1703;17;-0.185708;-0.619994;1.23091;6.56776;
7.00713;-14;0.971187;-4.992;1.32759;-7.99995;6.37615;-14.1693;17;-0.196478;-0.61702;1.24319;6.56632;
7.00713;-14;0.970962;-4.99263;1.32786;-7.99995;6.37404;-14.1683;17;-0.207159;-0.614065;1.25548;6.56485;
7.00713;-14;0.970753;-4.99326;1.32813;-7.99995;6.37192;-14.1673;17;-0.217754;-0.611129;1.26777;6.56335;
7.00712;-14;0.97056;-4.99388;1.3284;-7.99995;6.3698;-14.1663;17;-0.228264;-0.608211;1.28007;6.56182;
7.00711;-14;0.970383;-4.9945;1.32867;-7.99995;6.36767;-14.1653;17;-0.238693;-0.60531;1.29238;6.56027;
7.0071;-14;0.970221;-4.99511;1.32894;-7.99995;6.36554;-14.1643;17;-0.249042;-0.602426;1.30469;6.55869;
7.00709;-14;0.970074;-4.99572;1.32921;-7.99995;6.36341;-14.1634;17;-0.259313;-0.599559;1.317;6.55708;
7.00708;-14;0.969942;-4.99633;1.32947;-7.99995;6.36128;-14.1625;17;-0.269508;-0.596708;1.32932;6.55544;
7.00706;-14;0.969826;-4.99693;1.32973;-7.99995;6.35915;-14.1616;17;-0.279629;-0.593872;1.34164;6.55378;
7.00704;-14;0.969725;-4.99753;1.32999;-7.99995;6.35702;-14.1607;17;-0.289679;-0.591051;1.35396;6.55209;
7.00702;-14;0.969639;-4.99812;1.33025;-7.99995;6.3549;-14.1598;17;-0.299658;-0.588244;1.36629;6.55038;
7.007;-14;0.969567;-4.99871;1.3305;-7.99995;6.35278;-14.1589;17;-0.309569;-0.585451;1.37862;6.54864;
7.00698;-14;0.96951;-4.99929;1.33075;-7.99995;6.35067;-14.158;17;-0.319414;-0.582672;1.39095;6.54688;
7.00695;-14;0.969466;-4.99987;1.331;-7.99995;6.34857;-14.1571;17;-0.329195;-0.579906;1.40328;6.54509;
7.00692;-14;0.969436;-5.00044;1.33125;-7.99995;6.34649;-14.1562;17;-0.338913;-0.577152;1.41561;6.54328;
7.00689;-14;0.969419;-5.00101;1.33149;-7.99995;6.34442;-14.1553;17;-0.34857;-0.574411;1.42794;6.54144;
7.00686;-14;0.969416;-5.00157;1.33173;-7.99995;6.34236;-14.1545;17;-0.358167;-0.571681;1.44027;6.53958;
7.00683;-14;0.969425;-5.00213;1.33197;-7.99995;6.34032;-14.1537;17;-0.367707;-0.568963;1.4526;6.53769;
7.00679;-14;0.969447;-5.00269;1.33221;-7.99995;6.3383;-14.1529;17;-0.37719;-0.566256;1.46493;6.53578;
7.00675;-14;0.969483;-5.00324;1.33244;-7.99995;6.3363;-14.1521;17;-0.386618;-0.563559;1.47726;6.53385;
7.00671;-14;0.969531;-5.00379;1.33267;-7.99995;6.33432;-14.1513;17;-0.395993;-0.560873;1.48958;6.53189;
7.00667;-14;0.969592;-5.00433;1.3329;-7.99995;6.33236;-14.1505;17;-0.405315;-0.558197;1.5019;6.52991;
7.00663;-14;0.969665;-5.00487;1.33312;-7.99995;6.33042;-14.1497;17;-0.414586;-0.55553;1.51422;6.52791;
7.00659;-14;0.969751;-5.0054;1.33334;-7.99995;6.32851;-14.1489;17;-0.423808;-0.552873;1.52654;6.52588;
7.00654;-14;0.969849;-5.00593;1.33356;-7.99995;6.32662;-14.1481;17;-0.432982;-0.550224;1.53885;6.52383;
7.00649;-14;0.969959;-5.00646;1.33377;-7.99995;6.32476;-14.1473;17;-0.442109;-0.547584;1.55116;6.52176;
7.00644;-14;0.970081;-5.00698;1.33398;-7.99995;6.32293;-14.1465;17;-0.45119;-0.544952;1.56347;6.51967;
7.00639;-14;0.970214;-5.0075;1.33418;-7.99995;6.32113;-14.1457;17;-0.460227;-0.542328;1.57577;6.51755;
7.00634;-14;0.97036;-5.00801;1.33438;-7.99995;6.31936;-14.1449;17;-0.46922;-0.539712;1.58807;6.51541;
7.00629;-14;0.970517;-5.00852;1.33458;-7.99995;6.31762;-14.1442;17;-0.478171;-0.537103;1.60036;6.51325;
7.00623;-14;0.970686;-5.00903;1.33477;-7.99995;6.31592;-14.1435;17;-0.487081;-0.534501;1.61265;6.51107;
7.00617;-14;0.970867;-5.00953;1.33496;-7.99995;6.31425;-14.1428;17;-0.495951;-0.531906;1.62493;6.50887;
7.00611;-14;0.971059;-5.01003;1.33514;-7.99995;6.31262;-14.1421;17;-0.504782;-0.529317;1.63721;6.50665;
7.00605;-14;0.971262;-5.01052;1.33532;-7.99995;6.31102;-14.1414;17;-0.513575;-0.526735;1.64948;6.50441;
7.00599;-14;0.971476;-5.01101;1.3355;-7.99995;6.30946;-14.1407;17;-0.522331;-0.524159;1.66174;6.50215;
7.00593;-14;0.971701;-5.0115;1.33567;-7.99995;6.30794;-14.14;17;-0.531051;-0.521589;1.674;6.49987;
7.00586;-14;0.971937;-5.01198;1.33584;-7.99995;6.30646;-14.1393;17;-0.539735;-0.519024;1.68625;6.49757;
7.00579;-14;0.972183;-5.01246;1.336;-7.99995;6.30502;-14.1386;17;-0.548385;-0.516464;1.69849;6.49525;
7.00572;-14;0.97244;-5.01293;1.33616;-7.99995;6.30362;-14.1379;17;-0.557001;-0.513909;1.71073;6.49291;
7.00565;-14;0.972707;-5.0134;1.33631;-7.99995;6.30226;-14.1372;17;-0.565585;-0.511359;1.72296;6.49055;
7.00558;-14;0.972985;-5.01387;1.33646;-7.99995;6.30094;-14.1365;17;-0.574137;-0.508814;1.73518;6.48817;
7.00551;-14;0.973274;-5.01433;1.33661;-7.99995;6.29967;-14.1358;17;-0.582658;-0.506273;1.7474;6.48577;
7.00544;-14;0.973573;-5.01479;1.33675;-7.99995;6.29844;-14.1351;17;-0.591149;-0.503736;1.75961;6.48335;
7.00536;-14;0.973882;-5.01524;1.33689;-7.99995;6.29726;-14.1344;17;-0.599611;-0.501203;1.77181;6.48091;
7.00528;-14;0.974201;-5.01569;1.33702;-7.99995;6.29613;-14.1337;17;-0.608044;-0.498674;1.784;6.47845;
7.0052;-14;0.97453;-5.01614;1.33715;-7.99995;6.29504;-14.1331;17;-0.616449;-0.496149;1.79618;6.47598;
7.00512;-14;0.974869;-5.01658;1.33727;-7.99995;6.294;-14.1325;17;-0.624827;-0.493627;1.80836;6.47349;
7.00504;-14;0.975218;-5.01702;1.33739;-7.99995;6.29301;-14.1319;17;-0.633179;-0.491109;1.82053;6.47098;
7.00496;-14;0.975577;-5.01746;1.3375;-7.99995;6.29207;-14.1313;17;-0.641505;-0.488594;1.83269;6.46845;
7.00488;-14;0.975946;-5.01789;1.33761;-7.99995;6.29118;-14.1307;17;-0.649806;-0.486081;1.84484;6.4659;
7.00479;-14;0.976325;-5.01832;1.33771;-7.99995;6.29034;-14.1301;17;-0.658082;-0.483571;1.85698;6.46334;
7.0047;-14;0.976713;-5.01874;1.33781;-7.99995;6.28956;-14.1295;17;-0.666334;-0.481064;1.86911;6.46076;
7.00461;-14;0.97711;-5.01916;1.3379;-7.99995;6.28883;-14.1289;17;-0.674563;-0.478559;1.88123;6.45816;
7.00452;-14;0.977516;-5.01958;1.33799;-7.99995;6.28815;-14.1283;17;-0.682769;-0.476056;1.89334;6.45555;
7.00443;-14;0.977932;-5.01999;1.33808;-7.99995;6.28753;-14.1277;17;-0.690953;-0.473556;1.90544;6.45292;
7.00434;-14;0.978356;-5.0204;1.33816;-7.99995;6.28696;-14.1271;17;-0.699115;-0.471058;1.91753;6.45027;
7.00425;-14;0.97879;-5.02081;1.33824;-7.99995;6.28645;-14.1265;17;-0.707256;-0.468561;1.92961;6.44761;
7.00416;-14;0.979233;-5.02121;1.33831;-7.99995;6.286;-14.1259;17;-0.715376;-0.466066;1.94168;6.44493;
7.00406;-14;0.979685;-5.02161;1.33838;-7.99995;6.2856;-14.1253;17;-0.723476;-0.463573;1.95374;6.44223;
7.00396;-14;0.980146;-5.022;1.33844;-7.99995;6.28526;-14.1247;17;-0.731556;-0.461081;1.96579;6.43952;
7.00386;-14;0.980615;-5.02239;1.3385;-7.99995;6.28498;-14.1241;17;-0.739617;-0.458591;1.97783;6.43679;
7.00376;-14;0.981092;-5.02278;1.33855;-7.99995;6.28476;-14.1235;17;-0.74766;-0.456102;1.98986;6.43405;
7.00366;-14;0.981578;-5.02316;1.3386;-7.99995;6.2846;-14.1229;17;-0.755684;-0.453614;2.00188;6.43129;
7.00356;-14;0.982072;-5.02354;1.33864;-7.99995;6.2845;-14.1223;17;-0.763691;-0.451127;2.01389;6.42852;
7.00346;-14;0.982574;-5.02392;1.33868;-7.99995;6.28446;-14.1217;17;-0.771681;-0.448641;2.02589;6.42573;
7.00335;-14;0.983085;-5.02429;1.33871;-7.99995;6.28448;-14.1212;17;-0.779654;-0.446156;2.03788;6.42293;
7.00324;-14;0.983603;-5.02466;1.33874;-7.99995;6.28456;-14.1207;17;-0.78761;-0.443671;2.04986;6.42011;
7.00313;-14;0.984129;-5.02503;1.33876;-7.99995;6.2847;-14.1202;17;-0.79555;-0.441187;2.06183;6.41728;
7.00302;-14;0.984663;-5.02539;1.33878;-7.99995;6.28491;-14.1197;17;-0.803475;-0.438703;2.07378;6.41443;
7.00291;-14;0.985205;-5.02575;1.33879;-7.99995;6.28518;-14.1192;17;-0.811384;-0.43622;2.08572;6.41157;
7.0028;-14;0.985755;-5.02611;1.3388;-7.99995;6.28551;-14.1187;17;-0.819278;-0.433737;2.09765;6.40869;
7.00269;-14;0.986313;-5.02646;1.3388;-7.99995;6.28591;-14.1182;17;-0.827158;-0.431254;2.10957;6.4058;
7.00258;-14;0.986878;-5.02681;1.3388;-7.99995;6.28637;-14.1177;17;-0.835023;-0.428771;2.12148;6.40289;
7.00247;-14;0.987451;-5.02715;1.33879;-7.99995;6.2869;-14.1172;17;-0.842874;-0.426288;2.13338;6.39997;
7.00235;-14;0.988031;-5.02749;1.33878;-7.99995;6.28749;-14.1167;17;-0.850712;-0.423805;2.14527;6.39704;
7.00223;-14;0.988618;-5.02783;1.33876;-7.99995;6.28815;-14.1162;17;-0.858537;-0.421322;2.15714;6.39409;
7.00211;-14;0.989213;-5.02816;1.33874;-7.99995;6.28888;-14.1157;17;-0.866349;-0.418839;2.169;6.39113;
7.00199;-14;0.989814;-5.02849;1.33872;-7.99995;6.28967;-14.1152;17;-0.874149;-0.416356;2.18085;6.38815;
7.00187;-14;0.990423;-5.02882;1.33869;-7.99995;6.29053;-14.1147;17;-0.881936;-0.413872;2.19269;6.38516;
7.00175;-14;0.991039;-5.02914;1.33866;-7.99995;6.29146;-14.1142;17;-0.889711;-0.411388;2.20452;6.38216;
7.00163;-14;0.991662;-5.02946;1.33862;-7.99995;6.29246;-14.1137;17;-0.897475;-0.408903;2.21633;6.37914;
7.00151;-14;0.992292;-5.02978;1.33858;-7.99995;6.29352;-14.1132;17;-0.905227;-0.406418;2.22813;6.37611;
7.00139;-14;0.992929;-5.03009;1.33853;-7.99995;6.29465;-14.1127;17;-0.912968;-0.403932;2.23992;6.37307;
7.00126;-14;0.993573;-5.0304;1.33848;-7.99995;6.29585;-14.1122;17;-0.920698;-0.401445;2.2517;6.37002;
7.00113;-14;0.994223;-5.03071;1.33842;-7.99995;6.29712;-14.1117;17;-0.928418;-0.398958;2.26346;6.36695;
7.001;-14;0.99488;-5.03101;1.33836;-7.99995;6.29846;-14.1112;17;-0.936127;-0.39647;2.27521;6.36387;
7.00087;-14;0.995543;-5.03131;1.33829;-7.99995;6.29987;-14.1107;17;-0.943826;-0.393981;2.28695;6.36078;
7.00074;-14;0.996212;-5.03161;1.33822;-7.99995;6.30135;-14.1102;17;-0.951515;-0.391491;2.29868;6.35768;
7.00061;-14;0.996888;-5.0319;1.33815;-7.99995;6.30291;-14.1097;17;-0.959195;-0.389;2.31039;6.35456;
7.00048;-14;0.99757;-5.03219;1.33807;-7.99995;6.30454;-14.1093;17;-0.966865;-0.386508;2.32209;6.35143;
7.00035;-14;0.998258;-5.03248;1.33799;-7.99995;6.30624;-14.1089;17;-0.974526;-0.384015;2.33378;6.34829;
7.00022;-14;0.998953;-5.03276;1.3379;-7.99995;6.30801;-14.1085;17;-0.982178;-0.38152;2.34546;6.34514;
7.00009;-14;0.999653;-5.03304;1.33781;-7.99995;6.30985;-14.1081;17;-0.989822;-0.379024;2.35712;6.34198;
6.99995;-14;1.00036;-5.03332;1.33771;-7.99995;6.31177;-14.1077;17;-0.997457;-0.376527;2.36877;6.3388;
6.99981;-14;1.00107;-5.0336;1.33761;-7.99995;6.31376;-14.1073;17;-1.00508;-0.374029;2.38041;6.33561;
6.99967;-14;1.00179;-5.03387;1.3375;-7.99995;6.31583;-14.1069;17;-1.0127;-0.371529;2.39204;6.33241;
6.99953;-14;1.00251;-5.03414;1.33739;-7.99995;6.31797;-14.1065;17;-1.02031;-0.369028;2.40365;6.3292;
6.99939;-14;1.00324;-5.03441;1.33728;-7.99995;6.32018;-14.1061;17;-1.02791;-0.366525;2.41525;6.32598;
6.99925;-14;1.00398;-5.03467;1.33716;-7.99995;6.32247;-14.1057;17;-1.03551;-0.36402;2.42684;6.32275;
6.99911;-14;1.00472;-5.03493;1.33704;-7.99995;6.32483;-14.1053;17;-1.0431;-0.361514;2.43841;6.31951;
6.99897;-14;1.00547;-5.03519;1.33691;-7.99995;6.32727;-14.1049;17;-1.05068;-0.359006;2.44997;6.31626;
6.99883;-14;1.00622;-5.03544;1.33678;-7.99995;6.32978;-14.1045;17;-1.05825;-0.356497;2.46152;6.313;
6.99869;-14;1.00698;-5.03569;1.33665;-7.99995;6.33237;-14.1041;17;-1.06582;-0.353986;2.47305;6.30972;
6.99855;-14;1.00774;-5.03594;1.33651;-7.99995;6.33503;-14.1037;17;-1.07338;-0.351473;2.48457;6.30643;
6.9984;-14;1.00851;-5.03618;1.33637;-7.99995;6.33777;-14.1033;17;-1.08093;-0.348959;2.49608;6.30313;
6.99825;-14;1.00928;-5.03642;1.33622;-7.99995;6.34059;-14.1029;17;-1.08848;-0.346443;2.50757;6.29982;
6.9981;-14;1.01006;-5.03666;1.33607;-7.99995;6.34348;-14.1025;17;-1.09602;-0.343925;2.51905;6.2965;
6.99795;-14;1.01084;-5.03689;1.33592;-7.99995;6.34645;-14.1021;17;-1.10356;-0.341405;2.53052;6.29317;
6.9978;-14;1.01163;-5.03712;1.33576;-7.99995;6.3495;-14.1017;17;-1.11109;-0.338883;2.54197;6.28983;
6.99765;-14;1.01242;-5.03735;1.3356;-7.99995;6.35262;-14.1013;17;-1.11861;-0.336359;2.55341;6.28648;
6.9975;-14;1.01322;-5.03758;1.33544;-7.99995;6.35582;-14.1009;17;-1.12613;-0.333833;2.56484;6.28312;
6.99735;-14;1.01402;-5.0378;1.33527;-7.99995;6.3591;-14.1005;17;-1.13364;-0.331305;2.57625;6.27975;
6.9972;-14;1.01483;-5.03802;1.3351;-7.99995;6.36246;-14.1001;17;-1.14115;-0.328775;2.58765;6.27637;
6.99705;-14;1.01564;-5.03824;1.33493;-7.99995;6.3659;-14.0997;17;-1.14865;-0.326243;2.59904;6.27298;
6.9969;-14;1.01646;-5.03845;1.33475;-7.99995;6.36941;-14.0993;17;-1.15615;-0.323709;2.61041;6.26958;
6.99674;-14;1.01728;-5.03866;1.33457;-7.99995;6.373;-14.0989;17;-1.16364;-0.321173;2.62177;6.26618;
6.99658;-14;1.0181;-5.03887;1.33438;-7.99995;6.37667;-14.0986;17;-1.17113;-0.318635;2.63312;6.26277;
6.99642;-14;1.01893;-5.03908;1.33419;-7.99995;6.38042;-14.0983;17;-1.17861;-0.316095;2.64445;6.25935;
6.99626;-14;1.01976;-5.03928;1.334;-7.99995;6.38425;-14.098;17;-1.18609;-0.313553;2.65577;6.25592;
6.9961;-14;1.02059;-5.03948;1.3338;-7.99995;6.38816;-14.0977;17;-1.19357;-0.311008;2.66707;6.25248;
6.99594;-14;1.02143;-5.03968;1.3336;-7.99995;6.39215;-14.0974;17;-1.20104;-0.308461;2.67836;6.24903;
6.99578;-14;1.02227;-5.03987;1.3334;-7.99995;6.39622;-14.0971;17;-1.20851;-0.305912;2.68964;6.24557;
6.99562;-14;1.02312;-5.04006;1.3332;-7.99995;6.40037;-14.0968;17;-1.21597;-0.303361;2.7009;6.2421;
6.99546;-14;1.02397;-5.04025;1.33299;-7.99995;6.4046;-14.0965;17;-1.22343;-0.300807;2.71215;6.23862;
6.9953;-14;1.02482;-5.04044;1.33278;-7.99995;6.40891;-14.0962;17;-1.23088;-0.298251;2.72338;6.23513;
6.99514;-14;1.02568;-5.04062;1.33257;-7.99995;6.4133;-14.0959;17;-1.23833;-0.295693;2.7346;6.23164;
6.99498;-14;1.02654;-5.0408;1.33235;-7.99995;6.41777;-14.0956;17;-1.24578;-0.293132;2.74581;6.22814;
6.99482;-14;1.0274;-5.04098;1.33213;-7.99995;6.42232;-14.0953;17;-1.25322;-0.290569;2.757;6.22463;
6.99466;-14;1.02827;-5.04115;1.33191;-7.99995;6.42695;-14.095;17;-1.26066;-0.288004;2.76818;6.22111;
6.99449;-14;1.02914;-5.04132;1.33169;-7.99995;6.43166;-14.0947;17;-1.2681;-0.285436;2.77935;6.21758;
6.99432;-14;1.03001;-5.04149;1.33146;-7.99995;6.43645;-14.0944;17;-1.27553;-0.282866;2.7905;6.21404;
6.99415;-14;1.03089;-5.04166;1.33123;-7.99995;6.44132;-14.0941;17;-1.28296;-0.280293;2.80164;6.2105;
6.99398;-14;1.03177;-5.04182;1.331;-7.99995;6.44627;-14.0938;17;-1.29039;-0.277718;2.81276;6.20695;
6.99381;-14;1.03265;-5.04198;1.33076;-7.99995;6.4513;-14.0935;17;-1.29782;-0.27514;2.82387;6.20339;
6.99364;-14;1.03354;-5.04214;1.33052;-7.99995;6.45641;-14.0932;17;-1.30524;-0.27256;2.83496;6.19982;
6.99347;-14;1.03443;-5.0423;1.33028;-7.99995;6.4616;-14.0929;17;-1.31266;-0.269977;2.84604;6.19625;
6.9933;-14;1.03532;-5.04245;1.33004;-7.99995;6.46688;-14.0926;17;-1.32008;-0.267392;2.85711;6.19267;
6.99313;-14;1.03622;-5.0426;1.3298;-7.99995;6.47224;-14.0923;17;-1.32749;-0.264804;2.86816;6.18908;
6.99296;-14;1.03712;-5.04275;1.32955;-7.99995;6.47768;-14.092;17;-1.3349;-0.262214;2.8792;6.18548;
6.99279;-14;1.03802;-5.0429;1.3293;-7.99995;6.4832;-14.0917;17;-1.34231;-0.259621;2.89022;6.18188;
6.99262;-14;1.03892;-5.04304;1.32905;-7.99995;6.4888;-14.0914;17;-1.34972;-0.257026;2.90123;6.17827;
6.99245;-14;1.03983;-5.04318;1.3288;-7.99995;6.49448;-14.0911;17;-1.35712;-0.254428;2.91223;6.17465;
6.99228;-14;1.04074;-5.04332;1.32854;-7.99995;6.50025;-14.0908;17;-1.36452;-0.251827;2.92321;6.17102;
6.99211;-14;1.04165;-5.04346;1.32828;-7.99995;6.5061;-14.0905;17;-1.37192;-0.249224;2.93418;6.16739;
6.99194;-14;1.04256;-5.04359;1.32802;-7.99995;6.51203;-14.0902;17;-1.37932;-0.246618;2.94513;6.16375;
6.99176;-14;1.04348;-5.04372;1.32776;-7.99995;6.51804;-14.09;17;-1.38672;-0.24401;2.95607;6.1601;
6.99158;-14;1.0444;-5.04385;1.3275;-7.99995;6.52414;-14.0898;17;-1.39411;-0.241399;2.96699;6.15645;
6.9914;-14;1.04532;-5.04398;1.32724;-7.99995;6.53032;-14.0896;17;-1.4015;-0.238785;2.9779;6.15279;
6.99122;-14;1.04624;-5.0441;1.32697;-7.99995;6.53658;-14.0894;17;-1.40889;-0.236169;2.9888;6.14912;
6.99104;-14;1.04716;-5.04422;1.3267;-7.99995;6.54292;-14.0892;17;-1.41628;-0.23355;2.99968;6.14545;
6.99086;-14;1.04809;-5.04434;1.32643;-7.99995;6.54934;-14.089;17;-1.42367;-0.230928;3.01055;6.14177;
6.99068;-14;1.04902;-5.04446;1.32616;-7.99995;6.55585;-14.0888;17;-1.43106;-0.228303;3.0214;6.13808;
6.9905;-14;1.04995;-5.04457;1.32589;-7.99995;6.56244;-14.0886;17;-1.43844;-0.225676;3.03224;6.13439;
6.99032;-14;1.05088;-5.04468;1.32562;-7.99995;6.56911;-14.0884;17;-1.44582;-0.223046;3.04306;6.13069;
6.99014;-14;1.05181;-5.04479;1.32535;-7.99995;6.57587;-14.0882;17;-1.4532;-0.220413;3.05387;6.12699;
6.98996;-14;1.05275;-5.0449;1.32507;-7.99995;6.58271;-14.088;17;-1.46058;-0.217778;3.06466;6.12328;
6.98978;-14;1.05369;-5.045;1.32479;-7.99995;6.58963;-14.0878;17;-1.46796;-0.21514;3.07544;6.11956;
6.9896;-14;1.05463;-5.0451;1.32451;-7.99995;6.59663;-14.0876;17;-1.47534;-0.212499;3.08621;6.11584;
6.98942;-14;1.05557;-5.0452;1.32423;-7.99995;6.60372;-14.0874;17;-1.48272;-0.209856;3.09696;6.11211;
6.98924;-14;1.05651;-5.0453;1.32395;-7.99995;6.61089;-14.0872;17;-1.4901;-0.20721;3.1077;6.10838;
6.98906;-14;1.05745;-5.0454;1.32367;-7.99995;6.61814;-14.087;17;-1.49748;-0.204561;3.11842;6.10464;
6.98888;-14;1.05839;-5.04549;1.32339;-7.99995;6.62548;-14.0868;17;-1.50485;-0.201909;3.12913;6.1009;
6.9887;-14;1.05933;-5.04558;1.32311;-7.99995;6.6329;-14.0866;17;-1.51222;-0.199254;3.13982;6.09715;
6.98852;-14;1.06028;-5.04567;1.32283;-7.99995;6.6404;-14.0864;17;-1.51959;-0.196597;3.1505;6.09339;
6.98834;-14;1.06123;-5.04576;1.32255;-7.99995;6.64798;-14.0862;17;-1.52696;-0.193937;3.16116;6.08963;
6.98815;-14;1.06218;-5.04584;1.32227;-7.99995;6.65565;-14.086;17;-1.53433;-0.191274;3.17181;6.08586;
6.98796;-14;1.06313;-5.04592;1.32199;-7.99995;6.6634;-14.0858;17;-1.5417;-0.188608;3.18244;6.08209;
6.98777;-14;1.06408;-5.046;1.3217;-7.99995;6.67123;-14.0856;17;-1.54907;-0.18594;3.19306;6.07831;
6.98758;-14;1.06503;-5.04608;1.32141;-7.99995;6.67915;-14.0854;17;-1.55644;-0.183269;3.20367;6.07453;
6.98739;-14;1.06598;-5.04616;1.32112;-7.99995;6.68715;-14.0852;17;-1.56381;-0.180595;3.21426;6.07074;
6.9872;-14;1.06693;-5.04623;1.32083;-7.99995;6.69523;-14.085;17;-1.57118;-0.177918;3.22484;6.06695;
6.98701;-14;1.06788;-5.0463;1.32054;-7.99995;6.7034;-14.0848;17;-1.57855;-0.175238;3.2354;6.06315;
6.98682;-14;1.06884;-5.04637;1.32025;-7.99995;6.71165;-14.0846;17;-1.58592;-0.172555;3.24595;6.05935;
6.98663;-14;1.0698;-5.04644;1.31996;-7.99995;6.71998;-14.0845;17;-1.59329;-0.16987;3.25648;6.05555;
6.98644;-14;1.07076;-5.0465;1.31967;-7.99995;6.72839;-14.0844;17;-1.60066;-0.167182;3.267;6.05174;
6.98625;-14;1.07172;-5.04656;1.31938;-7.99995;6.73689;-14.0843;17;-1.60803;-0.164491;3.2775;6.04793;
6.98606;-14;1.07267;-5.04662;1.31909;-7.99995;6.74547;-14.0842;17;-1.6154;-0.161798;3.28799;6.04411;
6.98587;-14;1.07363;-5.04668;1.3188;-7.99995;6.75413;-14.0841;17;-1.62277;-0.159102;3.29846;6.04029;
6.98568;-14;1.07459;-5.04674;1.31852;-7.99995;6.76288;-14.084;17;-1.63014;-0.156403;3.30892;6.03646;
6.98549;-14;1.07555;-5.0468;1.31824;-7.99995;6.77171;-14.0839;17;-1.63751;-0.153701;3.31936;6.03263;
6.9853;-14;1.07651;-5.04685;1.31796;-7.99995;6.78062;-14.0838;17;-1.64488;-0.150996;3.32979;6.02879;
6.98511;-14;1.07747;-5.0469;1.31768;-7.99995;6.78961;-14.0837;17;-1.65225;-0.148289;3.3402;6.02495;
6.98492;-14;1.07843;-5.04695;1.3174;-7.99995;6.79869;-14.0836;17;-1.65962;-0.145579;3.3506;6.02111;
6.98473;-14;1.07939;-5.047;1.31712;-7.99995;6.80785;-14.0835;17;-1.66699;-0.142866;3.36098;6.01726;
6.98454;-14;1.08035;-5.04705;1.31684;-7.99995;6.81709;-14.0834;17;-1.67436;-0.14015;3.37135;6.01341;
6.98435;-14;1.08131;-5.04709;1.31656;-7.99995;6.82641;-14.0833;17;-1.68173;-0.137432;3.3817;6.00956;
6.98416;-14;1.08227;-5.04713;1.31628;-7.99995;6.83582;-14.0832;17;-1.6891;-0.134711;3.39204;6.0057;
6.98397;-14;1.08323;-5.04717;1.316;-7.99995;6.84531;-14.0831;17;-1.69647;-0.131987;3.40236;6.00184;
6.98378;-14;1.08418;-5.04721;1.31572;-7.99995;6.85488;-14.083;17;-1.70384;-0.129261;3.41267;5.99797;
6.98359;-14;1.08514;-5.04725;1.31544;-7.99995;6.86453;-14.0829;17;-1.71121;-0.126532;3.42297;5.9941;
6.9834;-14;1.08609;-5.04728;1.31517;-7.99995;6.87427;-14.0828;17;-1.71858;-0.1238;3.43325;5.99023;
6.98321;-14;1.08704;-5.04731;1.3149;-7.99995;6.88409;-14.0827;17;-1.72595;-0.121065;3.44352;5.98635;
6.98302;-14;1.08799;-5.04734;1.31463;-7.99995;6.89399;-14.0826;17;-1.73332;-0.118327;3.45377;5.98247;
6.98282;-14;1.08894;-5.04737;1.31436;-7.99995;6.90397;-14.0825;17;-1.74069;-0.115586;3.46401;5.97859;
6.98262;-14;1.08989;-5.0474;1.31409;-7.99995;6.91404;-14.0824;17;-1.74806;-0.112843;3.47423;5.9747;
6.98242;-14;1.09084;-5.04743;1.31382;-7.99995;6.92419;-14.0823;17;-1.75543;-0.110097;3.48444;5.97081;
6.98222;-14;1.09179;-5.04745;1.31356;-7.99995;6.93442;-14.0822;17;-1.7628;-0.107348;3.49463;5.96692;
6.98202;-14;1.09274;-5.04747;1.3133;-7.99995;6.94473;-14.0821;17;-1.77017;-0.104596;3.50481;5.96303;
6.98182;-14;1.09369;-5.04749;1.31304;-7.99995;6.95512;-14.082;17;-1.77754;-0.101841;3.51497;5.95913;
6.98162;-14;1.09464;-5.04751;1.31278;-7.99995;6.9656;-14.0819;17;-1.78491;-0.0990837;3.52512;5.95523;
6.98142;-14;1.09559;-5.04753;1.31252;-7.99995;6.97616;-14.0819;17;-1.79228;-0.0963236;3.53525;5.95133;
6.98122;-14;1.09654;-5.04755;1.31226;-7.99995;6.9868;-14.0819;17;-1.79965;-0.0935608;3.54537;5.94743;
6.98102;-14;1.09749;-5.04756;1.31201;-7.99995;6.99752;-14.0819;17;-1.80702;-0.0907953;3.55547;5.94352;
6.98082;-14;1.09843;-5.04757;1.31176;-7.99995;7.00832;-14.0819;17;-1.8144;-0.0880272;3.56555;5.93961;
6.98062;-14;1.09937;-5.04758;1.31151;-7.99995;7.0192;-14.0819;17;-1.82178;-0.0852563;3.57562;5.9357;
6.98042;-14;1.10031;-5.04759;1.31126;-7.99995;7.03016;-14.0819;17;-1.82916;-0.0824827;3.58567;5.93179;
6.98022;-14;1.10125;-5.0476;1.31102;-7.99995;7.0412;-14.0819;17;-1.83654;-0.0797065;3.59571;5.92787;
6.98002;-14;1.10219;-5.04761;1.31078;-7.99995;7.05233;-14.0819;17;-1.84392;-0.0769275;3.60573;5.92395;
6.97982;-14;1.10313;-5.04761;1.31054;-7.99995;7.06354;-14.0819;17;-1.8513;-0.0741457;3.61574;5.92003;
3.99988;-8;11;-14;16.9999;-1;3.99999;-7.00006;10;-14;17;-5.15069e-06;2.99999;
3.99976;-8;11;-14;16.9998;-1;3.99998;-7.00012;10;-14;17;-1.03014e-05;2.99998;
3.99964;-8;11;-14;16.9997;-1;3.99997;-7.00018;10;-14;17;-1.54521e-05;2.99997;
3.99952;-8;11;-14;16.9996;-1;3.99996;-7.00024;10;-14;17;-2.06028e-05;2.99996;
3.9994;-8;11;-14;16.9995;-1;3.99995;-7.0003;10;-14;17;-2.57535e-05;2.99995;
3.99928;-8;11;-14;16.9994;-1;3.99994;-7.00036;10;-14;17;-3.09042e-05;2.99994;
3.99916;-8;11;-14;16.9993;-1;3.99993;-7.00042;10;-14;17;-3.60549e-05;2.99993;
3.99904;-8;11;-14;16.9992;-1;3.99992;-7.00048;10;-14;17;-4.12056e-05;2.99992;
3.99892;-8;11;-14;16.9991;-1;3.99991;-7.00054;10;-14;17;-4.63563e-05;2.99991;
3.9988;-8;11;-14;16.999;-1;3.9999;-7.0006;10;-14;17;-5.1507e-05;2.9999;
3.99868;-8;11;-14;16.9989;-1;3.99989;-7.00066;10;-14;17;-5.66577e-05;2.99989;
3.99856;-8;11;-14;16.9988;-1;3.99988;-7.00072;10;-14;17;-6.18084e-05;2.99988;
3.99844;-8;11;-14;16.9987;-1;3.99987;-7.00078;10;-14;17;-6.69591e-05;2.99987;
3.99832;-8;11;-14;16.9986;-1;3.99986;-7.00084;10;-14;17;-7.21098e-05;2.99986;
3.9982;-8;11;-14;16.9985;-1;3.99985;-7.0009;10;-14;17;-7.72605e-05;2.99985;
3.99808;-8;11;-14;16.9984;-1;3.99984;-7.00096;10;-14;17;-8.24112e-05;2.99984;
3.99796;-8;11;-14;16.9983;-1;3.99983;-7.00102;10;-14;17;-8.75619e-05;2.99983;
3.99784;-8;11;-14;16.9982;-1;3.99982;-7.00108;10;-14;17;-9.27126e-05;2.99982;
3.99772;-8;11;-14;16.9981;-1;3.99981;-7.00114;10;-14;17;-9.78633e-05;2.99981;
3.9976;-8;11;-14;16.998;-1;3.9998;-7.0012;10;-14;17;-0.000103014;2.9998;
3.99748;-8;11;-14;16.9979;-1;3.99979;-7.00126;10;-14;17;-0.000108165;2.99979;
3.99736;-8;11;-14;16.9978;-1;3.99978;-7.00132;10;-14;17;-0.000113316;2.99978;
3.99724;-8;11;-14;16.9977;-1;3.99977;-7.00138;10;-14;17;-0.000118467;2.99977;
3.99712;-8;11;-14;16.9976;-1;3.99976;-7.00144;10;-14;17;-0.000123618;2.99976;
3.997;-8;11;-14;16.9975;-1;3.99975;-7.0015;10;-14;17;-0.000128769;2.99975;
3.99688;-8;11;-14;16.9974;-1;3.99974;-7.00156;10;-14;17;-0.00013392;2.99974;
3.99676;-8;11;-14;16.9973;-1;3.99973;-7.00162;10;-14;17;-0.000139071;2.99973;
3.99664;-8;11;-14;16.9972;-1;3.99972;-7.00168;10;-14;17;-0.000144222;2.99972;
3.99652;-8;11;-14;16.9971;-1;3.99971;-7.00174;10;-14;17;-0.000149373;2.99971;
3.9964;-8;11;-14;16.997;-1;3.9997;-7.0018;10;-14;17;-0.000154524;2.9997;
3.99628;-8;11;-14;16.9969;-1;3.99969;-7.00186;10;-14;17;-0.000159675;2.99969;
3.99616;-8;11;-14;16.9968;-1;3.99968;-7.00192;10;-14;17;-0.000164826;2.99968;
3.99604;-8;11;-14;16.9967;-1;3.99967;-7.00198;10;-14;17;-0.000169977;2.99967;
3.99592;-8;11;-14;16.9966;-1;3.99966;-7.00204;10;-14;17;-0.000175128;2.99966;
3.9958;-8;11;-14;16.9965;-1;3.99965;-7.0021;10;-14;17;-0.000180279;2.99965;
3.99568;-8;11;-14;16.9964;-1;3.99964;-7.00216;10;-14;17;-0.00018543;2.99964;
3.99556;-8;11;-14;16.9963;-1;3.99963;-7.00222;10;-14;17;-0.000190581;2.99963;
3.99544;-8;11;-14;16.9962;-1;3.99962;-7.00228;10;-14;17;-0.000195732;2.99962;
3.99532;-8;11;-14;16.9961;-1;3.99961;-7.00234;10;-14;17;-0.000200883;2.99961;
3.9952;-8;11;-14;16.996;-1;3.9996;-7.0024;10;-14;17;-0.000206034;2.9996;
3.99508;-8;11;-14;16.9959;-1;3.99959;-7.00246;10;-14;17;-0.000211185;2.99959;
3.99496;-8;11;-14;16.9958;-1;3.99958;-7.00252;10;-14;17;-0.000216336;2.99958;
3.99484;-8;11;-14;16.9957;-1;3.99957;-7.00258;10;-14;17;-0.000221487;2.99957;
3.99472;-8;11;-14;16.9956;-1;3.99956;-7.00264;10;-14;17;-0.000226638;2.99956;
3.9946;-8;11;-14;16.9955;-1;3.99955;-7.0027;10;-14;17;-0.000231789;2.99955;
3.99448;-8;11;-14;16.9954;-1;3.99954;-7.00276;10;-14;17;-0.00023694;2.99954;
3.99436;-8;11;-14;16.9953;-1;3.99953;-7.00282;10;-14;17;-0.000242091;2.99953;
3.99424;-8;11;-14;16.9952;-1;3.99952;-7.00288;10;-14;17;-0.000247242;2.99952;
3.99412;-8;11;-14;16.9951;-1;3.99951;-7.00294;10;-14;17;-0.000252393;2.99951;
3.994;-8;11;-14;16.995;-1;3.9995;-7.003;10;-14;17;-0.000257544;2.9995;
3.99388;-8;11;-14;16.9949;-1;3.99949;-7.00306;10;-14;17;-0.000262695;2.99949;
3.99376;-8;11;-14;16.9948;-1;3.99948;-7.00312;10;-14;17;-0.000267846;2.99948;
3.99364;-8;11;-14;16.9947;-1;3.99947;-7.00318;10;-14;17;-0.000272997;2.99947;
3.99352;-8;11;-14;16.9946;-1;3.99946;-7.00324;10;-14;17;-0.000278148;2.99946;
3.9934;-8;11;-14;16.9945;-1;3.99945;-7.0033;10;-14;17;-0.000283299;2.99945;
3.99328;-8;11;-14;16.9944;-1;3.99944;-7.00336;10;-14;17;-0.00028845;2.99944;
3.99316;-8;11;-14;16.9943;-1;3.99943;-7.00342;10;-14;17;-0.000293601;2.99943;
3.99304;-8;11;-14;16.9942;-1;3.99942;-7.00348;10;-14;17;-0.000298752;2.99942;
3.99292;-8;11;-14;16.9941;-1;3.99941;-7.00354;10;-14;17;-0.000303903;2.99941;
3.9928;-8;11;-14;16.994;-1;3.9994;-7.0036;10;-14;17;-0.000309054;2.9994;
3.99268;-8;11;-14;16.9939;-1;3.99939;-7.00366;10;-14;17;-0.000314205;2.99939;
3.99256;-8;11;-14;16.9938;-1;3.99938;-7.00372;10;-14;17;-0.000319356;2.99938;
3.99244;-8;11;-14;16.9937;-1;3.99937;-7.00378;10;-14;17;-0.000324507;2.99937;
3.99232;-8;11;-14;16.9936;-1;3.99936;-7.00384;10;-14;17;-0.000329658;2.99936;
3.9922;-8;11;-14;16.9935;-1;3.99935;-7.0039;10;-14;17;-0.000334809;2.99935;
3.99208;-8;11;-14;16.9934;-1;3.99934;-7.00396;10;-14;17;-0.00033996;2.99934;
3.99196;-8;11;-14;16.9933;-1;3.99933;-7.00402;10;-14;17;-0.000345111;2.99933;
3.99184;-8;11;-14;16.9932;-1;3.99932;-7.00408;10;-14;17;-0.000350262;2.99932;
3.99172;-8;11;-14;16.9931;-1;3.99931;-7.00414;10;-14;17;-0.000355413;2.99931;
3.9916;-8;11;-14;16.993;-1;3.9993;-7.0042;10;-14;17;-0.000360564;2.9993;
3.99148;-8;11;-14;16.9929;-1;3.99929;-7.00426;10;-14;17;-0.000365715;2.99929;
3.99136;-8;11;-14;16.9928;-1;3.99928;-7.00432;10;-14;17;-0.000370866;2.99928;
3.99124;-8;11;-14;16.9927;-1;3.99927;-7.00438;10;-14;17;-0.000376017;2.99927;
3.99112;-8;11;-14;16.9926;-1;3.99926;-7.00444;10;-14;17;-0.000381168;2.99926;
3.991;-8;11;-14;16.9925;-1;3.99925;-7.0045;10;-14;17;-0.000386319;2.99925;
3.99088;-8;11;-14;16.9924;-1;3.99924;-7.00456;10;-14;17;-0.00039147;2.99924;
3.99076;-8;11;-14;16.9923;-1;3.99923;-7.00462;10;-14;17;-0.000396621;2.99923;
3.99064;-8;11;-14;16.9922;-1;3.99922;-7.00468;10;-14;17;-0.000401772;2.99922;
3.99052;-8;11;-14;16.9921;-1;3.99921;-7.00474;10;-14;17;-0.000406923;2.99921;
3.9904;-8;11;-14;16.992;-1;3.9992;-7.0048;10;-14;17;-0.000412074;2.9992;
3.99028;-8;11;-14;16.9919;-1;3.99919;-7.00486;10;-14;17;-0.000417225;2.99919;
3.99016;-8;11;-14;16.9918;-1;3.99918;-7.00492;10;-14;17;-0.000422376;2.99918;
3.99004;-8;11;-14;16.9917;-1;3.99917;-7.00498;10;-14;17;-0.000427527;2.99917;
3.98992;-8;11;-14;16.9916;-1;3.99916;-7.00504;10;-14;17;-0.000432678;2.99916;
3.9898;-8;11;-14;16.9915;-1;3.99915;-7.0051;10;-14;17;-0.000437829;2.99915;
3.98968;-8;11;-14;16.9914;-1;3.99914;-7.00516;10;-14;17;-0.00044298;2.99914;
3.98956;-8;11;-14;16.9913;-1;3.99913;-7.00522;10;-14;17;-0.000448131;2.99913;
3.98944;-8;11;-14;16.9912;-1;3.99912;-7.00528;10;-14;17;-0.000453282;2.99912;
3.98932;-8;11;-14;16.9911;-1;3.99911;-7.00534;10;-14;17;-0.000458433;2.99911;
3.9892;-8;11;-14;16.991;-1;3.9991;-7.0054;10;-14;17;-0.000463584;2.9991;
3.98908;-8;11;-14;16.9909;-1;3.99909;-7.00546;10;-14;17;-0.000468735;2.99909;
3.98896;-8;11;-14;16.9908;-1;3.99908;-7.00552;10;-14;17;-0.000473886;2.99908;
3.98884;-8;11;-14;16.9907;-1;3.99907;-7.00558;10;-14;17;-0.000479037;2.99907;
3.98872;-8;11;-14;16.9906;-1;3.99906;-7.00564;10;-14;17;-0.000484188;2.99906;
3.9886;-8;11;-14;16.9905;-1;3.99905;-7.0057;10;-14;17;-0.000489339;2.99905;
3.98848;-8;11;-14;16.9904;-1;3.99904;-7.00576;10;-14;17;-0.00049449;2.99904;
3.98836;-8;11;-14;16.9903;-1;3.99903;-7.00582;10;-14;17;-0.000499641;2.99903;
3.98824;-8;11;-14;16.9902;-1;3.99902;-7.00588;10;-14;17;-0.000504792;2.99902;
3.98812;-8;11;-14;16.9901;-1;3.99901;-7.00594;10;-14;17;-0.000509943;2.99901;
3.988;-8;11;-14;16.99;-1;3.999;-7.006;10;-14;17;-0.000515094;2.999;
3.98788;-8;11;-14;16.9899;-1;3.99899;-7.00606;10;-14;17;-0.000520245;2.99899;
3.98776;-8;11;-14;16.9898;-1;3.99898;-7.00612;10;-14;17;-0.000525396;2.99898;
3.98764;-8;11;-14;16.9897;-1;3.99897;-7.00618;10;-14;17;-0.000530547;2.99897;
3.98752;-8;11;-14;16.9896;-1;3.99896;-7.00624;10;-14;17;-0.000535698;2.99896;
3.9874;-8;11;-14;16.9895;-1;3.99895;-7.0063;10;-14;17;-0.000540849;2.99895;
3.98728;-8;11;-14;16.9894;-1;3.99894;-7.00636;10;-14;17;-0.000546;2.99894;
3.98716;-8;11;-14;16.9893;-1;3.99893;-7.00642;10;-14;17;-0.000551151;2.99893;
3.98704;-8;11;-14;16.9892;-1;3.99892;-7.00648;10;-14;17;-0.000556302;2.99892;
3.98692;-8;11;-14;16.9891;-1;3.99891;-7.00654;10;-14;17;-0.000561453;2.99891;
3.9868;-8;11;-14;16.989;-1;3.9989;-7.0066;10;-14;17;-0.000566604;2.9989;
3.98668;-8;11;-14;16.9889;-1;3.99889;-7.00666;10;-14;17;-0.000571755;2.99889;
3.98656;-8;11;-14;16.9888;-1;3.99888;-7.00672;10;-14;17;-0.000576906;2.99888;
3.98644;-8;11;-14;16.9887;-1;3.99887;-7.00678;10;-14;17;-0.000582057;2.99887;
3.98632;-8;11;-14;16.9886;-1;3.99886;-7.00684;10;-14;17;-0.000587208;2.99886;
3.9862;-8;11;-14;16.9885;-1;3.99885;-7.0069;10;-14;17;-0.000592359;2.99885;
3.98608;-8;11;-14;16.9884;-1;3.99884;-7.00696;10;-14;17;-0.00059751;2.99884;
3.98596;-8;11;-14;16.9883;-1;3.99883;-7.00702;10;-14;17;-0.000602661;2.99883;
3.98584;-8;11;-14;16.9882;-1;3.99882;-7.00708;10;-14;17;-0.000607812;2.99882;
3.98572;-8;11;-14;16.9881;-1;3.99881;-7.00714;10;-14;17;-0.000612963;2.99881;
3.9856;-8;11;-14;16.988;-1;3.9988;-7.0072;10;-14;17;-0.000618114;2.9988;
3.98548;-8;11;-14;16.9879;-1;3.99879;-7.00726;10;-14;17;-0.000623265;2.99879;
3.98536;-8;11;-14;16.9878;-1;3.99878;-7.00732;10;-14;17;-0.000628416;2.99878;
3.98524;-8;11;-14;16.9877;-1;3.99877;-7.00738;10;-14;17;-0.000633567;2.99877;
3.98512;-8;11;-14;16.9876;-1;3.99876;-7.00744;10;-14;17;-0.000638718;2.99876;
3.985;-8;11;-14;16.9875;-1;3.99875;-7.0075;10;-14;17;-0.000643869;2.99875;
3.98488;-8;11;-14;16.9874;-1;3.99874;-7.00756;10;-14;17;-0.00064902;2.99874;
3.98476;-8;11;-14;16.9873;-1;3.99873;-7.00762;10;-14;17;-0.000654171;2.99873;
3.98464;-8;11;-14;16.9872;-1;3.99872;-7.00768;10;-14;17;-0.000659322;2.99872;
3.98452;-8;11;-14;16.9871;-1;3.99871;-7.00774;10;-14;17;-0.000664473;2.99871;
3.9844;-8;11;-14;16.987;-1;3.9987;-7.0078;10;-14;17;-0.000669624;2.9987;
3.98428;-8;11;-14;16.9869;-1;3.99869;-7.00786;10;-14;17;-0.000674775;2.99869;
3.98416;-8;11;-14;16.9868;-1;3.99868;-7.00792;10;-14;17;-0.000679926;2.99868;
3.98404;-8;11;-14;16.9867;-1;3.99867;-7.00798;10;-14;17;-0.000685077;2.99867;
3.98392;-8;11;-14;16.9866;-1;3.99866;-7.00804;10;-14;17;-0.000690228;2.99866;
3.9838;-8;11;-14;16.9865;-1;3.99865;-7.0081;10;-14;17;-0.000695379;2.99865;
3.98368;-8;11;-14;16.9864;-1;3.99864;-7.00816;10;-14;17;-0.00070053;2.99864;
3.98356;-8;11;-14;16.9863;-1;3.99863;-7.00822;10;-14;17;-0.000705681;2.99863;
3.98344;-8;11;-14;16.9862;-1;3.99862;-7.00828;10;-14;17;-0.000710832;2.99862;
3.98332;-8;11;-14;16.9861;-1;3.99861;-7.00834;10;-14;17;-0.000715983;2.99861;
3.9832;-8;11;-14;16.986;-1;3.9986;-7.0084;10;-14;17;-0.000721134;2.9986;
3.98308;-8;11;-14;16.9859;-1;3.99859;-7.00846;10;-14;17;-0.000726285;2.99859;
3.98296;-8;11;-14;16.9858;-1;3.99858;-7.00852;10;-14;17;-0.000731436;2.99858;
3.98284;-8;11;-14;16.9857;-1;3.99857;-7.00858;10;-14;17;-0.000736587;2.99857;
3.98272;-8;11;-14;16.9856;-1;3.99856;-7.00864;10;-14;17;-0.000741738;2.99856;
3.9826;-8;11;-14;16.9855;-1;3.99855;-7.0087;10;-14;17;-0.000746889;2.99855;
3.98248;-8;11;-14;16.9854;-1;3.99854;-7.00876;10;-14;17;-0.00075204;2.99854;
3.98236;-8;11;-14;16.9853;-1;3.99853;-7.00882;10;-14;17;-0.000757191;2.99853;
3.98224;-8;11;-14;16.9852;-1;3.99852;-7.00888;10;-14;17;-0.000762342;2.99852;
3.98212;-8;11;-14;16.9851;-1;3.99851;-7.00894;10;-14;17;-0.000767493;2.99851;
3.982;-8;11;-14;16.985;-1;3.9985;-7.009;10;-14;17;-0.000772644;2.9985;
3.98188;-8;11;-14;16.9849;-1;3.99849;-7.00906;10;-14;17;-0.000777795;2.99849;
3.98176;-8;11;-14;16.9848;-1;3.99848;-7.00912;10;-14;17;-0.000782946;2.99848;
