1.9675;-1.9672;1.9675;-0.098342;-0.0283918;0.0287428;-0.0283918;-1.02576;1.02606;-1.02576;1.9233;-2.02164;1.9233;
1.92846;-1.92574;1.92846;-0.21738;-0.0635665;0.0662484;-0.0635665;-1.05662;1.05892;-1.05662;1.83188;-2.04926;1.83188;
1.88282;-1.87413;1.88282;-0.359273;-0.106629;0.115259;-0.106629;-1.09217;1.09924;-1.09217;1.72472;-2.08412;1.72472;
1.83417;-1.81504;1.83417;-0.516897;-0.156228;0.176303;-0.156228;-1.12843;1.14332;-1.12843;1.60725;-2.12471;1.60725;
1.79114;-1.75953;1.79114;-0.667268;-0.206512;0.243562;-0.206512;-1.15702;1.1796;-1.15702;1.49494;-2.16347;1.49494;
1.76081;-1.72041;1.76081;-0.785967;-0.25015;0.306311;-0.25015;-1.1724;1.19684;-1.1724;1.40342;-2.19102;1.40342;
1.74273;-1.70043;1.74273;-0.867628;-0.284094;0.357419;-0.284094;-1.17699;1.19566;-1.17699;1.33629;-2.20517;1.33629;
1.73311;-1.69525;1.73311;-0.91992;-0.309739;0.396544;-0.309739;-1.17546;1.18275;-1.17546;1.28898;-2.20911;1.28898;
1.72865;-1.69981;1.72865;-0.95227;-0.329708;0.426598;-0.329708;-1.17092;1.16362;-1.17092;1.25552;-2.20659;1.25552;
1.72721;-1.71032;1.72721;-0.971906;-0.346118;0.450615;-0.346118;-1.16501;1.14156;-1.16501;1.23114;-2.20035;1.23114;
1.72751;-1.72431;1.72751;-0.983622;-0.360347;0.470801;-0.360347;-1.15857;1.11841;-1.15857;1.21262;-2.19215;1.21262;
1.7288;-1.74022;1.7288;-0.990438;-0.37323;0.488575;-0.37323;-1.15204;1.09518;-1.15204;1.19789;-2.18304;1.19789;
1.73063;-1.75711;1.73063;-0.994218;-0.385262;0.504803;-0.385262;-1.14565;1.07245;-1.14565;1.18565;-2.17364;1.18565;
1.73275;-1.77441;1.73275;-0.9961;-0.396732;0.519999;-0.396732;-1.13952;1.05054;-1.13952;1.1751;-2.16431;1.1751;
1.73501;-1.79177;1.73501;-0.99678;-0.40781;0.534467;-0.40781;-1.1337;1.02961;-1.1337;1.16575;-2.15524;1.16575;
1.73732;-1.80899;1.73732;-0.996684;-0.418596;0.548386;-0.418596;-1.12822;1.00974;-1.12822;1.15727;-2.14653;1.15727;
1.73964;-1.82596;1.73964;-0.996071;-0.429148;0.56186;-0.429148;-1.12309;0.990961;-1.12309;1.14948;-2.13822;1.14948;
1.74194;-1.84261;1.74194;-0.995103;-0.439502;0.574953;-0.439502;-1.1183;0.973267;-1.1183;1.14223;-2.13033;1.14223;
1.74421;-1.85892;1.74421;-0.993877;-0.449677;0.587703;-0.449677;-1.11383;0.956632;-1.11383;1.13545;-2.12284;1.13545;
1.74645;-1.87487;1.74645;-0.99246;-0.459687;0.600138;-0.459687;-1.10967;0.941025;-1.10967;1.12907;-2.11574;1.12907;
1.74866;-1.89046;1.74866;-0.990893;-0.469541;0.612275;-0.469541;-1.10581;0.926406;-1.10581;1.12304;-2.10901;1.12304;
1.75084;-1.9057;1.75084;-0.989203;-0.479244;0.624129;-0.479244;-1.10222;0.912734;-1.10222;1.11733;-2.10263;1.11733;
1.75299;-1.92059;1.75299;-0.987411;-0.4888;0.635713;-0.4888;-1.0989;0.899967;-1.0989;1.11191;-2.09657;1.11191;
1.75512;-1.93515;1.75512;-0.98553;-0.498213;0.647037;-0.498213;-1.09582;0.888062;-1.09582;1.10676;-2.09081;1.10676;
1.75724;-1.9494;1.75724;-0.983573;-0.507486;0.658113;-0.507486;-1.09297;0.876979;-1.09297;1.10186;-2.08534;1.10186;
1.75934;-1.96335;1.75934;-0.981551;-0.516622;0.668952;-0.516622;-1.09034;0.866678;-1.09034;1.09719;-2.08013;1.09719;
1.76143;-1.97701;1.76143;-0.97947;-0.525623;0.679564;-0.525623;-1.08791;0.857122;-1.08791;1.09273;-2.07516;1.09273;
1.76352;-1.99039;1.76352;-0.977337;-0.534492;0.689959;-0.534492;-1.08568;0.848276;-1.08568;1.08847;-2.07042;1.08847;
1.76561;-2.00351;1.76561;-0.975158;-0.543231;0.700148;-0.543231;-1.08363;0.840104;-1.08363;1.08439;-2.0659;1.08439;
1.7677;-2.01639;1.7677;-0.972937;-0.551843;0.71014;-0.551843;-1.08175;0.832574;-1.08175;1.08049;-2.06157;1.08049;
1.7698;-2.02903;1.7698;-0.970681;-0.560331;0.719945;-0.560331;-1.08003;0.825657;-1.08003;1.07675;-2.05743;1.07675;
1.77191;-2.04145;1.77191;-0.968393;-0.568696;0.729573;-0.568696;-1.07846;0.819323;-1.07846;1.07316;-2.05347;1.07316;
1.77403;-2.05366;1.77403;-0.966078;-0.576941;0.739033;-0.576941;-1.07703;0.813545;-1.07703;1.06971;-2.04967;1.06971;
1.77616;-2.06567;1.77616;-0.963739;-0.585068;0.748335;-0.585068;-1.07573;0.808297;-1.07573;1.06639;-2.04603;1.06639;
1.77831;-2.0775;1.77831;-0.961378;-0.59308;0.757487;-0.59308;-1.07456;0.803555;-1.07456;1.06319;-2.04254;1.06319;
1.78047;-2.08915;1.78047;-0.958998;-0.600978;0.766498;-0.600978;-1.07351;0.799296;-1.07351;1.0601;-2.03919;1.0601;
1.78265;-2.10063;1.78265;-0.956599;-0.608764;0.775376;-0.608764;-1.07257;0.795498;-1.07257;1.05712;-2.03597;1.05712;
1.78486;-2.11195;1.78486;-0.954185;-0.616441;0.784128;-0.616441;-1.07174;0.792141;-1.07174;1.05425;-2.03288;1.05425;
1.78709;-2.12312;1.78709;-0.95176;-0.624011;0.792764;-0.624011;-1.07101;0.789206;-1.07101;1.05147;-2.02991;1.05147;
1.78934;-2.13415;1.78934;-0.949324;-0.631475;0.80129;-0.631475;-1.07037;0.786675;-1.07037;1.04878;-2.02705;1.04878;
1.79162;-2.14504;1.79162;-0.94688;-0.638836;0.809714;-0.638836;-1.06982;0.784531;-1.06982;1.04617;-2.0243;1.04617;
1.79393;-2.15581;1.79393;-0.944427;-0.646095;0.818042;-0.646095;-1.06936;0.782758;-1.06936;1.04364;-2.02166;1.04364;
1.79626;-2.16645;1.79626;-0.941968;-0.653254;0.826282;-0.653254;-1.06898;0.78134;-1.06898;1.04119;-2.01912;1.04119;
1.79862;-2.17698;1.79862;-0.939504;-0.660315;0.834439;-0.660315;-1.06867;0.780264;-1.06867;1.03881;-2.01668;1.03881;
1.80101;-2.1874;1.80101;-0.937036;-0.66728;0.84252;-0.66728;-1.06843;0.779516;-1.06843;1.03649;-2.01433;1.03649;
1.80343;-2.19772;1.80343;-0.934564;-0.674151;0.85053;-0.674151;-1.06826;0.779083;-1.06826;1.03424;-2.01208;1.03424;
1.80588;-2.20794;1.80588;-0.932089;-0.680929;0.858476;-0.680929;-1.06816;0.778953;-1.06816;1.03205;-2.00991;1.03205;
1.80837;-2.21807;1.80837;-0.929613;-0.687616;0.866363;-0.687616;-1.06812;0.779115;-1.06812;1.02991;-2.00783;1.02991;
1.81089;-2.22812;1.81089;-0.927135;-0.694213;0.874196;-0.694213;-1.06813;0.779558;-1.06813;1.02782;-2.00583;1.02782;
1.81344;-2.23808;1.81344;-0.924656;-0.700723;0.88198;-0.700723;-1.0682;0.780272;-1.0682;1.02579;-2.00392;1.02579;
1.81602;-2.24797;1.81602;-0.922176;-0.707147;0.889719;-0.707147;-1.06832;0.781248;-1.06832;1.0238;-2.00209;1.0238;
1.81864;-2.25779;1.81864;-0.919695;-0.713486;0.897418;-0.713486;-1.06849;0.782476;-1.06849;1.02186;-2.00034;1.02186;
1.82129;-2.26754;1.82129;-0.917214;-0.719742;0.905082;-0.719742;-1.06871;0.783947;-1.06871;1.01996;-1.99866;1.01996;
1.82397;-2.27722;1.82397;-0.914733;-0.725916;0.912715;-0.725916;-1.06897;0.785654;-1.06897;1.0181;-1.99706;1.0181;
1.82669;-2.28684;1.82669;-0.912251;-0.732009;0.920321;-0.732009;-1.06927;0.787588;-1.06927;1.01628;-1.99553;1.01628;
1.82944;-2.29641;1.82944;-0.909769;-0.738024;0.927903;-0.738024;-1.06961;0.789742;-1.06961;1.0145;-1.99408;1.0145;
1.83223;-2.30593;1.83223;-0.907288;-0.743961;0.935466;-0.743961;-1.06999;0.792109;-1.06999;1.01276;-1.9927;1.01276;
1.83505;-2.3154;1.83505;-0.904809;-0.749823;0.943013;-0.749823;-1.07041;0.794683;-1.07041;1.01105;-1.99139;1.01105;
1.8379;-2.32482;1.8379;-0.90233;-0.75561;0.950547;-0.75561;-1.07086;0.797457;-1.07086;1.00937;-1.99015;1.00937;
1.84079;-2.3342;1.84079;-0.899851;-0.761324;0.958071;-0.761324;-1.07134;0.800425;-1.07134;1.00773;-1.98898;1.00773;
1.84371;-2.34354;1.84371;-0.897374;-0.766966;0.965589;-0.766966;-1.07185;0.803582;-1.07185;1.00612;-1.98788;1.00612;
1.84666;-2.35284;1.84666;-0.894898;-0.772537;0.973104;-0.772537;-1.07239;0.806921;-1.07239;1.00453;-1.98685;1.00453;
1.84965;-2.36211;1.84965;-0.892421;-0.778038;0.980618;-0.778038;-1.07296;0.810438;-1.07296;1.00297;-1.98589;1.00297;
1.85267;-2.37135;1.85267;-0.889943;-0.783471;0.988133;-0.783471;-1.07356;0.814127;-1.07356;1.00144;-1.985;1.00144;
1.85573;-2.38056;1.85573;-0.887465;-0.788837;0.995652;-0.788837;-1.07418;0.817984;-1.07418;0.999936;-1.98417;0.999936;
1.85882;-2.38974;1.85882;-0.884988;-0.794137;1.00318;-0.794137;-1.07482;0.822004;-1.07482;0.998456;-1.98341;0.998456;
1.86194;-2.3989;1.86194;-0.882511;-0.799373;1.01071;-0.799373;-1.07549;0.826183;-1.07549;0.997001;-1.98272;0.997001;
1.86509;-2.40804;1.86509;-0.880033;-0.804545;1.01826;-0.804545;-1.07618;0.830516;-1.07618;0.995569;-1.9821;0.995569;
1.86828;-2.41716;1.86828;-0.877554;-0.809654;1.02582;-0.809654;-1.07689;0.834999;-1.07689;0.99416;-1.98154;0.99416;
1.8715;-2.42627;1.8715;-0.875074;-0.814702;1.03339;-0.814702;-1.07762;0.839629;-1.07762;0.992773;-1.98105;0.992773;
1.87475;-2.43536;1.87475;-0.872594;-0.81969;1.04098;-0.81969;-1.07837;0.844402;-1.07837;0.991406;-1.98063;0.991406;
1.87803;-2.44444;1.87803;-0.870112;-0.824618;1.04859;-0.824618;-1.07913;0.849314;-1.07913;0.99006;-1.98028;0.99006;
1.88134;-2.45351;1.88134;-0.867628;-0.829488;1.05622;-0.829488;-1.07991;0.854362;-1.07991;0.988734;-1.97999;0.988734;
1.88468;-2.46258;1.88468;-0.865143;-0.8343;1.06387;-0.8343;-1.08071;0.859542;-1.08071;0.987428;-1.97977;0.987428;
1.88805;-2.47164;1.88805;-0.862656;-0.839056;1.07154;-0.839056;-1.08152;0.864851;-1.08152;0.98614;-1.97962;0.98614;
1.89145;-2.4807;1.89145;-0.860167;-0.843756;1.07924;-0.843756;-1.08234;0.870286;-1.08234;0.984871;-1.97954;0.984871;
1.89488;-2.48976;1.89488;-0.857675;-0.848402;1.08696;-0.848402;-1.08318;0.875844;-1.08318;0.98362;-1.97952;0.98362;
1.89834;-2.49882;1.89834;-0.855181;-0.852994;1.09471;-0.852994;-1.08403;0.881523;-1.08403;0.982386;-1.97957;0.982386;
1.90183;-2.50789;1.90183;-0.852685;-0.857533;1.10249;-0.857533;-1.08489;0.887319;-1.08489;0.981168;-1.97969;0.981168;
1.90535;-2.51696;1.90535;-0.850186;-0.862021;1.1103;-0.862021;-1.08576;0.89323;-1.08576;0.979966;-1.97988;0.979966;
1.9089;-2.52604;1.9089;-0.847684;-0.866458;1.11814;-0.866458;-1.08664;0.899254;-1.08664;0.978781;-1.98014;0.978781;
1.91248;-2.53513;1.91248;-0.845179;-0.870844;1.12601;-0.870844;-1.08753;0.905387;-1.08753;0.977611;-1.98047;0.977611;
1.91608;-2.54423;1.91608;-0.842671;-0.875181;1.13391;-0.875181;-1.08843;0.911628;-1.08843;0.976456;-1.98087;0.976456;
1.91971;-2.55334;1.91971;-0.840159;-0.879469;1.14184;-0.879469;-1.08934;0.917973;-1.08934;0.975316;-1.98134;0.975316;
1.92337;-2.56247;1.92337;-0.837643;-0.883709;1.1498;-0.883709;-1.09026;0.924421;-1.09026;0.974191;-1.98188;0.974191;
1.92705;-2.57162;1.92705;-0.835123;-0.887903;1.15779;-0.887903;-1.09119;0.930969;-1.09119;0.973079;-1.98249;0.973079;
1.93076;-2.58078;1.93076;-0.832599;-0.89205;1.16582;-0.89205;-1.09213;0.937615;-1.09213;0.971981;-1.98317;0.971981;
1.9345;-2.58997;1.9345;-0.83007;-0.896151;1.17388;-0.896151;-1.09307;0.944356;-1.09307;0.970897;-1.98392;0.970897;
1.93826;-2.59918;1.93826;-0.827538;-0.900208;1.18198;-0.900208;-1.09402;0.951191;-1.09402;0.969825;-1.98475;0.969825;
1.94205;-2.60841;1.94205;-0.825001;-0.90422;1.19011;-0.90422;-1.09498;0.958118;-1.09498;0.968766;-1.98565;0.968766;
1.94586;-2.61767;1.94586;-0.822459;-0.908189;1.19828;-0.908189;-1.09594;0.965134;-1.09594;0.96772;-1.98662;0.96772;
1.94969;-2.62695;1.94969;-0.819912;-0.912115;1.20648;-0.912115;-1.09691;0.972238;-1.09691;0.966686;-1.98767;0.966686;
1.95355;-2.63626;1.95355;-0.817359;-0.915998;1.21472;-0.915998;-1.09788;0.979427;-1.09788;0.965664;-1.98879;0.965664;
1.95743;-2.6456;1.95743;-0.8148;-0.91984;1.22299;-0.91984;-1.09885;0.9867;-1.09885;0.964654;-1.98998;0.964654;
1.96133;-2.65497;1.96133;-0.812237;-0.923641;1.2313;-0.923641;-1.09983;0.994055;-1.09983;0.963655;-1.99125;0.963655;
1.96526;-2.66438;1.96526;-0.809667;-0.927401;1.23964;-0.927401;-1.10081;1.00149;-1.10081;0.962667;-1.99259;0.962667;
1.96921;-2.67382;1.96921;-0.807093;-0.931121;1.24802;-0.931121;-1.1018;1.009;-1.1018;0.961689;-1.99401;0.961689;
1.97318;-2.6833;1.97318;-0.804513;-0.934802;1.25643;-0.934802;-1.10279;1.01659;-1.10279;0.960722;-1.99551;0.960722;
1.97318;-2.6833;1.97318;-0.804513;-0.934802;1.25643;-0.934802;-1.10279;1.01659;-1.10279;0.960722;-1.99551;0.960722;
1.97717;-2.69282;1.97717;-0.801927;-0.938444;1.26488;-0.938444;-1.10378;1.02425;-1.10378;0.959765;-1.99708;0.959765;
1.98118;-2.70238;1.98118;-0.799336;-0.942048;1.27337;-0.942048;-1.10477;1.03199;-1.10477;0.958817;-1.99873;0.958817;
1.98521;-2.71198;1.98521;-0.796738;-0.945614;1.28189;-0.945614;-1.10577;1.0398;-1.10577;0.957879;-2.00046;0.957879;
1.98926;-2.72162;1.98926;-0.794134;-0.949143;1.29045;-0.949143;-1.10677;1.04768;-1.10677;0.95695;-2.00226;0.95695;
1.99333;-2.7313;1.99333;-0.791523;-0.952635;1.29904;-0.952635;-1.10777;1.05563;-1.10777;0.95603;-2.00414;0.95603;
1.99742;-2.74103;1.99742;-0.788905;-0.956091;1.30766;-0.956091;-1.10877;1.06364;-1.10877;0.955119;-2.0061;0.955119;
2.00153;-2.75081;2.00153;-0.786282;-0.959511;1.31632;-0.959511;-1.10977;1.07172;-1.10977;0.954216;-2.00814;0.954216;
2.00566;-2.76063;2.00566;-0.783652;-0.962895;1.32501;-0.962895;-1.11077;1.07986;-1.11077;0.953321;-2.01026;0.953321;
2.00981;-2.7705;2.00981;-0.781016;-0.966244;1.33374;-0.966244;-1.11177;1.08806;-1.11177;0.952433;-2.01246;0.952433;
2.01397;-2.78042;2.01397;-0.778374;-0.969559;1.3425;-0.969559;-1.11277;1.09632;-1.11277;0.951553;-2.01474;0.951553;
2.01815;-2.79039;2.01815;-0.775725;-0.97284;1.35129;-0.97284;-1.11377;1.10464;-1.11377;0.95068;-2.0171;0.95068;
2.02235;-2.80041;2.02235;-0.773069;-0.976087;1.36011;-0.976087;-1.11477;1.11302;-1.11477;0.949814;-2.01954;0.949814;
2.02656;-2.81049;2.02656;-0.770406;-0.979301;1.36897;-0.979301;-1.11577;1.12146;-1.11577;0.948955;-2.02206;0.948955;
2.03079;-2.82062;2.03079;-0.767736;-0.982481;1.37786;-0.982481;-1.11677;1.12995;-1.11677;0.948102;-2.02466;0.948102;
2.03504;-2.83081;2.03504;-0.765059;-0.985629;1.38678;-0.985629;-1.11777;1.13849;-1.11777;0.947256;-2.02734;0.947256;
2.0393;-2.84105;2.0393;-0.762376;-0.988745;1.39573;-0.988745;-1.11877;1.14709;-1.11877;0.946415;-2.0301;0.946415;
2.04358;-2.85135;2.04358;-0.759686;-0.991829;1.40471;-0.991829;-1.11976;1.15574;-1.11976;0.945579;-2.03295;0.945579;
2.04787;-2.86171;2.04787;-0.756989;-0.994881;1.41372;-0.994881;-1.12075;1.16444;-1.12075;0.944749;-2.03588;0.944749;
2.05218;-2.87213;2.05218;-0.754285;-0.997902;1.42276;-0.997902;-1.12174;1.17318;-1.12174;0.943924;-2.03889;0.943924;
2.0565;-2.88261;2.0565;-0.751575;-1.00089;1.43182;-1.00089;-1.12273;1.18197;-1.12273;0.943103;-2.04199;0.943103;
2.06083;-2.89315;2.06083;-0.748858;-1.00385;1.44091;-1.00385;-1.12371;1.19081;-1.12371;0.942286;-2.04517;0.942286;
2.06518;-2.90375;2.06518;-0.746134;-1.00678;1.45003;-1.00678;-1.12469;1.19969;-1.12469;0.941473;-2.04843;0.941473;
2.06954;-2.91441;2.06954;-0.743403;-1.00968;1.45918;-1.00968;-1.12567;1.20861;-1.12567;0.940663;-2.05178;0.940663;
2.07391;-2.92513;2.07391;-0.740664;-1.01255;1.46835;-1.01255;-1.12664;1.21758;-1.12664;0.939857;-2.05521;0.939857;
2.07829;-2.93592;2.07829;-0.737918;-1.01539;1.47755;-1.01539;-1.12761;1.22659;-1.12761;0.939054;-2.05873;0.939054;
2.08268;-2.94677;2.08268;-0.735164;-1.0182;1.48677;-1.0182;-1.12858;1.23564;-1.12858;0.938254;-2.06233;0.938254;
2.08709;-2.95769;2.08709;-0.732402;-1.02098;1.49602;-1.02098;-1.12954;1.24472;-1.12954;0.937457;-2.06601;0.937457;
2.09151;-2.96867;2.09151;-0.729634;-1.02373;1.50529;-1.02373;-1.1305;1.25384;-1.1305;0.936662;-2.06978;0.936662;
2.09594;-2.97972;2.09594;-0.726859;-1.02645;1.51458;-1.02645;-1.13146;1.263;-1.13146;0.935868;-2.07363;0.935868;
2.10038;-2.99083;2.10038;-0.724077;-1.02914;1.5239;-1.02914;-1.13241;1.2722;-1.13241;0.935076;-2.07757;0.935076;
2.10483;-3.00201;2.10483;-0.721287;-1.03181;1.53324;-1.03181;-1.13336;1.28143;-1.13336;0.934285;-2.08159;0.934285;
2.10929;-3.01326;2.10929;-0.718489;-1.03445;1.5426;-1.03445;-1.1343;1.29069;-1.1343;0.933495;-2.0857;0.933495;
2.11376;-3.02457;2.11376;-0.715684;-1.03706;1.55198;-1.03706;-1.13524;1.29999;-1.13524;0.932706;-2.08989;0.932706;
2.11824;-3.03595;2.11824;-0.712872;-1.03964;1.56138;-1.03964;-1.13617;1.30932;-1.13617;0.931918;-2.09417;0.931918;
2.12272;-3.0474;2.12272;-0.710052;-1.0422;1.5708;-1.0422;-1.13709;1.31868;-1.13709;0.93113;-2.09853;0.93113;
2.12721;-3.05891;2.12721;-0.707224;-1.04473;1.58024;-1.04473;-1.13801;1.32807;-1.13801;0.930341;-2.10298;0.930341;
2.13171;-3.07049;2.13171;-0.704388;-1.04723;1.5897;-1.04723;-1.13892;1.33748;-1.13892;0.929553;-2.10751;0.929553;
2.13622;-3.08214;2.13622;-0.701544;-1.0497;1.59917;-1.0497;-1.13983;1.34692;-1.13983;0.928764;-2.11213;0.928764;
2.14074;-3.09386;2.14074;-0.698693;-1.05215;1.60866;-1.05215;-1.14073;1.35639;-1.14073;0.927973;-2.11683;0.927973;
2.14526;-3.10565;2.14526;-0.695835;-1.05457;1.61817;-1.05457;-1.14162;1.36589;-1.14162;0.92718;-2.12162;0.92718;
2.14979;-3.1175;2.14979;-0.692968;-1.05696;1.62769;-1.05696;-1.14251;1.37541;-1.14251;0.926386;-2.12649;0.926386;
2.15433;-3.12942;2.15433;-0.690094;-1.05933;1.63723;-1.05933;-1.14339;1.38496;-1.14339;0.92559;-2.13144;0.92559;
2.15887;-3.14141;2.15887;-0.687211;-1.06167;1.64679;-1.06167;-1.14426;1.39453;-1.14426;0.924792;-2.13648;0.924792;
2.16342;-3.15347;2.16342;-0.68432;-1.06398;1.65636;-1.06398;-1.14513;1.40412;-1.14513;0.923991;-2.1416;0.923991;
2.16797;-3.16559;2.16797;-0.681421;-1.06627;1.66594;-1.06627;-1.14599;1.41373;-1.14599;0.923187;-2.14681;0.923187;
2.17253;-3.17778;2.17253;-0.678513;-1.06853;1.67554;-1.06853;-1.14684;1.42336;-1.14684;0.92238;-2.1521;0.92238;
2.17709;-3.19004;2.17709;-0.675597;-1.07076;1.68515;-1.07076;-1.14768;1.43301;-1.14768;0.92157;-2.15747;0.92157;
2.18166;-3.20237;2.18166;-0.672673;-1.07297;1.69477;-1.07297;-1.14851;1.44268;-1.14851;0.920755;-2.16292;0.920755;
2.18623;-3.21476;2.18623;-0.669742;-1.07515;1.7044;-1.07515;-1.14934;1.45237;-1.14934;0.919936;-2.16846;0.919936;
2.19081;-3.22722;2.19081;-0.666802;-1.07731;1.71404;-1.07731;-1.15016;1.46208;-1.15016;0.919113;-2.17408;0.919113;
2.19539;-3.23974;2.19539;-0.663853;-1.07944;1.7237;-1.07944;-1.15097;1.47181;-1.15097;0.918285;-2.17978;0.918285;
2.19997;-3.25233;2.19997;-0.660894;-1.08154;1.73336;-1.08154;-1.15177;1.48156;-1.15177;0.917453;-2.18556;0.917453;
2.20456;-3.26498;2.20456;-0.657927;-1.08362;1.74303;-1.08362;-1.15256;1.49132;-1.15256;0.916615;-2.19142;0.916615;
2.20915;-3.2777;2.20915;-0.654951;-1.08567;1.75271;-1.08567;-1.15334;1.5011;-1.15334;0.915771;-2.19736;0.915771;
2.21374;-3.29048;2.21374;-0.651967;-1.0877;1.7624;-1.0877;-1.15411;1.51089;-1.15411;0.914921;-2.20338;0.914921;
2.21834;-3.30332;2.21834;-0.648973;-1.0897;1.7721;-1.0897;-1.15487;1.5207;-1.15487;0.914065;-2.20948;0.914065;
2.22294;-3.31623;2.22294;-0.64597;-1.09167;1.78181;-1.09167;-1.15562;1.53052;-1.15562;0.913203;-2.21566;0.913203;
2.22754;-3.3292;2.22754;-0.642958;-1.09362;1.79152;-1.09362;-1.15636;1.54035;-1.15636;0.912334;-2.22192;0.912334;
2.23214;-3.34223;2.23214;-0.639936;-1.09554;1.80124;-1.09554;-1.15709;1.55019;-1.15709;0.911458;-2.22826;0.911458;
2.23674;-3.35532;2.23674;-0.636905;-1.09744;1.81097;-1.09744;-1.15781;1.56005;-1.15781;0.910574;-2.23467;0.910574;
2.24134;-3.36847;2.24134;-0.633863;-1.09931;1.8207;-1.09931;-1.15852;1.56992;-1.15852;0.909683;-2.24116;0.909683;
2.24594;-3.38168;2.24594;-0.630811;-1.10116;1.83044;-1.10116;-1.15922;1.5798;-1.15922;0.908785;-2.24773;0.908785;
2.25055;-3.39495;2.25055;-0.627749;-1.10298;1.84018;-1.10298;-1.15991;1.58969;-1.15991;0.907879;-2.25437;0.907879;
2.25516;-3.40828;2.25516;-0.624677;-1.10477;1.84993;-1.10477;-1.16058;1.59958;-1.16058;0.906964;-2.26108;0.906964;
2.25976;-3.42167;2.25976;-0.621597;-1.10654;1.85968;-1.10654;-1.16124;1.60948;-1.16124;0.906039;-2.26787;0.906039;
2.26436;-3.43511;2.26436;-0.618507;-1.10828;1.86943;-1.10828;-1.16189;1.61939;-1.16189;0.905105;-2.27473;0.905105;
2.26896;-3.44861;2.26896;-0.615406;-1.11;1.87919;-1.11;-1.16253;1.62931;-1.16253;0.904162;-2.28166;0.904162;
2.27356;-3.46216;2.27356;-0.612294;-1.11169;1.88895;-1.11169;-1.16316;1.63924;-1.16316;0.90321;-2.28867;0.90321;
2.27816;-3.47577;2.27816;-0.609171;-1.11335;1.89871;-1.11335;-1.16378;1.64917;-1.16378;0.902248;-2.29575;0.902248;
2.28276;-3.48943;2.28276;-0.606038;-1.11499;1.90847;-1.11499;-1.16438;1.65911;-1.16438;0.901276;-2.3029;0.901276;
2.28736;-3.50314;2.28736;-0.602894;-1.1166;1.91823;-1.1166;-1.16497;1.66905;-1.16497;0.900294;-2.31011;0.900294;
2.29196;-3.51691;2.29196;-0.59974;-1.11819;1.92799;-1.11819;-1.16555;1.679;-1.16555;0.8993;-2.31739;0.8993;
2.29656;-3.53073;2.29656;-0.596575;-1.11975;1.93775;-1.11975;-1.16611;1.68895;-1.16611;0.898295;-2.32474;0.898295;
2.30115;-3.5446;2.30115;-0.593401;-1.12129;1.94751;-1.12129;-1.16666;1.6989;-1.16666;0.897278;-2.33216;0.897278;
2.30574;-3.55852;2.30574;-0.590215;-1.1228;1.95727;-1.1228;-1.1672;1.70886;-1.1672;0.89625;-2.33964;0.89625;
2.31033;-3.57248;2.31033;-0.587018;-1.12428;1.96703;-1.12428;-1.16772;1.71882;-1.16772;0.89521;-2.34719;0.89521;
2.31491;-3.58649;2.31491;-0.58381;-1.12574;1.97679;-1.12574;-1.16823;1.72878;-1.16823;0.894158;-2.3548;0.894158;
2.31949;-3.60055;2.31949;-0.580589;-1.12717;1.98654;-1.12717;-1.16873;1.73874;-1.16873;0.893094;-2.36247;0.893094;
2.32407;-3.61465;2.32407;-0.577358;-1.12858;1.99629;-1.12858;-1.16921;1.7487;-1.16921;0.892017;-2.37021;0.892017;
2.32864;-3.6288;2.32864;-0.574115;-1.12996;2.00604;-1.12996;-1.16968;1.75866;-1.16968;0.890928;-2.37801;0.890928;
2.33321;-3.64299;2.33321;-0.57086;-1.13131;2.01578;-1.13131;-1.17013;1.76862;-1.17013;0.889826;-2.38587;0.889826;
2.33778;-3.65722;2.33778;-0.567594;-1.13264;2.02552;-1.13264;-1.17057;1.77858;-1.17057;0.88871;-2.39379;0.88871;
2.34234;-3.67149;2.34234;-0.564316;-1.13394;2.03526;-1.13394;-1.171;1.78854;-1.171;0.887581;-2.40176;0.887581;
2.3469;-3.6858;2.3469;-0.561025;-1.13522;2.04499;-1.13522;-1.17141;1.7985;-1.17141;0.886438;-2.40979;0.886438;
2.35145;-3.70015;2.35145;-0.557722;-1.13647;2.05472;-1.13647;-1.17181;1.80845;-1.17181;0.885282;-2.41787;0.885282;
2.356;-3.71454;2.356;-0.554407;-1.13769;2.06444;-1.13769;-1.17219;1.8184;-1.17219;0.884111;-2.42601;0.884111;
2.36054;-3.72897;2.36054;-0.55108;-1.13889;2.07415;-1.13889;-1.17256;1.82835;-1.17256;0.882926;-2.4342;0.882926;
2.36507;-3.74344;2.36507;-0.547741;-1.14006;2.08386;-1.14006;-1.17291;1.83829;-1.17291;0.881726;-2.44245;0.881726;
2.3696;-3.75794;2.3696;-0.54439;-1.14121;2.09356;-1.14121;-1.17325;1.84823;-1.17325;0.880511;-2.45075;0.880511;
2.37412;-3.77248;2.37412;-0.541026;-1.14233;2.10325;-1.14233;-1.17357;1.85816;-1.17357;0.879281;-2.4591;0.879281;
2.37864;-3.78705;2.37864;-0.53765;-1.14342;2.11293;-1.14342;-1.17387;1.86809;-1.17387;0.878035;-2.4675;0.878035;
2.38315;-3.80165;2.38315;-0.534263;-1.14449;2.12261;-1.14449;-1.17416;1.87801;-1.17416;0.876774;-2.47595;0.876774;
2.38765;-3.81628;2.38765;-0.530862;-1.14553;2.13228;-1.14553;-1.17443;1.88792;-1.17443;0.875497;-2.48444;0.875497;
2.39215;-3.83094;2.39215;-0.527449;-1.14655;2.14194;-1.14655;-1.17469;1.89782;-1.17469;0.874205;-2.49298;0.874205;
2.39664;-3.84563;2.39664;-0.524023;-1.14754;2.15159;-1.14754;-1.17493;1.90772;-1.17493;0.872897;-2.50156;0.872897;
2.40112;-3.86035;2.40112;-0.520584;-1.1485;2.16123;-1.1485;-1.17516;1.91761;-1.17516;0.871572;-2.51019;0.871572;
2.40559;-3.8751;2.40559;-0.517132;-1.14944;2.17086;-1.14944;-1.17537;1.92749;-1.17537;0.870231;-2.51886;0.870231;
2.41005;-3.88987;2.41005;-0.513668;-1.15035;2.18047;-1.15035;-1.17556;1.93736;-1.17556;0.868874;-2.52757;0.868874;
2.41451;-3.90467;2.41451;-0.510191;-1.15124;2.19007;-1.15124;-1.17574;1.94722;-1.17574;0.8675;-2.53632;0.8675;
2.41896;-3.91949;2.41896;-0.506702;-1.1521;2.19966;-1.1521;-1.1759;1.95707;-1.1759;0.866108;-2.54511;0.866108;
2.4234;-3.93434;2.4234;-0.5032;-1.15293;2.20924;-1.15293;-1.17604;1.96691;-1.17604;0.864699;-2.55394;0.864699;
2.42783;-3.94921;2.42783;-0.499686;-1.15374;2.21881;-1.15374;-1.17617;1.97674;-1.17617;0.863273;-2.56281;0.863273;
2.43225;-3.9641;2.43225;-0.496158;-1.15452;2.22836;-1.15452;-1.17628;1.98656;-1.17628;0.86183;-2.57171;0.86183;
2.43666;-3.97901;2.43666;-0.492617;-1.15528;2.2379;-1.15528;-1.17638;1.99636;-1.17638;0.86037;-2.58065;0.86037;
2.44106;-3.99394;2.44106;-0.489063;-1.15601;2.24743;-1.15601;-1.17646;2.00615;-1.17646;0.858892;-2.58962;0.858892;
2.44545;-4.00889;2.44545;-0.485495;-1.15671;2.25694;-1.15671;-1.17652;2.01593;-1.17652;0.857397;-2.59862;0.857397;
2.44983;-4.02385;2.44983;-0.481915;-1.15739;2.26644;-1.15739;-1.17657;2.0257;-1.17657;0.855884;-2.60765;0.855884;
2.4542;-4.03883;2.4542;-0.478321;-1.15804;2.27593;-1.15804;-1.1766;2.03545;-1.1766;0.854353;-2.61671;0.854353;
2.45856;-4.05382;2.45856;-0.474714;-1.15867;2.2854;-1.15867;-1.17661;2.04519;-1.17661;0.852805;-2.6258;0.852805;
2.46291;-4.06883;2.46291;-0.471094;-1.15927;2.29485;-1.15927;-1.17661;2.05491;-1.17661;0.851239;-2.63492;0.851239;
2.46725;-4.08385;2.46725;-0.467461;-1.15985;2.30429;-1.15985;-1.17659;2.06462;-1.17659;0.849655;-2.64407;0.849655;
2.47158;-4.09888;2.47158;-0.463814;-1.1604;2.31371;-1.1604;-1.17655;2.07431;-1.17655;0.848053;-2.65324;0.848053;
2.4759;-4.11393;2.4759;-0.460154;-1.16093;2.32312;-1.16093;-1.1765;2.08398;-1.1765;0.846433;-2.66244;0.846433;
2.48021;-4.12899;2.48021;-0.456481;-1.16143;2.33251;-1.16143;-1.17643;2.09364;-1.17643;0.844794;-2.67166;0.844794;
2.48451;-4.14405;2.48451;-0.452796;-1.16191;2.34188;-1.16191;-1.17634;2.10328;-1.17634;0.843137;-2.68091;0.843137;
2.48879;-4.15912;2.48879;-0.449097;-1.16236;2.35124;-1.16236;-1.17624;2.1129;-1.17624;0.841462;-2.69018;0.841462;
2.49306;-4.1742;2.49306;-0.445384;-1.16279;2.36058;-1.16279;-1.17612;2.12251;-1.17612;0.839769;-2.69947;0.839769;
2.49732;-4.18929;2.49732;-0.441657;-1.16319;2.3699;-1.16319;-1.17598;2.1321;-1.17598;0.838059;-2.70878;0.838059;
2.50157;-4.20438;2.50157;-0.437917;-1.16357;2.3792;-1.16357;-1.17583;2.14167;-1.17583;0.83633;-2.71811;0.83633;
2.50581;-4.21948;2.50581;-0.434164;-1.16392;2.38848;-1.16392;-1.17566;2.15122;-1.17566;0.834583;-2.72745;0.834583;
2.51003;-4.23458;2.51003;-0.430399;-1.16425;2.39775;-1.16425;-1.17547;2.16075;-1.17547;0.832817;-2.73681;0.832817;
2.51424;-4.24968;2.51424;-0.42662;-1.16455;2.407;-1.16455;-1.17527;2.17026;-1.17527;0.831033;-2.74618;0.831033;
2.51844;-4.26479;2.51844;-0.422827;-1.16483;2.41623;-1.16483;-1.17505;2.17975;-1.17505;0.829231;-2.75557;0.829231;
2.52262;-4.2799;2.52262;-0.419021;-1.16509;2.42544;-1.16509;-1.17481;2.18923;-1.17481;0.827411;-2.76497;0.827411;
2.52679;-4.29501;2.52679;-0.415202;-1.16532;2.43463;-1.16532;-1.17456;2.19868;-1.17456;0.825573;-2.77439;0.825573;
2.53095;-4.31012;2.53095;-0.411369;-1.16553;2.4438;-1.16553;-1.17429;2.20811;-1.17429;0.823717;-2.78382;0.823717;
2.53509;-4.32522;2.53509;-0.407524;-1.16572;2.45295;-1.16572;-1.17401;2.21752;-1.17401;0.821843;-2.79326;0.821843;
2.53922;-4.34032;2.53922;-0.403664;-1.16588;2.46208;-1.16588;-1.17371;2.22691;-1.17371;0.819952;-2.80271;0.819952;
2.54333;-4.35542;2.54333;-0.399791;-1.16602;2.47119;-1.16602;-1.17339;2.23628;-1.17339;0.818043;-2.81216;0.818043;
2.54743;-4.37052;2.54743;-0.395904;-1.16613;2.48027;-1.16613;-1.17306;2.24563;-1.17306;0.816117;-2.82162;0.816117;
2.55152;-4.38561;2.55152;-0.392005;-1.16622;2.48933;-1.16622;-1.17271;2.25496;-1.17271;0.814172;-2.83109;0.814172;
2.55559;-4.4007;2.55559;-0.388093;-1.16629;2.49837;-1.16629;-1.17235;2.26426;-1.17235;0.81221;-2.84057;0.81221;
2.55965;-4.41578;2.55965;-0.384168;-1.16634;2.50739;-1.16634;-1.17197;2.27354;-1.17197;0.81023;-2.85005;0.81023;
2.55965;-4.41578;2.55965;-0.384168;-1.16634;2.50739;-1.16634;-1.17197;2.27354;-1.17197;0.81023;-2.85005;0.81023;
2.56369;-4.43085;2.56369;-0.38023;-1.16636;2.51639;-1.16636;-1.17158;2.2828;-1.17158;0.808233;-2.85953;0.808233;
2.56772;-4.44591;2.56772;-0.376279;-1.16636;2.52537;-1.16636;-1.17117;2.29204;-1.17117;0.806219;-2.86902;0.806219;
2.57173;-4.46097;2.57173;-0.372314;-1.16634;2.53432;-1.16634;-1.17075;2.30125;-1.17075;0.804188;-2.87851;0.804188;
2.57573;-4.47602;2.57573;-0.368336;-1.1663;2.54325;-1.1663;-1.17031;2.31044;-1.17031;0.80214;-2.888;0.80214;
2.57971;-4.49106;2.57971;-0.364346;-1.16624;2.55216;-1.16624;-1.16986;2.31961;-1.16986;0.800074;-2.89749;0.800074;
2.58367;-4.50609;2.58367;-0.360342;-1.16615;2.56105;-1.16615;-1.16939;2.32875;-1.16939;0.797992;-2.90698;0.797992;
2.58762;-4.52111;2.58762;-0.356325;-1.16604;2.56991;-1.16604;-1.16891;2.33787;-1.16891;0.795893;-2.91647;0.795893;
2.59155;-4.53611;2.59155;-0.352296;-1.16591;2.57875;-1.16591;-1.16841;2.34696;-1.16841;0.793778;-2.92596;0.793778;
2.59547;-4.5511;2.59547;-0.348254;-1.16576;2.58757;-1.16576;-1.1679;2.35603;-1.1679;0.791646;-2.93545;0.791646;
2.59937;-4.56608;2.59937;-0.344198;-1.16559;2.59636;-1.16559;-1.16737;2.36507;-1.16737;0.789499;-2.94493;0.789499;
2.60325;-4.58104;2.60325;-0.34013;-1.1654;2.60513;-1.1654;-1.16683;2.37409;-1.16683;0.787335;-2.95441;0.787335;
2.60712;-4.59599;2.60712;-0.336049;-1.16519;2.61388;-1.16519;-1.16627;2.38308;-1.16627;0.785156;-2.96388;0.785156;
2.61097;-4.61092;2.61097;-0.331956;-1.16496;2.6226;-1.16496;-1.1657;2.39205;-1.1657;0.78296;-2.97335;0.78296;
2.6148;-4.62584;2.6148;-0.327849;-1.16471;2.6313;-1.16471;-1.16512;2.40099;-1.16512;0.780749;-2.98281;0.780749;
2.61862;-4.64074;2.61862;-0.32373;-1.16444;2.63998;-1.16444;-1.16452;2.40991;-1.16452;0.778523;-2.99227;0.778523;
2.62242;-4.65562;2.62242;-0.319598;-1.16415;2.64863;-1.16415;-1.16391;2.4188;-1.16391;0.776282;-3.00172;0.776282;
2.6262;-4.67049;2.6262;-0.315453;-1.16384;2.65726;-1.16384;-1.16329;2.42766;-1.16329;0.774026;-3.01116;0.774026;
2.62997;-4.68534;2.62997;-0.311296;-1.16351;2.66586;-1.16351;-1.16265;2.4365;-1.16265;0.771755;-3.02059;0.771755;
2.63372;-4.70017;2.63372;-0.307127;-1.16316;2.67444;-1.16316;-1.162;2.44531;-1.162;0.769469;-3.03001;0.769469;
2.63745;-4.71498;2.63745;-0.302946;-1.16279;2.68299;-1.16279;-1.16134;2.45409;-1.16134;0.767168;-3.03942;0.767168;
2.64116;-4.72977;2.64116;-0.298753;-1.1624;2.69152;-1.1624;-1.16066;2.46285;-1.16066;0.764852;-3.04882;0.764852;
2.64486;-4.74454;2.64486;-0.294548;-1.16199;2.70003;-1.16199;-1.15997;2.47158;-1.15997;0.762522;-3.05821;0.762522;
2.64854;-4.75929;2.64854;-0.290331;-1.16157;2.70851;-1.16157;-1.15927;2.48028;-1.15927;0.760179;-3.06759;0.760179;
2.6522;-4.77401;2.6522;-0.286102;-1.16113;2.71697;-1.16113;-1.15856;2.48896;-1.15856;0.757822;-3.07696;0.757822;
2.65584;-4.78871;2.65584;-0.28186;-1.16067;2.7254;-1.16067;-1.15784;2.49761;-1.15784;0.755452;-3.08631;0.755452;
2.65946;-4.80339;2.65946;-0.277606;-1.16019;2.7338;-1.16019;-1.1571;2.50623;-1.1571;0.753069;-3.09565;0.753069;
2.66307;-4.81805;2.66307;-0.273341;-1.1597;2.74218;-1.1597;-1.15635;2.51483;-1.15635;0.750672;-3.10498;0.750672;
2.66666;-4.83268;2.66666;-0.269063;-1.15919;2.75053;-1.15919;-1.15559;2.5234;-1.15559;0.748262;-3.11429;0.748262;
2.67023;-4.84729;2.67023;-0.264774;-1.15866;2.75886;-1.15866;-1.15482;2.53194;-1.15482;0.74584;-3.12359;0.74584;
2.67378;-4.86187;2.67378;-0.260473;-1.15811;2.76716;-1.15811;-1.15404;2.54045;-1.15404;0.743405;-3.13287;0.743405;
2.67731;-4.87643;2.67731;-0.256161;-1.15755;2.77544;-1.15755;-1.15325;2.54894;-1.15325;0.740957;-3.14213;0.740957;
2.68082;-4.89096;2.68082;-0.251837;-1.15697;2.78369;-1.15697;-1.15245;2.5574;-1.15245;0.738498;-3.15138;0.738498;
2.68431;-4.90547;2.68431;-0.247502;-1.15638;2.79192;-1.15638;-1.15164;2.56583;-1.15164;0.736027;-3.16061;0.736027;
2.68779;-4.91995;2.68779;-0.243155;-1.15577;2.80012;-1.15577;-1.15082;2.57423;-1.15082;0.733544;-3.16982;0.733544;
2.69125;-4.93441;2.69125;-0.238797;-1.15514;2.8083;-1.15514;-1.14999;2.5826;-1.14999;0.731049;-3.17902;0.731049;
2.69469;-4.94884;2.69469;-0.234429;-1.1545;2.81645;-1.1545;-1.14915;2.59095;-1.14915;0.728542;-3.1882;0.728542;
2.69811;-4.96324;2.69811;-0.230049;-1.15384;2.82457;-1.15384;-1.1483;2.59927;-1.1483;0.726025;-3.19736;0.726025;
2.70151;-4.97761;2.70151;-0.225659;-1.15317;2.83267;-1.15317;-1.14744;2.60756;-1.14744;0.723496;-3.2065;0.723496;
2.70489;-4.99196;2.70489;-0.221258;-1.15249;2.84074;-1.15249;-1.14657;2.61582;-1.14657;0.720957;-3.21562;0.720957;
2.70825;-5.00628;2.70825;-0.216846;-1.15179;2.84879;-1.15179;-1.14569;2.62406;-1.14569;0.718407;-3.22472;0.718407;
2.71159;-5.02057;2.71159;-0.212423;-1.15108;2.85681;-1.15108;-1.1448;2.63227;-1.1448;0.715847;-3.2338;0.715847;
2.71491;-5.03483;2.71491;-0.20799;-1.15035;2.86481;-1.15035;-1.1439;2.64045;-1.1439;0.713277;-3.24286;0.713277;
2.71821;-5.04906;2.71821;-0.203546;-1.14961;2.87278;-1.14961;-1.14299;2.6486;-1.14299;0.710697;-3.2519;0.710697;
2.72149;-5.06326;2.72149;-0.199092;-1.14886;2.88072;-1.14886;-1.14207;2.65672;-1.14207;0.708107;-3.26092;0.708107;
2.72475;-5.07743;2.72475;-0.194628;-1.14809;2.88864;-1.14809;-1.14115;2.66482;-1.14115;0.705507;-3.26992;0.705507;
2.72799;-5.09157;2.72799;-0.190153;-1.14731;2.89653;-1.14731;-1.14022;2.67289;-1.14022;0.702898;-3.27889;0.702898;
2.73121;-5.10568;2.73121;-0.185668;-1.14652;2.9044;-1.14652;-1.13928;2.68093;-1.13928;0.70028;-3.28784;0.70028;
2.73442;-5.11976;2.73442;-0.181173;-1.14572;2.91224;-1.14572;-1.13833;2.68894;-1.13833;0.697653;-3.29677;0.697653;
2.73761;-5.13381;2.73761;-0.176669;-1.1449;2.92005;-1.1449;-1.13738;2.69692;-1.13738;0.695017;-3.30568;0.695017;
2.74078;-5.14783;2.74078;-0.172156;-1.14407;2.92784;-1.14407;-1.13642;2.70487;-1.13642;0.692372;-3.31456;0.692372;
2.74393;-5.16181;2.74393;-0.167634;-1.14323;2.9356;-1.14323;-1.13545;2.7128;-1.13545;0.689718;-3.32342;0.689718;
2.74706;-5.17576;2.74706;-0.163102;-1.14238;2.94334;-1.14238;-1.13448;2.7207;-1.13448;0.687056;-3.33226;0.687056;
2.75017;-5.18968;2.75017;-0.15856;-1.14152;2.95105;-1.14152;-1.1335;2.72857;-1.1335;0.684387;-3.34107;0.684387;
2.75326;-5.20357;2.75326;-0.154009;-1.14065;2.95873;-1.14065;-1.13251;2.73641;-1.13251;0.68171;-3.34986;0.68171;
2.75633;-5.21742;2.75633;-0.149449;-1.13977;2.96639;-1.13977;-1.13152;2.74422;-1.13152;0.679025;-3.35862;0.679025;
2.75938;-5.23124;2.75938;-0.14488;-1.13887;2.97402;-1.13887;-1.13052;2.75201;-1.13052;0.676333;-3.36736;0.676333;
2.76241;-5.24503;2.76241;-0.140302;-1.13796;2.98163;-1.13796;-1.12951;2.75977;-1.12951;0.673633;-3.37607;0.673633;
2.76542;-5.25879;2.76542;-0.135715;-1.13704;2.98921;-1.13704;-1.1285;2.7675;-1.1285;0.670926;-3.38476;0.670926;
2.7684;-5.27251;2.7684;-0.13112;-1.13611;2.99677;-1.13611;-1.12748;2.7752;-1.12748;0.668212;-3.39342;0.668212;
2.77136;-5.2862;2.77136;-0.126516;-1.13518;3.0043;-1.13518;-1.12646;2.78287;-1.12646;0.665491;-3.40206;0.665491;
2.7743;-5.29986;2.7743;-0.121903;-1.13424;3.0118;-1.13424;-1.12543;2.79052;-1.12543;0.662764;-3.41067;0.662764;
2.77722;-5.31348;2.77722;-0.117282;-1.13329;3.01928;-1.13329;-1.1244;2.79814;-1.1244;0.66003;-3.41926;0.66003;
2.78012;-5.32707;2.78012;-0.112652;-1.13233;3.02673;-1.13233;-1.12336;2.80573;-1.12336;0.65729;-3.42782;0.65729;
2.783;-5.34062;2.783;-0.108014;-1.13136;3.03416;-1.13136;-1.12232;2.81329;-1.12232;0.654544;-3.43635;0.654544;
2.78586;-5.35414;2.78586;-0.103368;-1.13038;3.04156;-1.13038;-1.12128;2.82083;-1.12128;0.651792;-3.44486;0.651792;
2.7887;-5.36762;2.7887;-0.0987137;-1.12939;3.04893;-1.12939;-1.12023;2.82834;-1.12023;0.649034;-3.45334;0.649034;
2.79152;-5.38107;2.79152;-0.0940517;-1.12839;3.05628;-1.12839;-1.11918;2.83582;-1.11918;0.646271;-3.46179;0.646271;
2.79432;-5.39448;2.79432;-0.0893823;-1.12739;3.0636;-1.12739;-1.11812;2.84327;-1.11812;0.643502;-3.47022;0.643502;
2.7971;-5.40786;2.7971;-0.0847053;-1.12638;3.0709;-1.12638;-1.11706;2.85069;-1.11706;0.640728;-3.47862;0.640728;
2.79986;-5.4212;2.79986;-0.0800211;-1.12536;3.07817;-1.12536;-1.116;2.85809;-1.116;0.637948;-3.48699;0.637948;
2.8026;-5.43451;2.8026;-0.0753292;-1.12433;3.08542;-1.12433;-1.11494;2.86546;-1.11494;0.635163;-3.49534;0.635163;
2.80532;-5.44778;2.80532;-0.0706297;-1.1233;3.09264;-1.1233;-1.11387;2.8728;-1.11387;0.632374;-3.50366;0.632374;
2.80802;-5.46102;2.80802;-0.0659232;-1.12226;3.09984;-1.12226;-1.1128;2.88011;-1.1128;0.62958;-3.51195;0.62958;
2.8107;-5.47422;2.8107;-0.0612101;-1.12121;3.10701;-1.12121;-1.11173;2.8874;-1.11173;0.626781;-3.52021;0.626781;
2.81336;-5.48739;2.81336;-0.05649;-1.12016;3.11416;-1.12016;-1.11065;2.89466;-1.11065;0.623977;-3.52845;0.623977;
2.816;-5.50052;2.816;-0.0517629;-1.1191;3.12128;-1.1191;-1.10957;2.90189;-1.10957;0.621169;-3.53666;0.621169;
2.81862;-5.51362;2.81862;-0.0470293;-1.11804;3.12837;-1.11804;-1.10849;2.9091;-1.10849;0.618357;-3.54484;0.618357;
2.82122;-5.52668;2.82122;-0.0422896;-1.11697;3.13544;-1.11697;-1.10741;2.91628;-1.10741;0.61554;-3.55299;0.61554;
2.8238;-5.5397;2.8238;-0.0375433;-1.1159;3.14248;-1.1159;-1.10633;2.92343;-1.10633;0.612719;-3.56112;0.612719;
2.82636;-5.55269;2.82636;-0.0327902;-1.11482;3.1495;-1.11482;-1.10525;2.93056;-1.10525;0.609895;-3.56922;0.609895;
2.8289;-5.56564;2.8289;-0.0280307;-1.11373;3.15649;-1.11373;-1.10417;2.93766;-1.10417;0.607067;-3.57729;0.607067;
2.83142;-5.57856;2.83142;-0.0232651;-1.11264;3.16346;-1.11264;-1.10308;2.94473;-1.10308;0.604236;-3.58533;0.604236;
2.83392;-5.59144;2.83392;-0.0184941;-1.11155;3.1704;-1.11155;-1.10199;2.95178;-1.10199;0.601401;-3.59334;0.601401;
2.83639;-5.60428;2.83639;-0.0137173;-1.11045;3.17732;-1.11045;-1.1009;2.9588;-1.1009;0.598562;-3.60132;0.598562;
2.83884;-5.61709;2.83884;-0.00893416;-1.10935;3.18421;-1.10935;-1.09981;2.96579;-1.09981;0.59572;-3.60928;0.59572;
2.84127;-5.62986;2.84127;-0.00414539;-1.10824;3.19108;-1.10824;-1.09872;2.97276;-1.09872;0.592875;-3.61721;0.592875;
2.84368;-5.6426;2.84368;0.000649522;-1.10713;3.19792;-1.10713;-1.09763;2.9797;-1.09763;0.590027;-3.62511;0.590027;
2.84607;-5.6553;2.84607;0.00544952;-1.10602;3.20474;-1.10602;-1.09654;2.98661;-1.09654;0.587176;-3.63298;0.587176;
2.84844;-5.66796;2.84844;0.0102549;-1.1049;3.21154;-1.1049;-1.09545;2.9935;-1.09545;0.584322;-3.64082;0.584322;
2.85079;-5.68059;2.85079;0.0150662;-1.10378;3.21831;-1.10378;-1.09436;3.00036;-1.09436;0.581466;-3.64863;0.581466;
2.85312;-5.69318;2.85312;0.0198822;-1.10266;3.22506;-1.10266;-1.09327;3.00719;-1.09327;0.578607;-3.65642;0.578607;
2.85543;-5.70573;2.85543;0.0247035;-1.10153;3.23178;-1.10153;-1.09219;3.014;-1.09219;0.575745;-3.66418;0.575745;
2.85772;-5.71825;2.85772;0.0295303;-1.1004;3.23848;-1.1004;-1.09111;3.02078;-1.09111;0.572881;-3.67191;0.572881;
2.85999;-5.73073;2.85999;0.034362;-1.09927;3.24515;-1.09927;-1.09003;3.02754;-1.09003;0.570014;-3.67961;0.570014;
2.86224;-5.74318;2.86224;0.0391988;-1.09814;3.2518;-1.09814;-1.08895;3.03427;-1.08895;0.567145;-3.68728;0.567145;
2.86447;-5.75559;2.86447;0.0440401;-1.097;3.25843;-1.097;-1.08787;3.04098;-1.08787;0.564274;-3.69492;0.564274;
2.86668;-5.76796;2.86668;0.0488862;-1.09586;3.26503;-1.09586;-1.08679;3.04766;-1.08679;0.561401;-3.70253;0.561401;
2.86887;-5.7803;2.86887;0.0537367;-1.09472;3.27161;-1.09472;-1.08571;3.05431;-1.08571;0.558526;-3.71012;0.558526;
2.87104;-5.7926;2.87104;0.0585914;-1.09358;3.27816;-1.09358;-1.08464;3.06094;-1.08464;0.555648;-3.71768;0.555648;
2.87319;-5.80486;2.87319;0.0634508;-1.09244;3.28469;-1.09244;-1.08357;3.06754;-1.08357;0.552769;-3.72521;0.552769;
2.87532;-5.81709;2.87532;0.0683147;-1.0913;3.2912;-1.0913;-1.0825;3.07412;-1.0825;0.549888;-3.73271;0.549888;
2.87743;-5.82928;2.87743;0.073183;-1.09015;3.29768;-1.09015;-1.08143;3.08067;-1.08143;0.547005;-3.74018;0.547005;
2.87952;-5.84143;2.87952;0.0780551;-1.089;3.30414;-1.089;-1.08037;3.0872;-1.08037;0.54412;-3.74762;0.54412;
2.88159;-5.85355;2.88159;0.0829318;-1.08785;3.31057;-1.08785;-1.07931;3.0937;-1.07931;0.541234;-3.75504;0.541234;
2.88364;-5.86563;2.88364;0.087812;-1.0867;3.31698;-1.0867;-1.07825;3.10018;-1.07825;0.538346;-3.76243;0.538346;
2.88567;-5.87768;2.88567;0.0926964;-1.08555;3.32337;-1.08555;-1.07719;3.10664;-1.07719;0.535457;-3.76979;0.535457;
2.88767;-5.88969;2.88767;0.0975848;-1.0844;3.32973;-1.0844;-1.07614;3.11307;-1.07614;0.532566;-3.77712;0.532566;
2.88965;-5.90166;2.88965;0.102477;-1.08325;3.33607;-1.08325;-1.07509;3.11948;-1.07509;0.529674;-3.78442;0.529674;
2.89161;-5.9136;2.89161;0.107373;-1.0821;3.34239;-1.0821;-1.07404;3.12586;-1.07404;0.526781;-3.79169;0.526781;
2.89355;-5.9255;2.89355;0.112273;-1.08095;3.34869;-1.08095;-1.073;3.13222;-1.073;0.523887;-3.79894;0.523887;
2.89547;-5.93737;2.89547;0.117177;-1.0798;3.35496;-1.0798;-1.07196;3.13855;-1.07196;0.520992;-3.80616;0.520992;
2.89737;-5.9492;2.89737;0.122084;-1.07865;3.36121;-1.07865;-1.07093;3.14486;-1.07093;0.518095;-3.81335;0.518095;
2.89925;-5.961;2.89925;0.126995;-1.0775;3.36744;-1.0775;-1.0699;3.15115;-1.0699;0.515197;-3.82051;0.515197;
2.90111;-5.97276;2.90111;0.13191;-1.07635;3.37364;-1.07635;-1.06887;3.15741;-1.06887;0.512298;-3.82764;0.512298;
2.90295;-5.98448;2.90295;0.136827;-1.07521;3.37982;-1.07521;-1.06785;3.16365;-1.06785;0.509398;-3.83474;0.509398;
2.90477;-5.99617;2.90477;0.141748;-1.07407;3.38598;-1.07407;-1.06683;3.16986;-1.06683;0.506497;-3.84182;0.506497;
2.90657;-6.00782;2.90657;0.146672;-1.07293;3.39212;-1.07293;-1.06582;3.17605;-1.06582;0.503595;-3.84887;0.503595;
2.90835;-6.01944;2.90835;0.1516;-1.07179;3.39823;-1.07179;-1.06481;3.18222;-1.06481;0.500692;-3.85589;0.500692;
2.91011;-6.03102;2.91011;0.156531;-1.07065;3.40432;-1.07065;-1.06381;3.18836;-1.06381;0.497788;-3.86288;0.497788;
2.91185;-6.04257;2.91185;0.161465;-1.06951;3.41039;-1.06951;-1.06281;3.19448;-1.06281;0.494883;-3.86985;0.494883;
2.91357;-6.05408;2.91357;0.166402;-1.06837;3.41644;-1.06837;-1.06182;3.20058;-1.06182;0.491977;-3.87679;0.491977;
2.91527;-6.06556;2.91527;0.171342;-1.06724;3.42246;-1.06724;-1.06083;3.20665;-1.06083;0.489071;-3.8837;0.489071;
2.91695;-6.077;2.91695;0.176285;-1.06611;3.42846;-1.06611;-1.05985;3.2127;-1.05985;0.486164;-3.89058;0.486164;
2.91861;-6.08841;2.91861;0.18123;-1.06498;3.43444;-1.06498;-1.05887;3.21873;-1.05887;0.483256;-3.89744;0.483256;
2.91861;-6.08841;2.91861;0.18123;-1.06498;3.43444;-1.06498;-1.05887;3.21873;-1.05887;0.483256;-3.89744;0.483256;
2.92025;-6.09978;2.92025;0.186178;-1.06385;3.4404;-1.06385;-1.0579;3.22474;-1.0579;0.480347;-3.90427;0.480347;
2.92187;-6.11112;2.92187;0.19113;-1.06273;3.44634;-1.06273;-1.05694;3.23072;-1.05694;0.477438;-3.91107;0.477438;
2.92347;-6.12242;2.92347;0.196084;-1.06161;3.45226;-1.06161;-1.05598;3.23668;-1.05598;0.474528;-3.91784;0.474528;
2.92505;-6.13369;2.92505;0.201041;-1.06049;3.45815;-1.06049;-1.05503;3.24262;-1.05503;0.471618;-3.92459;0.471618;
2.92661;-6.14492;2.92661;0.206001;-1.05937;3.46402;-1.05937;-1.05408;3.24854;-1.05408;0.468707;-3.93131;0.468707;
2.92815;-6.15612;2.92815;0.210963;-1.05826;3.46987;-1.05826;-1.05314;3.25443;-1.05314;0.465795;-3.938;0.465795;
2.92967;-6.16728;2.92967;0.215928;-1.05715;3.4757;-1.05715;-1.05221;3.2603;-1.05221;0.462882;-3.94467;0.462882;
2.93117;-6.17841;2.93117;0.220896;-1.05604;3.48151;-1.05604;-1.05128;3.26615;-1.05128;0.459969;-3.95131;0.459969;
2.93265;-6.1895;2.93265;0.225867;-1.05494;3.4873;-1.05494;-1.05036;3.27198;-1.05036;0.457055;-3.95792;0.457055;
2.93411;-6.20056;2.93411;0.230841;-1.05384;3.49307;-1.05384;-1.04945;3.27779;-1.04945;0.454141;-3.96451;0.454141;
2.93555;-6.21159;2.93555;0.235818;-1.05274;3.49881;-1.05274;-1.04854;3.28357;-1.04854;0.451227;-3.97107;0.451227;
2.93697;-6.22258;2.93697;0.240796;-1.05165;3.50453;-1.05165;-1.04764;3.28933;-1.04764;0.448311;-3.9776;0.448311;
2.93837;-6.23354;2.93837;0.245776;-1.05056;3.51023;-1.05056;-1.04675;3.29507;-1.04675;0.445395;-3.98411;0.445395;
2.93975;-6.24446;2.93975;0.250759;-1.04948;3.51591;-1.04948;-1.04587;3.30079;-1.04587;0.442478;-3.99059;0.442478;
2.94111;-6.25535;2.94111;0.255745;-1.0484;3.52157;-1.0484;-1.04499;3.30649;-1.04499;0.439561;-3.99704;0.439561;
2.94246;-6.26621;2.94246;0.260733;-1.04733;3.52721;-1.04733;-1.04412;3.31217;-1.04412;0.436643;-4.00347;0.436643;
2.94379;-6.27703;2.94379;0.265723;-1.04626;3.53283;-1.04626;-1.04326;3.31783;-1.04326;0.433725;-4.00987;0.433725;
2.9451;-6.28782;2.9451;0.270716;-1.04519;3.53843;-1.04519;-1.04241;3.32347;-1.04241;0.430806;-4.01625;0.430806;
2.94639;-6.29858;2.94639;0.275712;-1.04413;3.54401;-1.04413;-1.04156;3.32909;-1.04156;0.427887;-4.0226;0.427887;
2.94766;-6.3093;2.94766;0.28071;-1.04307;3.54957;-1.04307;-1.04072;3.33468;-1.04072;0.424967;-4.02892;0.424967;
2.94891;-6.31999;2.94891;0.28571;-1.04202;3.55511;-1.04202;-1.03989;3.34025;-1.03989;0.422046;-4.03522;0.422046;
2.95014;-6.33065;2.95014;0.290713;-1.04097;3.56063;-1.04097;-1.03907;3.3458;-1.03907;0.419125;-4.04149;0.419125;
2.95135;-6.34127;2.95135;0.295717;-1.03993;3.56613;-1.03993;-1.03826;3.35133;-1.03826;0.416203;-4.04774;0.416203;
2.95254;-6.35186;2.95254;0.300724;-1.03889;3.57161;-1.03889;-1.03746;3.35684;-1.03746;0.413281;-4.05396;0.413281;
2.95371;-6.36242;2.95371;0.305734;-1.03786;3.57707;-1.03786;-1.03666;3.36233;-1.03666;0.410358;-4.06016;0.410358;
2.95486;-6.37294;2.95486;0.310746;-1.03683;3.58251;-1.03683;-1.03587;3.3678;-1.03587;0.407434;-4.06633;0.407434;
2.95599;-6.38343;2.95599;0.31576;-1.03581;3.58794;-1.03581;-1.03509;3.37325;-1.03509;0.40451;-4.07248;0.40451;
2.9571;-6.39389;2.9571;0.320777;-1.0348;3.59335;-1.0348;-1.03432;3.37868;-1.03432;0.401586;-4.0786;0.401586;
2.95819;-6.40432;2.95819;0.325797;-1.03379;3.59874;-1.03379;-1.03356;3.38409;-1.03356;0.398661;-4.0847;0.398661;
2.95926;-6.41472;2.95926;0.330819;-1.03279;3.60411;-1.03279;-1.03281;3.38948;-1.03281;0.395735;-4.09077;0.395735;
2.96031;-6.42508;2.96031;0.335844;-1.03179;3.60946;-1.03179;-1.03207;3.39486;-1.03207;0.392808;-4.09682;0.392808;
2.96134;-6.43541;2.96134;0.340872;-1.0308;3.61479;-1.0308;-1.03134;3.40022;-1.03134;0.389881;-4.10284;0.389881;
2.96235;-6.44571;2.96235;0.345903;-1.02982;3.6201;-1.02982;-1.03062;3.40556;-1.03062;0.386953;-4.10884;0.386953;
2.96334;-6.45598;2.96334;0.350936;-1.02884;3.62539;-1.02884;-1.02991;3.41088;-1.02991;0.384025;-4.11482;0.384025;
2.96431;-6.46622;2.96431;0.355972;-1.02787;3.63066;-1.02787;-1.02921;3.41618;-1.02921;0.381096;-4.12077;0.381096;
2.96526;-6.47643;2.96526;0.36101;-1.0269;3.63591;-1.0269;-1.02852;3.42146;-1.02852;0.378166;-4.1267;0.378166;
2.96619;-6.4866;2.96619;0.36605;-1.02594;3.64114;-1.02594;-1.02784;3.42672;-1.02784;0.375234;-4.1326;0.375234;
2.9671;-6.49674;2.9671;0.371093;-1.02499;3.64636;-1.02499;-1.02717;3.43196;-1.02717;0.372301;-4.13848;0.372301;
2.968;-6.50685;2.968;0.376139;-1.02404;3.65156;-1.02404;-1.02651;3.43718;-1.02651;0.369368;-4.14434;0.369368;
2.96888;-6.51693;2.96888;0.381188;-1.0231;3.65674;-1.0231;-1.02586;3.44238;-1.02586;0.366434;-4.15017;0.366434;
2.96974;-6.52698;2.96974;0.386239;-1.02217;3.6619;-1.02217;-1.02522;3.44756;-1.02522;0.363498;-4.15598;0.363498;
2.97058;-6.537;2.97058;0.391293;-1.02124;3.66704;-1.02124;-1.02459;3.45273;-1.02459;0.360561;-4.16177;0.360561;
2.9714;-6.54699;2.9714;0.39635;-1.02032;3.67216;-1.02032;-1.02397;3.45788;-1.02397;0.357623;-4.16753;0.357623;
2.9722;-6.55695;2.9722;0.401409;-1.01941;3.67727;-1.01941;-1.02336;3.46301;-1.02336;0.354684;-4.17327;0.354684;
2.97298;-6.56688;2.97298;0.406471;-1.01851;3.68236;-1.01851;-1.02276;3.46812;-1.02276;0.351744;-4.17899;0.351744;
2.97374;-6.57678;2.97374;0.411536;-1.01761;3.68743;-1.01761;-1.02217;3.47321;-1.02217;0.348802;-4.18468;0.348802;
2.97448;-6.58665;2.97448;0.416603;-1.01672;3.69248;-1.01672;-1.02159;3.47829;-1.02159;0.345859;-4.19035;0.345859;
2.9752;-6.59649;2.9752;0.421673;-1.01584;3.69752;-1.01584;-1.02102;3.48335;-1.02102;0.342914;-4.196;0.342914;
2.9759;-6.6063;2.9759;0.426747;-1.01497;3.70254;-1.01497;-1.02046;3.48839;-1.02046;0.339968;-4.20163;0.339968;
2.97658;-6.61608;2.97658;0.431824;-1.0141;3.70754;-1.0141;-1.01991;3.49341;-1.01991;0.337021;-4.20723;0.337021;
2.97724;-6.62583;2.97724;0.436903;-1.01324;3.71253;-1.01324;-1.01937;3.49842;-1.01937;0.334072;-4.21281;0.334072;
2.97788;-6.63555;2.97788;0.441986;-1.01239;3.7175;-1.01239;-1.01885;3.50341;-1.01885;0.331122;-4.21837;0.331122;
2.9785;-6.64524;2.9785;0.447072;-1.01155;3.72245;-1.01155;-1.01834;3.50838;-1.01834;0.32817;-4.22391;0.32817;
2.9791;-6.6549;2.9791;0.452162;-1.01071;3.72738;-1.01071;-1.01784;3.51333;-1.01784;0.325217;-4.22942;0.325217;
2.97968;-6.66453;2.97968;0.457255;-1.00988;3.7323;-1.00988;-1.01735;3.51827;-1.01735;0.322262;-4.23491;0.322262;
2.98024;-6.67413;2.98024;0.462351;-1.00906;3.7372;-1.00906;-1.01687;3.52319;-1.01687;0.319305;-4.24038;0.319305;
2.98078;-6.6837;2.98078;0.467451;-1.00825;3.74208;-1.00825;-1.0164;3.52809;-1.0164;0.316346;-4.24583;0.316346;
2.9813;-6.69324;2.9813;0.472554;-1.00745;3.74695;-1.00745;-1.01595;3.53298;-1.01595;0.313386;-4.25126;0.313386;
2.98181;-6.70275;2.98181;0.477661;-1.00666;3.7518;-1.00666;-1.01551;3.53785;-1.01551;0.310424;-4.25667;0.310424;
2.9823;-6.71224;2.9823;0.482772;-1.00587;3.75663;-1.00587;-1.01508;3.5427;-1.01508;0.30746;-4.26205;0.30746;
2.98277;-6.7217;2.98277;0.487886;-1.00509;3.76145;-1.00509;-1.01466;3.54754;-1.01466;0.304494;-4.26741;0.304494;
2.98322;-6.73113;2.98322;0.493004;-1.00432;3.76625;-1.00432;-1.01425;3.55236;-1.01425;0.301525;-4.27275;0.301525;
2.98365;-6.74053;2.98365;0.498125;-1.00356;3.77104;-1.00356;-1.01386;3.55717;-1.01386;0.298554;-4.27807;0.298554;
2.98406;-6.7499;2.98406;0.503251;-1.00281;3.77581;-1.00281;-1.01348;3.56196;-1.01348;0.295581;-4.28337;0.295581;
2.98445;-6.75924;2.98445;0.508381;-1.00207;3.78056;-1.00207;-1.01311;3.56673;-1.01311;0.292606;-4.28865;0.292606;
2.98482;-6.76856;2.98482;0.513515;-1.00134;3.7853;-1.00134;-1.01275;3.57149;-1.01275;0.289629;-4.29391;0.289629;
2.98517;-6.77785;2.98517;0.518653;-1.00062;3.79002;-1.00062;-1.01241;3.57623;-1.01241;0.286649;-4.29915;0.286649;
2.9855;-6.78711;2.9855;0.523795;-0.999905;3.79473;-0.999905;-1.01208;3.58096;-1.01208;0.283667;-4.30437;0.283667;
2.98581;-6.79634;2.98581;0.528942;-0.999199;3.79942;-0.999199;-1.01176;3.58567;-1.01176;0.280682;-4.30957;0.280682;
2.9861;-6.80555;2.9861;0.534093;-0.998502;3.80409;-0.998502;-1.01146;3.59036;-1.01146;0.277695;-4.31475;0.277695;
2.98637;-6.81473;2.98637;0.539248;-0.997815;3.80875;-0.997815;-1.01117;3.59504;-1.01117;0.274704;-4.31991;0.274704;
2.98662;-6.82388;2.98662;0.544408;-0.997137;3.81339;-0.997137;-1.01089;3.5997;-1.01089;0.271711;-4.32505;0.271711;
2.98685;-6.833;2.98685;0.549572;-0.996469;3.81802;-0.996469;-1.01063;3.60435;-1.01063;0.268715;-4.33017;0.268715;
2.98706;-6.8421;2.98706;0.554741;-0.99581;3.82263;-0.99581;-1.01038;3.60898;-1.01038;0.265716;-4.33527;0.265716;
2.98725;-6.85117;2.98725;0.559915;-0.995161;3.82723;-0.995161;-1.01014;3.6136;-1.01014;0.262714;-4.34035;0.262714;
2.98725;-6.85117;2.98725;0.559915;-0.995161;3.82723;-0.995161;-1.01014;3.6136;-1.01014;0.262714;-4.34035;0.262714;
2.98742;-6.86021;2.98742;0.565094;-0.994522;3.83181;-0.994522;-1.00992;3.6182;-1.00992;0.259709;-4.34541;0.259709;
2.98757;-6.86923;2.98757;0.570278;-0.993892;3.83638;-0.993892;-1.00971;3.62279;-1.00971;0.2567;-4.35045;0.2567;
2.9877;-6.87822;2.9877;0.575467;-0.993272;3.84093;-0.993272;-1.00952;3.62736;-1.00952;0.253688;-4.35547;0.253688;
2.98781;-6.88718;2.98781;0.580661;-0.992662;3.84547;-0.992662;-1.00934;3.63192;-1.00934;0.250673;-4.36047;0.250673;
2.9879;-6.89612;2.9879;0.58586;-0.992062;3.84999;-0.992062;-1.00917;3.63646;-1.00917;0.247654;-4.36545;0.247654;
2.98797;-6.90503;2.98797;0.591064;-0.991473;3.8545;-0.991473;-1.00902;3.64099;-1.00902;0.244631;-4.37041;0.244631;
2.98801;-6.91392;2.98801;0.596274;-0.990894;3.859;-0.990894;-1.00888;3.64551;-1.00888;0.241605;-4.37535;0.241605;
2.98803;-6.92278;2.98803;0.60149;-0.990325;3.86348;-0.990325;-1.00876;3.65001;-1.00876;0.238575;-4.38028;0.238575;
2.98803;-6.93161;2.98803;0.606712;-0.989767;3.86795;-0.989767;-1.00865;3.6545;-1.00865;0.235541;-4.38519;0.235541;
2.98801;-6.94042;2.98801;0.61194;-0.989219;3.8724;-0.989219;-1.00856;3.65897;-1.00856;0.232504;-4.39008;0.232504;
2.98797;-6.9492;2.98797;0.617174;-0.988682;3.87684;-0.988682;-1.00848;3.66343;-1.00848;0.229462;-4.39495;0.229462;
2.98791;-6.95796;2.98791;0.622414;-0.988155;3.88126;-0.988155;-1.00842;3.66787;-1.00842;0.226416;-4.3998;0.226416;
2.98783;-6.96669;2.98783;0.62766;-0.987639;3.88567;-0.987639;-1.00837;3.6723;-1.00837;0.223366;-4.40463;0.223366;
2.98773;-6.9754;2.98773;0.632912;-0.987134;3.89007;-0.987134;-1.00834;3.67672;-1.00834;0.220311;-4.40945;0.220311;
2.98761;-6.98408;2.98761;0.638171;-0.98664;3.89445;-0.98664;-1.00832;3.68112;-1.00832;0.217252;-4.41425;0.217252;
2.98747;-6.99274;2.98747;0.643436;-0.986157;3.89882;-0.986157;-1.00832;3.68551;-1.00832;0.214188;-4.41903;0.214188;
2.98731;-7.00137;2.98731;0.648708;-0.985685;3.90317;-0.985685;-1.00833;3.68989;-1.00833;0.21112;-4.42379;0.21112;
2.98712;-7.00998;2.98712;0.653987;-0.985224;3.90751;-0.985224;-1.00836;3.69425;-1.00836;0.208047;-4.42853;0.208047;
2.98691;-7.01856;2.98691;0.659272;-0.984774;3.91184;-0.984774;-1.00841;3.6986;-1.00841;0.204968;-4.43326;0.204968;
2.98668;-7.02712;2.98668;0.664565;-0.984336;3.91615;-0.984336;-1.00847;3.70294;-1.00847;0.201885;-4.43797;0.201885;
2.98643;-7.03565;2.98643;0.669865;-0.983909;3.92045;-0.983909;-1.00855;3.70726;-1.00855;0.198797;-4.44266;0.198797;
2.98616;-7.04416;2.98616;0.675172;-0.983494;3.92474;-0.983494;-1.00864;3.71157;-1.00864;0.195703;-4.44733;0.195703;
2.98587;-7.05265;2.98587;0.680487;-0.98309;3.92901;-0.98309;-1.00875;3.71587;-1.00875;0.192604;-4.45199;0.192604;
2.98555;-7.06111;2.98555;0.685809;-0.982698;3.93327;-0.982698;-1.00888;3.72015;-1.00888;0.189499;-4.45663;0.189499;
2.98521;-7.06955;2.98521;0.691139;-0.982318;3.93752;-0.982318;-1.00902;3.72442;-1.00902;0.186388;-4.46125;0.186388;
2.98485;-7.07796;2.98485;0.696477;-0.98195;3.94175;-0.98195;-1.00918;3.72868;-1.00918;0.183271;-4.46586;0.183271;
2.98447;-7.08635;2.98447;0.701823;-0.981594;3.94597;-0.981594;-1.00936;3.73293;-1.00936;0.180149;-4.47045;0.180149;
2.98407;-7.09472;2.98407;0.707177;-0.98125;3.95018;-0.98125;-1.00956;3.73716;-1.00956;0.177021;-4.47502;0.177021;
2.98364;-7.10306;2.98364;0.71254;-0.980918;3.95438;-0.980918;-1.00977;3.74138;-1.00977;0.173886;-4.47958;0.173886;
2.98319;-7.11138;2.98319;0.717911;-0.980598;3.95856;-0.980598;-1.01;3.74559;-1.01;0.170745;-4.48412;0.170745;
2.98272;-7.11968;2.98272;0.723291;-0.980291;3.96273;-0.980291;-1.01025;3.74979;-1.01025;0.167598;-4.48864;0.167598;
2.98222;-7.12795;2.98222;0.72868;-0.979996;3.96689;-0.979996;-1.01052;3.75397;-1.01052;0.164444;-4.49315;0.164444;
2.9817;-7.1362;2.9817;0.734078;-0.979714;3.97104;-0.979714;-1.0108;3.75814;-1.0108;0.161283;-4.49764;0.161283;
2.98116;-7.14443;2.98116;0.739485;-0.979445;3.97517;-0.979445;-1.0111;3.7623;-1.0111;0.158115;-4.50212;0.158115;
2.9806;-7.15263;2.9806;0.744902;-0.979188;3.97929;-0.979188;-1.01142;3.76645;-1.01142;0.15494;-4.50658;0.15494;
2.98001;-7.16081;2.98001;0.750328;-0.978944;3.9834;-0.978944;-1.01176;3.77059;-1.01176;0.151758;-4.51102;0.151758;
2.9794;-7.16897;2.9794;0.755764;-0.978713;3.9875;-0.978713;-1.01212;3.77472;-1.01212;0.148569;-4.51545;0.148569;
2.97876;-7.17711;2.97876;0.76121;-0.978495;3.99158;-0.978495;-1.0125;3.77883;-1.0125;0.145372;-4.51986;0.145372;
2.9781;-7.18522;2.9781;0.766666;-0.978291;3.99565;-0.978291;-1.01289;3.78293;-1.01289;0.142167;-4.52426;0.142167;
2.97742;-7.19331;2.97742;0.772132;-0.9781;3.99971;-0.9781;-1.0133;3.78702;-1.0133;0.138954;-4.52864;0.138954;
2.97671;-7.20138;2.97671;0.777609;-0.977923;4.00376;-0.977923;-1.01373;3.7911;-1.01373;0.135733;-4.53301;0.135733;
2.97598;-7.20943;2.97598;0.783097;-0.977759;4.0078;-0.977759;-1.01418;3.79517;-1.01418;0.132504;-4.53736;0.132504;
2.97522;-7.21746;2.97522;0.788596;-0.977609;4.01183;-0.977609;-1.01465;3.79923;-1.01465;0.129267;-4.5417;0.129267;
2.97444;-7.22546;2.97444;0.794106;-0.977473;4.01584;-0.977473;-1.01514;3.80328;-1.01514;0.126021;-4.54602;0.126021;
2.97363;-7.23344;2.97363;0.799627;-0.977351;4.01984;-0.977351;-1.01565;3.80731;-1.01565;0.122767;-4.55033;0.122767;
2.9728;-7.2414;2.9728;0.805159;-0.977243;4.02383;-0.977243;-1.01618;3.81133;-1.01618;0.119503;-4.55462;0.119503;
2.97194;-7.24934;2.97194;0.810703;-0.977149;4.02781;-0.977149;-1.01673;3.81534;-1.01673;0.11623;-4.5589;0.11623;
2.97106;-7.25726;2.97106;0.816258;-0.97707;4.03178;-0.97707;-1.0173;3.81934;-1.0173;0.112948;-4.56316;0.112948;
2.97015;-7.26516;2.97015;0.821825;-0.977005;4.03574;-0.977005;-1.01789;3.82333;-1.01789;0.109656;-4.56741;0.109656;
2.96922;-7.27303;2.96922;0.827405;-0.976955;4.03969;-0.976955;-1.0185;3.82731;-1.0185;0.106355;-4.57165;0.106355;
2.96826;-7.28088;2.96826;0.832998;-0.97692;4.04363;-0.97692;-1.01914;3.83128;-1.01914;0.103044;-4.57587;0.103044;
2.96727;-7.28871;2.96727;0.838604;-0.9769;4.04755;-0.9769;-1.0198;3.83524;-1.0198;0.099723;-4.58008;0.099723;
2.96626;-7.29652;2.96626;0.844223;-0.976895;4.05146;-0.976895;-1.02048;3.83919;-1.02048;0.0963915;-4.58427;0.0963915;
2.96522;-7.30431;2.96522;0.849855;-0.976905;4.05536;-0.976905;-1.02118;3.84313;-1.02118;0.0930493;-4.58845;0.0930493;
2.96415;-7.31208;2.96415;0.8555;-0.97693;4.05925;-0.97693;-1.0219;3.84706;-1.0219;0.0896962;-4.59262;0.0896962;
2.96306;-7.31983;2.96306;0.861159;-0.976971;4.06313;-0.976971;-1.02265;3.85098;-1.02265;0.0863322;-4.59677;0.0863322;
2.96194;-7.32756;2.96194;0.866832;-0.977027;4.067;-0.977027;-1.02342;3.85489;-1.02342;0.0829569;-4.60091;0.0829569;
2.96079;-7.33527;2.96079;0.872519;-0.977099;4.07086;-0.977099;-1.02421;3.85879;-1.02421;0.0795701;-4.60503;0.0795701;
2.95961;-7.34296;2.95961;0.87822;-0.977187;4.07471;-0.977187;-1.02502;3.86268;-1.02502;0.0761715;-4.60914;0.0761715;
2.9584;-7.35063;2.9584;0.883936;-0.977291;4.07855;-0.977291;-1.02586;3.86656;-1.02586;0.0727609;-4.61324;0.0727609;
2.95717;-7.35828;2.95717;0.889667;-0.977412;4.08238;-0.977412;-1.02672;3.87043;-1.02672;0.0693381;-4.61733;0.0693381;
2.95591;-7.36591;2.95591;0.895414;-0.977549;4.0862;-0.977549;-1.02761;3.87429;-1.02761;0.065903;-4.6214;0.065903;
2.95462;-7.37352;2.95462;0.901176;-0.977703;4.09001;-0.977703;-1.02852;3.87814;-1.02852;0.062455;-4.62546;0.062455;
2.9533;-7.38111;2.9533;0.906954;-0.977874;4.09381;-0.977874;-1.02945;3.88199;-1.02945;0.058994;-4.62951;0.058994;
2.95195;-7.38868;2.95195;0.912748;-0.978062;4.0976;-0.978062;-1.03041;3.88583;-1.03041;0.05552;-4.63354;0.05552;
2.95057;-7.39623;2.95057;0.918559;-0.978267;4.10138;-0.978267;-1.03139;3.88966;-1.03139;0.0520325;-4.63756;0.0520325;
2.94916;-7.40376;2.94916;0.924386;-0.97849;4.10515;-0.97849;-1.0324;3.89348;-1.0324;0.0485313;-4.64157;0.0485313;
2.94772;-7.41127;2.94772;0.930231;-0.97873;4.10891;-0.97873;-1.03344;3.89729;-1.03344;0.0450161;-4.64557;0.0450161;
2.94624;-7.41876;2.94624;0.936093;-0.978988;4.11266;-0.978988;-1.0345;3.90109;-1.0345;0.0414864;-4.64955;0.0414864;
2.94473;-7.42623;2.94473;0.941972;-0.979264;4.1164;-0.979264;-1.03559;3.90488;-1.03559;0.0379419;-4.65352;0.0379419;
2.94319;-7.43368;2.94319;0.947869;-0.979558;4.12013;-0.979558;-1.03671;3.90866;-1.03671;0.0343823;-4.65748;0.0343823;
2.94162;-7.44111;2.94162;0.953784;-0.979871;4.12385;-0.979871;-1.03785;3.91243;-1.03785;0.0308073;-4.66143;0.0308073;
2.94002;-7.44853;2.94002;0.959718;-0.980202;4.12756;-0.980202;-1.03902;3.9162;-1.03902;0.0272166;-4.66537;0.0272166;
2.93838;-7.45593;2.93838;0.965671;-0.980552;4.13126;-0.980552;-1.04022;3.91996;-1.04022;0.0236099;-4.66929;0.0236099;
2.93671;-7.46331;2.93671;0.971643;-0.980922;4.13495;-0.980922;-1.04145;3.92371;-1.04145;0.0199865;-4.6732;0.0199865;
2.93501;-7.47067;2.93501;0.977634;-0.981311;4.13864;-0.981311;-1.0427;3.92745;-1.0427;0.0163462;-4.6771;0.0163462;
2.93327;-7.47801;2.93327;0.983645;-0.98172;4.14232;-0.98172;-1.04398;3.93118;-1.04398;0.0126891;-4.68099;0.0126891;
2.9315;-7.48533;2.9315;0.989677;-0.982148;4.14599;-0.982148;-1.04529;3.93491;-1.04529;0.0090147;-4.68487;0.0090147;
2.92969;-7.49263;2.92969;0.99573;-0.982597;4.14965;-0.982597;-1.04663;3.93863;-1.04663;0.00532279;-4.68874;0.00532279;
2.92785;-7.49992;2.92785;1.0018;-0.983066;4.1533;-0.983066;-1.048;3.94234;-1.048;0.00161281;-4.6926;0.00161281;
2.92597;-7.50719;2.92597;1.0079;-0.983556;4.15694;-0.983556;-1.0494;3.94604;-1.0494;-0.00211548;-4.69645;-0.00211548;
2.92405;-7.51444;2.92405;1.01402;-0.984066;4.16057;-0.984066;-1.05083;3.94974;-1.05083;-0.00586357;-4.70029;-0.00586357;
2.92209;-7.52167;2.92209;1.02016;-0.984598;4.16419;-0.984598;-1.05229;3.95343;-1.05229;-0.00963134;-4.70411;-0.00963134;
2.9201;-7.52888;2.9201;1.02632;-0.985151;4.16781;-0.985151;-1.05379;3.95711;-1.05379;-0.0134191;-4.70792;-0.0134191;
2.91807;-7.53607;2.91807;1.0325;-0.985726;4.17142;-0.985726;-1.05532;3.96079;-1.05532;-0.0172267;-4.71172;-0.0172267;
2.916;-7.54325;2.916;1.03871;-0.986323;4.17502;-0.986323;-1.05688;3.96446;-1.05688;-0.0210542;-4.71551;-0.0210542;
2.91389;-7.55041;2.91389;1.04494;-0.986943;4.17861;-0.986943;-1.05847;3.96812;-1.05847;-0.0249033;-4.71929;-0.0249033;
2.91174;-7.55755;2.91174;1.0512;-0.987585;4.18219;-0.987585;-1.0601;3.97178;-1.0601;-0.028774;-4.72306;-0.028774;
2.90955;-7.56467;2.90955;1.05748;-0.98825;4.18577;-0.98825;-1.06176;3.97543;-1.06176;-0.0326672;-4.72682;-0.0326672;
2.90732;-7.57178;2.90732;1.06379;-0.988939;4.18934;-0.988939;-1.06346;3.97907;-1.06346;-0.0365827;-4.73057;-0.0365827;
2.90505;-7.57887;2.90505;1.07012;-0.989652;4.1929;-0.989652;-1.06519;3.98271;-1.06519;-0.0405219;-4.73431;-0.0405219;
2.90273;-7.58594;2.90273;1.07648;-0.990389;4.19645;-0.990389;-1.06696;3.98634;-1.06696;-0.0444845;-4.73804;-0.0444845;
2.90037;-7.593;2.90037;1.08286;-0.99115;4.2;-0.99115;-1.06876;3.98996;-1.06876;-0.0484716;-4.74177;-0.0484716;
2.89797;-7.60004;2.89797;1.08927;-0.991936;4.20354;-0.991936;-1.0706;3.99358;-1.0706;-0.0524829;-4.74549;-0.0524829;
2.89552;-7.60706;2.89552;1.09571;-0.992747;4.20707;-0.992747;-1.07248;3.99719;-1.07248;-0.0565193;-4.7492;-0.0565193;
2.89303;-7.61406;2.89303;1.10218;-0.993584;4.21059;-0.993584;-1.0744;4.0008;-1.0744;-0.0605818;-4.7529;-0.0605818;
2.89049;-7.62105;2.89049;1.10868;-0.994447;4.21411;-0.994447;-1.07636;4.0044;-1.07636;-0.064671;-4.75659;-0.064671;
2.8879;-7.62802;2.8879;1.1152;-0.995337;4.21762;-0.995337;-1.07836;4.008;-1.07836;-0.0687879;-4.76027;-0.0687879;
2.88526;-7.63497;2.88526;1.12175;-0.996254;4.22112;-0.996254;-1.0804;4.01159;-1.0804;-0.072932;-4.76394;-0.072932;
2.88258;-7.64191;2.88258;1.12834;-0.997198;4.22462;-0.997198;-1.08248;4.01518;-1.08248;-0.0771042;-4.7676;-0.0771042;
2.87985;-7.64883;2.87985;1.13496;-0.99817;4.22811;-0.99817;-1.0846;4.01876;-1.0846;-0.0813061;-4.77126;-0.0813061;
2.87707;-7.65573;2.87707;1.14161;-0.99917;4.23159;-0.99917;-1.08676;4.02234;-1.08676;-0.0855382;-4.77491;-0.0855382;
2.87423;-7.66262;2.87423;1.14829;-1.0002;4.23507;-1.0002;-1.08896;4.02591;-1.08896;-0.0898009;-4.77855;-0.0898009;
2.87134;-7.66949;2.87134;1.155;-1.00126;4.23854;-1.00126;-1.09121;4.02948;-1.09121;-0.094095;-4.78218;-0.094095;
2.8684;-7.67634;2.8684;1.16174;-1.00235;4.242;-1.00235;-1.0935;4.03305;-1.0935;-0.098421;-4.7858;-0.098421;
2.8654;-7.68318;2.8654;1.16852;-1.00347;4.24546;-1.00347;-1.09584;4.03661;-1.09584;-0.102779;-4.78942;-0.102779;
2.86235;-7.69;2.86235;1.17533;-1.00462;4.24891;-1.00462;-1.09822;4.04017;-1.09822;-0.107171;-4.79303;-0.107171;
2.85924;-7.69681;2.85924;1.18218;-1.0058;4.25236;-1.0058;-1.10065;4.04373;-1.10065;-0.111597;-4.79663;-0.111597;
2.85608;-7.7036;2.85608;1.18906;-1.00701;4.2558;-1.00701;-1.10313;4.04728;-1.10313;-0.116059;-4.80023;-0.116059;
2.85286;-7.71037;2.85286;1.19598;-1.00826;4.25924;-1.00826;-1.10566;4.05083;-1.10566;-0.120557;-4.80382;-0.120557;
2.84958;-7.71713;2.84958;1.20294;-1.00954;4.26267;-1.00954;-1.10824;4.05438;-1.10824;-0.125092;-4.8074;-0.125092;
2.84624;-7.72387;2.84624;1.20994;-1.01085;4.2661;-1.01085;-1.11087;4.05792;-1.11087;-0.129665;-4.81098;-0.129665;
2.84283;-7.7306;2.84283;1.21697;-1.0122;4.26952;-1.0122;-1.11355;4.06146;-1.11355;-0.134278;-4.81455;-0.134278;
2.84283;-7.7306;2.84283;1.21697;-1.0122;4.26952;-1.0122;-1.11355;4.06146;-1.11355;-0.134278;-4.81455;-0.134278;
2.83936;-7.73731;2.83936;1.22404;-1.01358;4.27294;-1.01358;-1.11628;4.065;-1.11628;-0.13893;-4.81811;-0.13893;
2.83582;-7.744;2.83582;1.23115;-1.015;4.27635;-1.015;-1.11907;4.06854;-1.11907;-0.143623;-4.82167;-0.143623;
2.83222;-7.75068;2.83222;1.23831;-1.01646;4.27976;-1.01646;-1.12191;4.07208;-1.12191;-0.148358;-4.82522;-0.148358;
2.82855;-7.75734;2.82855;1.24551;-1.01796;4.28316;-1.01796;-1.12481;4.07562;-1.12481;-0.153138;-4.82877;-0.153138;
2.82481;-7.76399;2.82481;1.25275;-1.01949;4.28656;-1.01949;-1.12777;4.07916;-1.12777;-0.157962;-4.83231;-0.157962;
2.82481;-7.76399;2.82481;1.25275;-1.01949;4.28656;-1.01949;-1.12777;4.07916;-1.12777;-0.157962;-4.83231;-0.157962;
2.821;-7.77062;2.821;1.26003;-1.02106;4.28996;-1.02106;-1.13079;4.08269;-1.13079;-0.162833;-4.83585;-0.162833;
2.81712;-7.77724;2.81712;1.26736;-1.02267;4.29335;-1.02267;-1.13387;4.08622;-1.13387;-0.16775;-4.83938;-0.16775;
2.81316;-7.78384;2.81316;1.27473;-1.02433;4.29674;-1.02433;-1.13701;4.08976;-1.13701;-0.172716;-4.84291;-0.172716;
2.80913;-7.79042;2.80913;1.28215;-1.02603;4.30013;-1.02603;-1.14021;4.0933;-1.14021;-0.177732;-4.84643;-0.177732;
2.80502;-7.79699;2.80502;1.28962;-1.02777;4.30351;-1.02777;-1.14348;4.09684;-1.14348;-0.182799;-4.84995;-0.182799;
2.80083;-7.80354;2.80083;1.29713;-1.02955;4.30689;-1.02955;-1.14681;4.10038;-1.14681;-0.187919;-4.85347;-0.187919;
2.79656;-7.81008;2.79656;1.30469;-1.03138;4.31027;-1.03138;-1.15021;4.10392;-1.15021;-0.193093;-4.85698;-0.193093;
2.7922;-7.8166;2.7922;1.3123;-1.03326;4.31365;-1.03326;-1.15368;4.10746;-1.15368;-0.198322;-4.86049;-0.198322;
2.78776;-7.82311;2.78776;1.31996;-1.03518;4.31702;-1.03518;-1.15722;4.111;-1.15722;-0.203608;-4.864;-0.203608;
2.78323;-7.8296;2.78323;1.32768;-1.03715;4.32039;-1.03715;-1.16083;4.11454;-1.16083;-0.208954;-4.86751;-0.208954;
2.77861;-7.83607;2.77861;1.33545;-1.03917;4.32376;-1.03917;-1.16451;4.11809;-1.16451;-0.214361;-4.87101;-0.214361;
2.7739;-7.84253;2.7739;1.34327;-1.04124;4.32713;-1.04124;-1.16827;4.12164;-1.16827;-0.219831;-4.87451;-0.219831;
2.76909;-7.84897;2.76909;1.35115;-1.04337;4.3305;-1.04337;-1.17211;4.12519;-1.17211;-0.225365;-4.87801;-0.225365;
2.76419;-7.8554;2.76419;1.35909;-1.04555;4.33387;-1.04555;-1.17603;4.12875;-1.17603;-0.230966;-4.88151;-0.230966;
2.75919;-7.86181;2.75919;1.36708;-1.04779;4.33724;-1.04779;-1.18003;4.13231;-1.18003;-0.236637;-4.88501;-0.236637;
2.75408;-7.8682;2.75408;1.37513;-1.05008;4.34061;-1.05008;-1.18411;4.13588;-1.18411;-0.242378;-4.88851;-0.242378;
2.74887;-7.87458;2.74887;1.38324;-1.05243;4.34398;-1.05243;-1.18828;4.13945;-1.18828;-0.248192;-4.89201;-0.248192;
2.74355;-7.88094;2.74355;1.39141;-1.05484;4.34735;-1.05484;-1.19253;4.14303;-1.19253;-0.254082;-4.89551;-0.254082;
2.73812;-7.88728;2.73812;1.39965;-1.05731;4.35072;-1.05731;-1.19688;4.14662;-1.19688;-0.26005;-4.89901;-0.26005;
2.73257;-7.89361;2.73257;1.40795;-1.05985;4.35409;-1.05985;-1.20132;4.15022;-1.20132;-0.266099;-4.90251;-0.266099;
2.72691;-7.89992;2.72691;1.41632;-1.06245;4.35747;-1.06245;-1.20585;4.15382;-1.20585;-0.272232;-4.90601;-0.272232;
2.72112;-7.90621;2.72112;1.42475;-1.06512;4.36085;-1.06512;-1.21048;4.15743;-1.21048;-0.278451;-4.90952;-0.278451;
2.71521;-7.91249;2.71521;1.43325;-1.06786;4.36423;-1.06786;-1.21521;4.16105;-1.21521;-0.284759;-4.91303;-0.284759;
2.70917;-7.91875;2.70917;1.44182;-1.07067;4.36762;-1.07067;-1.22005;4.16468;-1.22005;-0.291159;-4.91654;-0.291159;
2.703;-7.92499;2.703;1.45046;-1.07356;4.37101;-1.07356;-1.22499;4.16832;-1.22499;-0.297655;-4.92006;-0.297655;
2.69669;-7.93121;2.69669;1.45918;-1.07652;4.37441;-1.07652;-1.23004;4.17198;-1.23004;-0.30425;-4.92358;-0.30425;
2.69024;-7.93742;2.69024;1.46797;-1.07956;4.37781;-1.07956;-1.23521;4.17565;-1.23521;-0.310948;-4.92711;-0.310948;
2.68364;-7.94361;2.68364;1.47684;-1.08269;4.38122;-1.08269;-1.24049;4.17933;-1.24049;-0.317752;-4.93064;-0.317752;
2.67689;-7.94978;2.67689;1.48578;-1.0859;4.38463;-1.0859;-1.24589;4.18303;-1.24589;-0.324667;-4.93418;-0.324667;
2.66999;-7.95593;2.66999;1.4948;-1.0892;4.38805;-1.0892;-1.25142;4.18674;-1.25142;-0.331697;-4.93773;-0.331697;
2.66293;-7.96206;2.66293;1.5039;-1.09259;4.39148;-1.09259;-1.25707;4.19047;-1.25707;-0.338845;-4.94129;-0.338845;
2.6557;-7.96817;2.6557;1.51309;-1.09607;4.39492;-1.09607;-1.26285;4.19422;-1.26285;-0.346116;-4.94486;-0.346116;
2.6483;-7.97426;2.6483;1.52236;-1.09965;4.39837;-1.09965;-1.26877;4.19799;-1.26877;-0.353516;-4.94843;-0.353516;
2.64072;-7.98033;2.64072;1.53172;-1.10333;4.40183;-1.10333;-1.27483;4.20178;-1.27483;-0.361049;-4.95202;-0.361049;
2.63296;-7.98638;2.63296;1.54116;-1.10712;4.4053;-1.10712;-1.28103;4.20559;-1.28103;-0.368721;-4.95562;-0.368721;
2.62501;-7.99241;2.62501;1.5507;-1.11102;4.40878;-1.11102;-1.28738;4.20942;-1.28738;-0.376537;-4.95923;-0.376537;
2.61686;-7.99842;2.61686;1.56033;-1.11503;4.41227;-1.11503;-1.29389;4.21328;-1.29389;-0.384504;-4.96285;-0.384504;
2.60851;-8.0044;2.60851;1.57005;-1.11916;4.41578;-1.11916;-1.30056;4.21716;-1.30056;-0.392628;-4.96649;-0.392628;
2.59995;-8.01036;2.59995;1.57986;-1.12341;4.41931;-1.12341;-1.30739;4.22107;-1.30739;-0.400915;-4.97014;-0.400915;
2.59117;-8.0163;2.59117;1.58977;-1.12779;4.42285;-1.12779;-1.31439;4.22501;-1.31439;-0.409371;-4.97381;-0.409371;
2.58216;-8.02221;2.58216;1.59978;-1.1323;4.42641;-1.1323;-1.32157;4.22898;-1.32157;-0.418005;-4.9775;-0.418005;
2.57292;-8.02809;2.57292;1.60989;-1.13695;4.42999;-1.13695;-1.32893;4.23298;-1.32893;-0.426824;-4.98121;-0.426824;
2.56343;-8.03395;2.56343;1.62011;-1.14174;4.43359;-1.14174;-1.33648;4.23702;-1.33648;-0.435836;-4.98494;-0.435836;
2.55369;-8.03978;2.55369;1.63043;-1.14668;4.43721;-1.14668;-1.34423;4.2411;-1.34423;-0.445051;-4.9887;-0.445051;
2.54368;-8.04558;2.54368;1.64086;-1.15178;4.44086;-1.15178;-1.35218;4.24521;-1.35218;-0.454477;-4.99248;-0.454477;
2.5334;-8.05135;2.5334;1.6514;-1.15704;4.44453;-1.15704;-1.36034;4.24937;-1.36034;-0.464125;-4.99629;-0.464125;
2.52283;-8.05709;2.52283;1.66205;-1.16248;4.44823;-1.16248;-1.36872;4.25357;-1.36872;-0.474005;-5.00012;-0.474005;
2.51197;-8.06279;2.51197;1.67281;-1.1681;4.45196;-1.1681;-1.37733;4.25782;-1.37733;-0.484128;-5.00399;-0.484128;
2.5008;-8.06846;2.5008;1.68368;-1.1739;4.45572;-1.1739;-1.38617;4.26212;-1.38617;-0.494505;-5.00789;-0.494505;
2.48931;-8.07409;2.48931;1.69467;-1.1799;4.45952;-1.1799;-1.39525;4.26647;-1.39525;-0.505148;-5.01182;-0.505148;
2.47748;-8.07968;2.47748;1.70577;-1.18611;4.46335;-1.18611;-1.40459;4.27088;-1.40459;-0.516071;-5.01579;-0.516071;
2.46531;-8.08523;2.46531;1.71699;-1.19254;4.46722;-1.19254;-1.41419;4.27535;-1.41419;-0.527287;-5.0198;-0.527287;
2.45277;-8.09074;2.45277;1.72833;-1.1992;4.47113;-1.1992;-1.42406;4.27988;-1.42406;-0.538811;-5.02385;-0.538811;
2.43986;-8.0962;2.43986;1.73979;-1.2061;4.47508;-1.2061;-1.43421;4.28448;-1.43421;-0.550659;-5.02795;-0.550659;
2.42655;-8.10162;2.42655;1.75137;-1.21325;4.47908;-1.21325;-1.44466;4.28915;-1.44466;-0.562847;-5.03209;-0.562847;
2.41283;-8.10699;2.41283;1.76307;-1.22067;4.48313;-1.22067;-1.45541;4.2939;-1.45541;-0.575393;-5.03629;-0.575393;
2.39869;-8.1123;2.39869;1.77489;-1.22837;4.48723;-1.22837;-1.46648;4.29873;-1.46648;-0.588316;-5.04054;-0.588316;
2.38411;-8.11756;2.38411;1.78684;-1.23636;4.49139;-1.23636;-1.47788;4.30365;-1.47788;-0.601634;-5.04485;-0.601634;
2.36906;-8.12276;2.36906;1.79891;-1.24466;4.49561;-1.24466;-1.48962;4.30866;-1.48962;-0.61537;-5.04922;-0.61537;
2.35354;-8.12789;2.35354;1.81109;-1.25329;4.49989;-1.25329;-1.50171;4.31376;-1.50171;-0.629545;-5.05366;-0.629545;
2.33752;-8.13296;2.33752;1.82339;-1.26227;4.50424;-1.26227;-1.51416;4.31896;-1.51416;-0.644181;-5.05817;-0.644181;
2.32098;-8.13796;2.32098;1.83581;-1.27161;4.50866;-1.27161;-1.52699;4.32427;-1.52699;-0.659303;-5.06275;-0.659303;
2.3039;-8.14288;2.3039;1.84834;-1.28134;4.51316;-1.28134;-1.54021;4.3297;-1.54021;-0.674937;-5.06741;-0.674937;
2.28626;-8.14772;2.28626;1.86098;-1.29147;4.51774;-1.29147;-1.55383;4.33524;-1.55383;-0.691109;-5.07216;-0.691109;
2.26805;-8.15247;2.26805;1.87373;-1.30203;4.52241;-1.30203;-1.56787;4.34091;-1.56787;-0.707848;-5.077;-0.707848;
2.24924;-8.15713;2.24924;1.88657;-1.31304;4.52716;-1.31304;-1.58234;4.34671;-1.58234;-0.725182;-5.08194;-0.725182;
2.22982;-8.1617;2.22982;1.89951;-1.32453;4.53201;-1.32453;-1.59725;4.35265;-1.59725;-0.743141;-5.08698;-0.743141;
2.20977;-8.16617;2.20977;1.91254;-1.33652;4.53696;-1.33652;-1.61261;4.35874;-1.61261;-0.761756;-5.09212;-0.761756;
2.18907;-8.17053;2.18907;1.92564;-1.34904;4.54201;-1.34904;-1.62843;4.36498;-1.62843;-0.781058;-5.09738;-0.781058;
2.16771;-8.17478;2.16771;1.93881;-1.36211;4.54717;-1.36211;-1.64472;4.37138;-1.64472;-0.801079;-5.10276;-0.801079;
2.14568;-8.17891;2.14568;1.95204;-1.37576;4.55244;-1.37576;-1.66149;4.37795;-1.66149;-0.821851;-5.10826;-0.821851;
2.12297;-8.18291;2.12297;1.96532;-1.39002;4.55783;-1.39002;-1.67874;4.38469;-1.67874;-0.843405;-5.1139;-0.843405;
2.09957;-8.18678;2.09957;1.97863;-1.40491;4.56334;-1.40491;-1.69647;4.39161;-1.69647;-0.865772;-5.11967;-0.865772;
2.07549;-8.19052;2.07549;1.99196;-1.42046;4.56897;-1.42046;-1.71469;4.39871;-1.71469;-0.88898;-5.12559;-0.88898;
2.05073;-8.19412;2.05073;2.00529;-1.43669;4.57473;-1.43669;-1.73339;4.406;-1.73339;-0.913057;-5.13166;-0.913057;
2.0253;-8.19757;2.0253;2.01861;-1.45363;4.58061;-1.45363;-1.75256;4.41348;-1.75256;-0.938026;-5.13788;-0.938026;
1.99923;-8.20087;1.99923;2.0319;-1.47129;4.58662;-1.47129;-1.7722;4.42115;-1.7722;-0.963907;-5.14426;-0.963907;
1.97254;-8.20401;1.97254;2.04514;-1.48968;4.59276;-1.48968;-1.79228;4.42901;-1.79228;-0.990716;-5.15081;-0.990716;
1.94527;-8.20699;1.94527;2.05832;-1.50881;4.59902;-1.50881;-1.81279;4.43706;-1.81279;-1.01846;-5.15752;-1.01846;
1.91747;-8.20981;1.91747;2.07141;-1.52869;4.6054;-1.52869;-1.8337;4.44529;-1.8337;-1.04714;-5.1644;-1.04714;
1.88919;-8.21247;1.88919;2.0844;-1.54931;4.6119;-1.54931;-1.85497;4.4537;-1.85497;-1.07676;-5.17145;-1.07676;
1.86051;-8.21497;1.86051;2.09727;-1.57066;4.61851;-1.57066;-1.87657;4.46229;-1.87657;-1.10729;-5.17867;-1.10729;
1.8315;-8.21731;1.8315;2.11;-1.59271;4.62522;-1.59271;-1.89846;4.47104;-1.89846;-1.13871;-5.18605;-1.13871;
1.80226;-8.21949;1.80226;2.12258;-1.61544;4.63203;-1.61544;-1.92059;4.47994;-1.92059;-1.17099;-5.19359;-1.17099;
1.77288;-8.22152;1.77288;2.135;-1.6388;4.63892;-1.6388;-1.94291;4.48897;-1.94291;-1.20408;-5.20129;-1.20408;
1.74346;-8.2234;1.74346;2.14725;-1.66275;4.64588;-1.66275;-1.96537;4.49812;-1.96537;-1.23792;-5.20914;-1.23792;
1.71412;-8.22513;1.71412;2.15931;-1.68722;4.6529;-1.68722;-1.98791;4.50737;-1.98791;-1.27245;-5.21713;-1.27245;
1.68496;-8.22672;1.68496;2.17119;-1.71215;4.65997;-1.71215;-2.01048;4.5167;-2.01048;-1.30759;-5.22526;-1.30759;
